Node,0,1,2,3,4,5,6,7,8,9,10,11,12,13,14,15,16,17,18,19,20,21,22,23,24,25,26,27,28,29,30,31,32,33,34,35,36,37,38,39,40,41,42,43,44,45,46,47,48,49,50,51,52,53,54,55,56,57,58,59,60,61,62,63,64,65,66,67,68,69,70,71,72,73,74,75,76,77,78,79,80,81,82,83,84,85,86,87,88,89,90,91,92,93,94,95,96,97,98,99,100,101,102,103,104,105,106,107,108,109,110,111,112,113,114,115,116,117,118,119,120,121,122,123,124,125,126,127,NodeType
NEAT1,-0.03462556,-0.095782764,0.058140386,-0.1211502,0.022099538,0.0478105,0.07340815,0.0008362216,0.008513086,-0.0019393647,0.009948546,-0.17321505,0.002796697,-0.045747165,0.07873686,-0.100313544,-0.033772524,0.026269948,-0.031266913,-0.09104079,0.061666664,-0.02916778,0.040586993,-0.0134893395,-0.032773588,0.039543025,0.033602726,0.024992151,0.04310014,-0.031630956,-0.008515594,0.03959862,0.0128507335,0.088974416,0.069939196,-0.03555352,0.011454796,0.14907236,0.030538749,-0.032862816,-0.08700581,-0.052456345,0.024374472,0.0645123,-0.0392201,-0.017652355,0.08668718,-0.07861327,-0.109402016,-0.09284822,-0.0041507967,0.0021447272,0.0015569534,0.14268743,-0.013435501,-0.006292658,-0.0810491,-0.034754638,-0.054952644,0.0048656864,0.0048564672,-0.039255988,0.025820177,0.10524896,-0.030720796,0.109509856,-0.018479757,0.008255075,-0.005287085,-0.07357187,-0.11111955,0.010621825,-0.046573665,-0.02344768,0.015614947,-0.025855552,0.097156756,0.07996083,-0.03016775,-0.006786476,-0.102226906,-0.04552572,0.18881145,0.052657202,-0.019205362,-0.10167237,-0.018241687,-0.0090378905,-0.110908516,-0.10362954,-0.0012373913,-0.048520826,-0.04538483,0.014338689,-0.0029097553,0.06082962,-0.16238753,0.17704135,-0.07347157,0.046496335,-0.028635358,0.07155519,0.08323282,-0.16603601,0.017612804,0.14836945,0.13114548,0.025458395,0.036741056,0.102649465,0.12665223,-0.070322506,-0.009740505,-0.053391717,-0.19088155,-0.051019665,0.14805076,0.162424,-0.03396048,-0.045456156,0.48848262,0.0052946857,-0.06857947,0.0038476172,0.11533089,-0.020020988,0.17848715,-0.23121841,lncRNA
LINC00460,-0.050106592,0.107575394,0.06951141,-0.12308903,0.14300732,-0.20249389,-0.11451627,0.051742084,0.08268772,-0.0173923,-0.02363823,-0.038764566,-0.022310222,0.12620819,-0.013328852,0.08129527,0.1656709,-0.036609612,0.020777423,0.07922495,0.10403883,-0.13496682,-0.041014876,-0.18131316,-0.07908647,0.04485212,0.0071119536,-0.080278054,-0.08487383,0.05107385,0.006542196,-0.072897024,-0.098561056,-0.044060133,0.07985147,-0.020527877,-0.124002494,0.016934453,-0.004297853,0.11056565,0.10220851,-0.054535765,0.09680049,-0.020379515,0.061488185,-0.009695917,0.059218526,-0.10665155,0.071068175,-0.06690538,0.1779312,-0.15008375,0.06319338,-0.09494516,-0.14755966,-0.16981845,0.026530208,-0.14086197,0.036955137,-0.043147024,-0.03886852,-0.21128635,-0.063251734,-0.048126455,-0.11792384,0.100993834,-0.017124569,0.0038019747,0.13207017,0.10899294,0.23166697,-0.20315817,-0.17401917,-0.17109567,0.02207301,-0.0023074232,0.026683358,0.045531623,-0.07770383,0.18145417,0.15274711,0.019479932,-0.052365344,0.04411107,-0.06980665,0.08049144,0.123243965,0.14209661,-0.027047247,-0.07887483,0.19929121,-0.13629203,-0.09192475,-0.052023266,-0.024945673,0.14281431,-0.043477282,-0.107191205,0.09912136,-0.05301064,-0.09103198,-0.09615915,-0.027695872,0.08875054,0.007477194,0.0385848,0.020698534,-0.21686573,0.077443525,-0.021396557,-0.01189067,-0.011070333,-0.12709755,0.048999432,-0.011763254,0.08776917,-0.11373088,0.0988739,-0.040855687,-0.03265217,0.04904257,0.22652052,0.087405086,-0.025858028,-0.04296538,-0.03872342,0.07821987,0.03720589,lncRNA
MALAT1,0.01027122,0.039299726,0.09052051,-0.007686546,-0.05740631,-0.04713352,-0.017334398,-0.06713906,0.012896058,0.043923527,-0.02017073,0.05184148,0.017202724,-0.07287485,0.094615765,0.07408596,-0.06291412,0.06357528,-0.00086321624,0.024594976,0.025031552,0.0104164025,0.08078108,-0.05435391,0.10409293,0.10857108,0.08109382,-0.009230429,0.03358626,0.006102194,0.022582302,0.002864123,0.016290043,-0.035680283,-0.04468118,0.10317938,-0.041623954,-0.05424549,-0.033325244,-0.013295827,-0.036953844,0.014331982,-0.009878479,0.01105652,-0.07940396,0.0033549275,0.04180544,0.08569044,0.06373594,0.037285108,-0.043678276,0.02071571,-0.102221355,-0.047271743,-0.007392299,-0.029242957,-0.005363639,-0.026541134,-0.092141435,0.00924973,-0.111683846,-0.10812764,-0.15366569,-0.05245583,-0.12243814,-0.003345566,-0.00022815319,-0.03781111,0.1017201,0.009674992,0.044309042,-0.109545745,-0.028326645,-0.019384341,-0.02893578,0.004939735,-0.010453522,-0.102696754,-0.10640594,-0.0070583504,-0.038982235,0.065464,-0.025419684,0.038408294,-0.021895442,0.06790781,0.042289976,0.10530447,-0.0020356353,0.044841886,0.015841033,0.03484134,0.060629368,-0.022860313,-0.0072454433,0.05105014,-0.08527421,-0.095254555,-0.06864075,0.06891146,-0.060805067,-0.0066680913,-0.019820338,-0.030782362,0.006281606,0.0821266,-0.0065502487,-0.06194338,-0.02001618,0.086703986,0.08019443,-0.018934984,-0.03612788,0.025340157,-0.0039888592,-0.06377238,-0.030503334,-0.022585379,0.006742721,-0.023642076,-0.007577012,-0.012991672,0.018248206,0.015547364,-0.045716316,0.109823756,0.15200946,0.06996239,lncRNA
MIAT,0.09394216,0.12894653,0.044721432,0.11299745,-0.00031520182,-0.065471075,0.0152917495,0.11925273,0.028607212,-0.03790992,-0.056174077,-0.04214823,0.34801137,-0.00524937,0.014571278,-0.11554276,0.10142143,-0.0207154,-0.049869973,-0.0012107501,0.05620101,0.03832408,0.047559857,0.0645906,0.08769681,-0.06593508,0.12289559,-0.003892129,-0.10612638,0.07985607,0.015506819,0.13787924,-0.012565095,0.03981588,-0.047928106,0.009567162,-0.037104614,-0.032868776,0.07422907,0.21443795,0.074071825,0.06757223,-0.067950286,0.11788473,-0.10155172,-0.030326039,0.16580503,-0.007338697,-0.0509709,0.1627584,-0.08342269,-0.05695413,0.0140714245,0.04261313,-0.10737318,-0.08794972,-0.14725757,-0.31559333,0.056432933,0.095623665,0.031952675,0.22845018,-0.054968752,0.00802148,-0.068774775,0.09946265,0.00845594,0.054179724,0.07914165,-0.12005733,-0.10592108,-0.07760709,-0.09138509,-0.19773526,0.12863036,0.0050026434,-0.21596223,0.31895798,0.13779609,-0.08715808,-0.12820853,-0.01496354,0.07634132,-0.057064645,-0.1538207,-0.012289982,0.04120074,-0.15443356,-0.119028,-0.011708579,0.03486765,0.012636623,0.075219184,-0.09368363,-0.036134053,0.10453434,-0.060364775,0.03818813,0.02884137,0.03317854,-0.008859033,0.12886085,-0.15794721,0.0034296475,0.09912286,-0.12837815,0.004952529,0.08829767,-0.016030885,0.16930418,0.10293754,0.12598817,0.18550839,-0.10268875,-0.012779026,0.12684412,-0.0040217894,0.03385213,-0.26931036,0.047126234,-0.08784363,-0.050270382,-0.09932323,-0.12179144,0.026362045,-0.0071122902,0.16698621,-0.030882167,lncRNA
CDKN2B-AS1,-0.03668036,0.0625734,0.056815945,0.11811802,-0.0036271196,-0.11311728,0.11336219,0.07872879,-0.08084793,0.044399645,-0.16461128,0.012385714,0.059128094,-0.014524418,-0.045979295,0.005895245,0.0095685385,-0.09872044,0.05103022,-0.12536366,0.025900386,0.004570204,0.13517025,0.029875876,0.08453098,0.09473526,0.003680186,-0.05563487,0.04186355,-0.112837724,0.034511905,0.004138477,0.07917723,-0.12789463,0.11293081,-0.006105455,-0.029575134,0.009473105,-0.0004467797,-0.023232032,-0.15300985,-0.18914823,0.2154443,-0.05474878,0.12242302,0.023304014,0.18966067,-0.12917623,0.10682458,0.07441016,0.13436133,0.047670297,-0.08101352,-0.004785183,-0.024559224,0.115245454,0.015309917,-0.048356645,0.03144391,-0.1574054,0.016997587,-0.016918646,0.0005631943,0.14698309,0.08144082,-0.027672708,0.10231217,-0.056122843,-0.04611163,-0.00748742,0.041283265,-0.1782803,0.10377957,-0.14542069,0.010428447,-0.04530242,0.0012459736,-0.051541843,0.007769976,-0.1101164,0.00989422,0.052135475,-0.053091407,0.24251446,0.043415494,0.050460324,-0.030573267,-0.0069801817,0.013901051,0.0046314923,-0.041731536,0.012448458,-0.0028611883,0.045994263,-0.04860202,-0.044094894,0.053873543,0.1637448,-0.0047040973,-0.022215148,0.0039334907,0.0856289,-0.016562194,-0.08201929,0.016259527,0.0054199984,-0.037389394,-0.019929677,-0.04083996,-0.0035141187,0.028426893,0.00025358982,0.04681986,0.19981122,-0.03873127,-0.0014716202,-0.05915418,0.07168939,0.009575218,0.027793985,-0.028739227,-0.19695023,-0.09293964,-0.0701551,-0.07820196,0.12849684,0.052187957,-0.09241869,lncRNA
GAS5,-0.19012982,0.09672005,0.08753975,-0.08469588,0.01178786,-0.073780805,0.032669615,-0.14297263,0.08832279,-0.035160866,-0.015102283,0.11707319,0.09016602,0.09887756,-0.10219072,-0.04339355,0.0237582,-0.08640043,-0.040246952,-0.091547884,0.03570893,0.045819763,-0.23482679,-0.04614504,0.072807565,0.055481236,0.107256114,-0.028991986,-0.13948205,-0.1366901,-0.02230769,-0.039897885,-0.10595821,-0.02774791,-0.052602626,-0.14120881,0.017818328,0.055096783,0.017788943,-0.07211139,-0.18005973,0.09038866,0.09017981,-0.025632106,0.03608186,-0.032140486,0.12173462,-0.08327918,-0.06355046,0.07198763,0.108496845,0.05734615,-0.04256746,0.0101933805,-0.13468266,-0.058892183,-0.0922611,0.0029412534,-0.05671335,-0.008987893,-0.0010032286,-0.120195076,-0.09497908,-0.06762294,-0.11657779,-0.08793736,0.028900044,-0.020123707,-0.035281017,-0.14449841,-0.122853994,-0.10804575,-0.02049742,0.050262477,0.008712286,-0.051882118,0.036318284,0.03373514,-0.02156212,-0.037439816,-0.009978199,0.09547787,-0.07782228,0.07601457,0.048898876,0.11171395,-0.15322031,0.007371973,0.0646781,0.12352377,-0.09076036,0.0077603958,-0.0025906973,-0.08097693,0.120096065,0.007485197,0.15172556,-0.060174022,-0.03568894,-0.032075692,0.026195562,-0.02756805,-0.07095223,-0.11642806,0.09116068,0.029715952,0.11411446,0.058676295,-0.013444653,0.10108389,-0.10207453,-0.0023045451,0.040311057,0.050939225,-0.19053279,0.081943706,0.002439246,0.010300813,0.17584741,0.10735627,0.017142247,-0.06850663,0.11222095,-0.09311032,-0.18469782,0.04096638,0.029310629,-0.106612265,lncRNA
CASC2,-0.057425093,-0.01976072,0.014811118,-0.21532205,-0.04942761,0.021263503,0.005679432,0.064326584,0.052208453,-0.12474585,-0.072748095,0.009843169,-0.0070658782,0.099030785,0.017552797,-0.0073268395,0.00027138804,-0.03925049,-0.16588455,0.120397694,-0.056498893,0.04295314,-0.023222057,-0.035608176,-0.09865222,0.06116534,-0.0006234694,0.08226186,-0.04334279,0.008326372,0.017959252,-0.102254234,0.00029095914,0.12641631,-0.1672365,0.08126806,-0.08975605,0.047870584,0.07984987,0.14277627,-0.044412974,0.12727334,-0.14548962,0.09745631,-0.06601776,0.011920178,0.1141229,-0.11430285,0.0724353,0.04826146,0.24249311,-0.0068692993,-0.14865915,0.040061627,-0.1401134,-0.004405782,-0.033942644,0.089978695,-0.023898134,0.18073453,-0.07482632,-0.012420077,-0.015233774,-0.013206361,-0.05744262,0.034770075,-0.043046027,-0.08238479,-0.07526319,-0.14964521,-0.09844492,-0.07451023,-0.021346737,-0.076426,-0.12032095,-0.04284407,0.047737047,0.019560248,-0.14605266,-0.057942398,-0.09440398,-0.055060163,0.092164345,0.009319325,-0.0109514,-0.030800479,-0.121458985,0.14308275,-0.090853944,0.003145776,0.15790437,0.22636296,-0.06181105,-0.09507626,0.08576742,0.0845055,0.006490413,-0.010568884,0.030903067,-0.007310246,-0.062035948,0.029859928,0.048646573,-0.01830811,0.035982464,-0.09273018,-0.12253775,0.20789903,0.015641775,0.024501333,0.06537686,-0.1538495,-0.068053044,-0.073973216,-0.046401676,-0.06318582,-0.019985251,0.00011696096,0.06554455,0.07620576,-0.011724201,0.03638066,0.08868061,-0.1999528,0.057359736,0.015708784,0.099463575,-0.10822801,lncRNA
PCED1B-AS1,-0.050725237,8.676376e-05,0.109811276,-0.016142499,-0.17405838,0.036330055,-0.2168033,-0.029780611,-0.13227235,0.09962517,0.008760847,0.023161715,0.010676867,-0.0939541,0.1985584,-0.0868771,-0.058130596,-0.13800903,0.106223635,0.1574004,-0.138548,-0.21126336,-0.09547768,0.15790936,-0.0017319747,0.110240996,-0.021259801,-0.3675473,0.21308729,0.19944414,-0.032180905,0.08206922,0.0028542269,0.15358758,-0.34585312,-0.08183183,0.23433131,0.071811326,-0.026573792,0.0024270148,-0.18484202,0.13733888,-0.038887292,0.002582256,0.18263152,-0.05246966,-0.14062338,-0.0015653132,0.25345883,0.053371,-0.026767569,0.030486623,0.042510763,-0.08949969,0.02581658,-0.08281303,0.3519225,-0.030609041,-0.15404542,0.13301039,-0.18898213,-0.03709072,-0.011644973,0.062153254,-0.123657376,-0.087207325,0.047725983,-0.07896441,0.07048769,0.046768773,0.085555576,-0.050640266,-0.07082395,-0.057796635,0.030084163,-0.04475013,-0.0105809495,0.045365024,0.029033845,-0.032044396,0.20796627,-0.1157414,0.09051435,0.011139835,0.056573525,-0.07132929,-0.059897345,0.13709337,0.061973453,-0.05536721,0.0047804425,0.027455596,0.030848764,0.024048407,0.049988624,-0.0129876295,0.14908543,0.26864603,0.15925245,-0.049900696,-0.14953342,0.015102497,0.20140605,-0.24363692,-0.47300726,-0.23613939,-0.03201522,-0.0477197,0.17524149,-0.0072816405,-0.09197454,0.14291821,0.046003126,-0.03243451,0.021376034,0.103188716,-0.07257998,0.10627349,-0.028822964,0.24136387,-0.03884579,0.01976465,-0.009123875,-0.44173312,-0.15832621,0.035205115,0.27004123,-0.43975005,lncRNA
LINC00662,-0.1200175,0.060663518,-0.11398118,0.04436067,-0.070540264,0.2495657,-0.10588357,-0.035119947,0.09905499,-0.05613327,0.021894787,-0.2093075,0.005042708,-0.08458602,0.014528885,0.1291044,-0.08403004,-0.10456117,-0.15424925,-0.15352319,-0.069531575,0.027097961,-0.13279888,-0.020350032,-0.07260302,-0.08926973,0.058610518,0.14091401,0.09549282,-0.0024051717,0.043313883,-0.052434515,0.057697866,-0.20690997,-0.016995542,0.13140436,-0.0867739,0.054391824,-0.23920746,0.087453485,0.030984718,-0.03013614,0.013123954,0.41025105,0.08026959,0.104392655,0.032441627,-0.12685978,0.00693272,-0.09988491,0.09299905,0.08438232,0.021035695,0.028821426,0.04637979,0.048771936,-0.18686667,0.0059049274,0.040281817,0.069441326,0.13532475,-0.10097183,-0.14413592,-0.0108625665,0.13069707,0.116720565,-0.20672335,-0.067861184,0.12857224,-0.014780952,0.030871356,0.17689106,0.020253792,-0.11181752,0.25162742,-0.004925891,0.10090243,0.1519032,-0.048128176,0.052523103,0.028304288,-0.16558337,-0.042621877,0.027596252,0.027415937,-0.006675084,-0.12154684,0.13579673,-0.06857022,0.055563845,-0.07475541,0.09533806,-0.15460838,-0.09688856,-0.013827664,-0.021533675,-0.0023258682,-0.1164412,0.10093935,0.033752132,0.0005511114,0.19729228,0.13961443,-0.21781717,-0.12418219,0.15798116,-0.019022018,-0.13038561,0.069684155,0.07276073,-0.052719,-0.11940572,-0.018075664,0.16912505,0.03023837,0.2159866,-0.022809165,0.13895212,-0.010832475,-0.020318361,-0.028837638,-0.08355409,-0.08017851,-0.05311737,-0.0051730913,0.09066836,0.024557695,-0.014357571,lncRNA
SNHG6,0.090479724,0.09169461,-0.058860548,0.07799598,-0.032169595,0.03573302,-0.05025391,0.12702177,0.015387031,-0.017665269,-0.14700846,-0.05169883,0.09666052,0.099845685,0.10714424,0.028068984,-0.110269494,-0.011574544,0.095082134,-0.036959715,0.042300276,-0.04918844,-0.0032554863,-0.0943646,0.012121434,-0.09290986,-0.042916246,0.07025989,0.043865077,-0.025339518,0.14279968,-0.053614903,-0.1289164,-0.10429299,-0.1482916,0.06423533,-0.058732968,0.043002926,-0.02325916,-0.020003278,-0.014254344,-0.045018222,-0.22817926,0.17744827,-0.042876024,-0.17596222,-0.0038074977,0.0005497327,0.04213152,0.13494235,-0.06289542,0.22866766,-0.17844877,0.087660946,-0.113234624,0.04816086,-0.011259127,-0.15407526,-0.11093641,-0.14555188,0.009485279,0.08262076,0.100091755,-0.064095154,0.038521133,0.001956487,0.16657296,0.0268574,-0.016984642,-0.0072561414,0.014232819,0.028576218,-0.064730056,0.075872056,0.1572213,0.022981118,-0.1780938,-0.10566592,-0.14604002,0.010437019,-0.016575161,0.0847323,0.11551398,0.11475897,-0.11351198,-0.06408119,-0.02311196,0.048173927,0.06048669,-0.022866618,0.07912588,-0.1317137,-0.19033521,-0.0012917118,0.06572894,0.06734301,0.13549796,-0.015805533,0.1213953,-0.0077204094,-0.15169074,-0.06843988,-0.05349373,0.06980215,-0.13171515,0.0022986415,-0.031887818,-0.043084543,0.0073813703,0.045097955,-0.07554689,-0.011094725,-0.12506303,0.02820727,-0.06136264,-0.0926551,0.03365586,-0.0069498923,0.051875398,0.14525798,-0.065920606,-0.11336762,-0.04676732,-0.12872614,-0.08480767,0.10916808,0.16468942,0.09017735,lncRNA
OIP5-AS1,-0.05753929,-0.08356997,-0.1721651,-0.119916834,-0.038881365,0.036066152,0.065291956,0.10043728,-0.009305762,0.07551292,0.09297041,-0.050415244,0.02291005,0.025967486,-0.044256285,-0.13387117,0.11749533,-0.009205079,-0.09245241,0.008006859,0.09272079,0.10687813,-0.049727947,-0.06306517,0.017032525,0.078454755,0.09713222,-0.021456013,0.08577346,-0.0051533785,0.16446398,0.029807348,0.124305986,-0.11333181,0.09689916,0.002364094,-0.009776175,0.0409141,0.09748069,0.11807532,0.115608394,0.008611621,0.032028805,-0.052787524,-0.064058535,0.0278421,0.055932447,-0.07359691,-0.07911625,-0.015750058,-0.017266663,-0.11293926,-0.105112374,-0.20277542,0.07210911,-0.15802525,-0.12414295,-0.02751691,0.09561127,-0.096286304,0.028409053,-0.00958886,-0.022518165,-0.017033864,0.16732344,0.0094146645,0.017860884,-0.081244454,0.0846297,-0.14469893,0.102775574,-0.12505367,0.2414591,0.031012366,0.160783,-0.0019351175,0.13145334,0.069902636,-0.05636465,-0.07964078,-0.08492866,-0.029022032,0.024488308,0.065690756,-0.0824611,-0.09316256,-0.09869858,0.086341895,0.028217282,-0.0768854,0.007106929,0.041457776,0.032484964,0.04488134,-0.03910085,0.051562548,-0.11088847,-0.04027034,0.02501198,-0.08484529,-0.027760733,-0.012749991,0.046267062,-0.02726276,-0.03877265,-0.03165809,0.055008665,0.12671112,0.031844907,-0.01099113,0.05032514,-0.06817204,-0.07342024,0.058966175,-0.052785218,-0.04139732,0.08335195,0.059415564,-0.046378676,-0.029995378,-0.054466058,0.010363171,0.06983652,-0.120274544,-0.074856445,-0.13464901,-0.12735073,0.09360878,lncRNA
XIST,-0.015033507,0.02699929,0.099106945,0.05495644,0.04164012,-0.0018573768,0.0015307537,0.036365412,0.12173254,0.07930342,-0.028934177,-0.072021104,-0.09419805,-0.05842348,-0.068232,0.014551299,-0.01179029,0.010062683,-0.12568603,-0.101658165,-0.0015891403,-0.13872135,0.026297813,-0.014186015,-0.02525855,0.083942756,0.032313865,-0.06337797,-0.0252251,-0.05317586,-0.010412569,0.028473012,-0.05113615,0.06435321,0.07123748,-0.085267805,-0.0017933978,0.0957705,-0.06025996,-0.02397664,0.06013387,-0.08780515,-0.0006113565,-0.13280895,-0.003426901,0.034705207,0.017357945,0.117442675,-0.18702245,0.0020243477,0.09613262,-0.07608329,-0.13254306,-0.06875298,-0.074864514,0.0074684033,-0.07080262,-0.09964688,-0.015448929,-0.013275124,-0.07922401,0.021407459,-0.086670555,-0.039245397,-0.032622214,0.086065404,-0.070159286,0.11750928,-0.022822076,-0.1450986,0.04122634,-0.07262984,-0.016232483,-0.054518674,0.01870826,-0.020902565,-0.021126512,0.20270948,0.020043025,-0.038593773,0.11073482,-0.05935441,-0.00674912,0.021438908,-0.14928107,-0.034988735,0.0036896258,0.1428545,0.011627708,0.11517317,-0.0056325863,0.09585947,0.026812663,-0.14887601,-0.05808217,0.055034216,0.039745983,-0.13897638,0.05089806,0.056194425,0.10042908,0.0110906605,-0.055544276,-0.026155468,0.024600944,-0.05927553,-0.09627996,-0.08879002,-0.02687821,-0.023328966,-0.026014525,-0.07792397,-0.013928533,-0.019082012,0.010293912,0.060147926,-0.038759504,0.0069027045,-0.10118556,-0.05343794,0.07988505,-0.069533035,0.1084615,0.08454527,-0.15119046,0.042222843,-0.042191267,-0.01833304,lncRNA
SNHG14,-0.18219236,-0.102270104,-0.023561262,-0.03570845,0.07662081,-0.120356426,0.025259366,0.07065491,-0.10334157,0.1491055,-0.05216889,-0.13883992,-0.12726668,-0.031451635,-0.12099055,-0.00517697,0.18649346,0.0015327301,0.05765865,0.09460132,-0.11026841,-0.06585954,0.21267374,-0.096452326,0.13714652,-0.06258559,-0.042529013,0.039853085,-0.014534143,0.09607755,0.052685462,-0.1410359,0.062895045,0.010471735,0.05968862,-0.13580869,0.13724451,-0.101490185,-0.12294059,-0.07042056,-0.017935421,0.12848933,0.04995147,0.011300546,-0.1149207,-0.012038499,0.108802415,0.009254167,-0.10240477,-0.119064264,-0.021045683,-0.0076257074,0.0058674193,0.032013014,0.04569436,0.03746378,-0.09091694,-0.22142729,-0.10632957,0.11678961,0.16734098,0.006180015,-0.03916208,-0.08614189,-0.07933679,0.10970477,0.09185064,0.005093127,0.18989152,-0.012558504,0.22339672,0.006477032,-0.10565994,0.016218036,0.13755701,-0.21455638,0.030317375,0.06641502,-0.35484806,-0.10499162,0.07494937,-0.05675858,-0.36602676,-0.07314969,0.0010098671,-0.037208136,0.14960992,-0.051353563,0.13780767,0.0701233,-0.2635966,-0.09144592,0.04289605,0.08907064,0.08589425,-0.0646049,0.013054125,-0.0032090042,-0.033692762,0.031878795,0.20113026,-0.0013431688,-0.06457307,0.15075506,0.084154814,-0.16368002,0.01222684,-0.006267816,-0.056976456,-0.16113244,-0.06925491,-0.12108313,0.039727826,-0.08141731,-0.089598425,0.016005633,-0.14975345,-0.09720373,-0.042518348,0.036046058,-0.15748172,-0.15873563,-0.0374037,-0.047947194,0.027777705,0.036556955,0.009073961,-0.12777022,lncRNA
SNHG17,0.09536002,-0.22055532,0.15590239,-0.16057655,0.059780285,-0.21594658,0.08148206,-0.10183875,0.09992601,0.0059591937,0.042908903,0.113008164,-0.18765032,-0.0030435496,0.15473583,-0.304212,0.065719575,-0.1494583,0.11619681,0.010228093,-0.1711867,0.19075161,0.15484375,0.09484659,-0.15007827,0.016012015,-0.20765296,0.16885874,-0.054038875,0.07458942,-0.088504866,0.03186156,-0.024383148,-0.17250854,0.05465013,0.22656389,0.064356916,0.08569957,-0.11720482,0.05431185,-0.118468896,-0.0952741,-0.15440528,0.09865104,0.0654397,0.005148727,0.11126553,-0.17005865,0.06483047,-0.0028351215,-0.08068985,0.055596404,-0.20383762,0.009789326,-0.08437608,-0.051930312,-0.025072893,-0.12585936,0.050136454,0.044161685,-0.00731293,-0.035439502,0.030613663,0.034835216,-0.12981644,-0.12984368,-0.052695148,0.024772607,-0.09961281,0.08390607,0.058704033,-0.12544774,0.054134846,0.21212934,-0.19473845,-0.0885166,0.07568856,-0.092459545,0.13538557,0.06655813,0.101077646,0.0008603163,0.031556237,0.103820734,-0.10481916,0.09404012,-0.07246279,0.023570864,0.04348266,0.14970605,-0.10355605,0.049933948,-0.13376547,0.1960579,0.06143236,-0.041733768,0.004671368,-0.17743935,-0.13193749,-0.17341699,-0.01837862,0.023952156,-0.0019130113,0.096248835,-0.03548924,0.11473196,-0.06467021,0.03582821,-0.1892118,-0.107404605,0.12119511,-0.02341403,0.06867039,0.036916275,0.31050768,0.08441399,-0.02368149,-0.09684149,-0.066701815,0.007968278,0.19627833,-0.06697769,0.02072408,-0.08494104,0.010317082,-0.16054486,0.07847551,0.030468527,lncRNA
HULC,0.05234373,-0.2356194,0.18113507,0.02249185,0.085758306,-0.07849046,-0.107957475,0.07698674,0.019302806,0.13091221,0.033359434,-0.21454811,0.034910966,0.12756701,0.04786064,0.017375033,-0.09819242,0.085091956,0.10722301,0.057640035,0.06529068,0.11258428,-0.051130082,0.033393174,0.09420628,-0.09670025,-0.11084878,-0.0804107,-0.09611412,-0.051285118,-0.11526041,0.09534138,-0.21987018,-0.01799695,0.06007183,0.044751886,-0.0806546,-0.045042485,-0.081489645,-0.032160427,-0.13534983,0.35077798,-0.05540161,0.024917016,-0.19156928,0.050649054,0.019671293,0.07031327,-0.008283778,-0.036460727,0.18543978,0.024119657,0.092473894,-0.09234293,-0.09385585,0.13183467,0.014933458,-0.07200939,0.018533047,-0.083919786,0.017519582,-0.03456091,0.069706,0.0030350147,-0.023704726,0.07620125,-0.029001392,-0.06628729,0.026716689,-0.17130321,0.081815824,-0.0986633,-0.029039888,-0.11104093,0.106541924,-0.10014761,-0.032205578,-0.2185612,-0.041975208,-0.092447825,-0.09359213,0.098541215,-0.100636,-0.07767294,0.038021524,-0.14724931,-0.040456273,-0.115167804,0.09133204,-0.03569641,0.054925453,0.09251639,0.03989017,-0.081235915,-0.0012934143,-0.16497508,0.09676497,-0.108558394,0.08943257,-0.06627,0.015844416,0.07774781,-0.13142549,-0.15243536,-0.13970657,0.086166166,-0.106259584,-0.095136635,-0.0114971325,0.13213496,-0.16294369,0.014599531,0.19697806,0.11177094,0.06178267,0.07046953,0.019518385,-0.035785347,-0.00027310877,-0.032881413,0.1298813,0.02186505,0.06694961,-0.14127111,0.10844304,-0.084558494,0.011248049,0.044553533,lncRNA
DSCAM-AS1,0.10343149,-0.07682871,0.013224691,0.06926977,-0.13007492,0.050884828,0.027808275,0.04141295,0.17144686,-0.09279647,0.19831023,-0.18644278,-0.12530772,0.1016016,0.13367224,-0.013308629,-0.10045759,0.1394624,-0.059673425,-0.09147904,0.028724309,-0.039813347,0.048081633,-0.048843767,-0.05117918,-0.021443559,0.031734746,0.0460215,0.05772093,-0.13443673,-0.04699192,-0.15519919,0.009080027,0.053595047,0.046014614,0.111123756,0.19402367,-0.19758435,-0.040914867,0.15705383,0.039265823,0.12064333,-0.11508896,-0.027699688,-0.062065218,-0.27470377,0.106344394,-0.027379077,0.074042454,0.0033007232,-0.11576605,0.16622801,-0.08844733,0.045791928,-0.1342061,-0.020212043,-0.3119573,0.06641747,-0.09001658,-0.031483617,0.0018162287,-0.011133169,0.03239547,0.18111067,0.03630895,0.0013664736,0.1889901,0.04768665,0.12163501,0.11404687,-0.006771786,-0.26380873,-0.0990537,0.052554615,-0.10870312,-0.19743067,-0.29814497,-0.029783215,-0.10885014,-0.042431355,0.09025116,-0.07803818,-0.114833154,-0.00045436324,0.17666887,0.13592087,0.09114615,-0.023684092,0.017214172,-0.0017364316,0.1678908,-0.0022003476,0.12307903,0.1679718,-0.13275798,0.119801536,-0.031276777,-0.06957346,-0.019134678,0.09702353,-0.078177534,-0.0219104,0.06328963,-0.023219483,0.20452009,0.04390504,-0.014824195,0.0031158582,0.092499144,0.009582918,-0.10075136,0.00928562,-0.17538805,0.009999339,-0.22764146,0.12619655,0.09117842,0.1080222,0.13020287,-0.1107743,0.039939575,-0.028220555,-0.10299745,-0.34243998,0.08951586,-0.10288681,-0.054461014,0.12985791,lncRNA
TTN-AS1,0.040126093,0.079974934,-0.007123432,0.13821912,-0.047378503,0.11914444,0.006285777,0.017656494,-0.0884885,0.03487596,-0.17574151,-0.12062348,-0.0025808546,0.02531238,0.060068037,-0.09009553,-0.016941044,-0.056966186,-0.12986827,-0.19451919,0.10284821,-0.075018115,0.038654476,0.2170784,0.012915805,0.16432859,-0.009055118,0.20828347,-0.2755117,0.17036276,0.28944382,0.09430533,0.07281838,-0.026120221,0.0072962376,0.12300034,0.027343696,-0.06302584,0.12162433,0.10026249,0.1264204,-0.0339676,-0.22919619,-0.024417473,-0.22598709,-0.0918019,-0.06322686,0.031013027,-0.008541144,0.06654997,-0.19907694,-0.14029315,0.16443531,-0.2773512,0.019023778,-0.029718934,-0.0811427,-0.16694324,-0.18745983,-0.11751102,-0.11962986,0.07181672,0.0024595582,0.033490747,0.050910395,-0.107077606,0.2619901,-0.093547866,0.025699385,0.18379547,0.028130656,-0.06129289,-0.18897642,-0.14885007,0.16023117,0.0056217303,0.066537134,-0.20608832,0.18135531,0.062592566,0.15238385,0.018745603,-0.06263927,-0.17526628,0.054156594,-0.25109956,0.114894465,0.055051096,-0.13964196,-0.037572768,0.074842736,0.0213862,0.053612344,-0.013976386,-0.18111806,0.12812674,0.08210037,-0.015703278,0.0599892,-0.1832096,0.02632894,0.10598418,-0.17376135,0.049944863,-0.19640802,0.15280354,-0.028059164,-0.041631494,0.13041726,-0.08252642,0.006112813,-0.05885774,-0.083461,0.06434401,0.011703964,-0.089892134,0.09315107,-0.10702932,0.15040216,-0.035397824,-0.17003556,0.046001926,-0.06543148,0.032687087,-0.0737686,-0.053909145,0.09244216,-0.09102645,lncRNA
SNHG16,0.02785207,0.1586021,0.24049684,-0.018175738,-0.118489064,0.12874192,-0.03906063,0.01372918,0.21376163,0.035766345,0.045291204,-0.2242273,0.15122028,-0.05549514,-0.06231326,-0.05963064,-0.105247945,0.052957438,0.027303252,0.059583228,0.08595784,-0.11729702,0.12944911,-0.09792727,-0.070280895,0.055648293,0.022147395,-0.1391068,-0.015529959,-0.120803565,0.047524225,0.100424476,-0.09016732,-0.029547362,-0.00986024,-0.12285971,0.25050175,-7.3495554e-05,-0.16567773,-0.046816345,-0.0971475,-0.26377562,0.10875897,0.070980586,-0.117060654,-0.06749305,0.005298828,-0.13065886,0.076542385,-0.087202735,0.035830084,-0.012821501,0.011559582,0.0718703,-0.094587505,0.06295787,-0.09956863,0.056422487,0.06022187,0.20389724,0.038656577,0.004194532,-0.08155481,-0.045471996,-0.051667117,0.17947279,-0.0941984,-0.036956146,0.030758435,-0.003507029,0.008043532,-0.02398803,0.06805937,0.108032115,0.022163022,0.025307653,-0.045435064,0.15457626,0.06760342,0.05921603,-0.1358033,-0.015671618,-0.055419657,0.0985194,0.079863116,-0.009316482,-0.014098572,-0.15902352,-0.070593,0.06802927,-0.00971387,-0.05526119,0.08245444,-0.112413615,-0.021920238,0.068224415,0.06516042,-0.17322618,-0.13451748,-0.1601387,0.045186903,0.0054229577,0.030051412,0.13867603,0.22584173,0.029678117,-0.010071041,-0.14519076,0.023533521,0.06820017,0.117065355,0.15343098,0.16737509,0.05675157,-0.114378005,0.018344931,-0.0926726,-0.10383086,0.037770588,-0.42631763,-0.0034333407,-0.11340688,-0.030183539,0.0047095567,-0.11539733,0.111803934,0.008935777,-0.15875098,lncRNA
HOTAIR,0.051591977,0.08123427,0.04833225,0.20424637,0.013380532,-0.0031520936,0.03863113,0.07874116,-0.006748664,-0.0334478,-0.084310025,0.011714089,0.14797798,0.03057779,-0.03733345,0.020063166,0.016674144,0.1811318,0.015741125,-0.0023583444,0.109993525,-0.008518801,0.0046015447,-0.10949074,-0.015926795,0.08272217,0.07699872,-0.078459814,0.005236235,-0.1813356,0.05705888,-0.01482447,0.10381726,-0.037310872,0.031127598,-0.016693214,0.04535932,-0.06823206,0.0024970863,0.052789364,-0.05424705,-0.0017446682,-0.033251695,0.0082295155,0.012517409,0.022356063,0.06844894,0.014109175,0.008416814,-0.06383385,-0.014710525,0.05807025,-0.050885063,0.059038796,-0.032415416,0.026114427,0.005043921,-0.047510467,0.0013346365,0.07812118,-0.0032057755,-0.04048609,-0.18892328,0.06860595,-0.00904537,-0.055150297,0.072628945,-0.0029967602,0.041348197,-0.049721424,0.15346067,-0.0764615,-0.103095114,0.064099185,0.07727956,-0.07032784,-0.02941052,-0.061130825,0.13073987,0.067301184,0.035805624,-0.07130968,-0.05035982,0.014678524,0.03732241,-0.039297905,0.031004908,-0.062342495,0.012670471,-0.022294937,0.062569484,0.030444693,-0.019548649,-0.106244914,-0.1933435,0.06380007,-0.015220526,-0.079743154,-0.06978308,0.033718064,0.014518488,0.02238233,-0.06610366,-0.05840993,0.035385344,-0.11132128,0.02918028,-0.16911119,0.04384618,0.040957198,0.004629655,-0.029476076,0.026426814,0.05658625,0.016310325,0.065620236,-0.04939607,-0.03680137,0.050212022,0.06016306,-0.031797938,-0.040413655,0.0027229167,0.0007363398,-0.15545136,0.025188759,0.04321271,0.04291449,lncRNA
FOXD3-AS1,-0.1293902,0.113824144,0.052294962,-0.18731765,0.12283129,-0.019852905,-0.021129414,0.052262228,0.13648698,-0.009200493,-0.22365965,-0.15324885,0.0010153302,-0.05258549,0.123755224,-0.09521227,0.109326325,-0.1018841,-0.19744506,-0.017101947,-0.30411234,0.054279964,0.049966212,-0.061685216,-0.18113095,-0.06942904,-0.08847693,0.051332045,0.063571736,-0.30267808,-0.15258294,-0.026497608,-0.14089043,0.17963901,-0.016547907,0.014985357,0.20835897,0.12709607,0.08237533,-0.12901369,0.06074788,-0.05506534,-0.052391145,-0.122827694,-0.06452931,-0.020826591,0.039316468,0.36655205,-0.0193825,0.24813052,0.23844342,0.004699121,-0.14667624,0.10739372,-0.026021603,-0.10415946,-0.11710062,-0.011491304,0.017048456,-0.014430683,0.18969095,-0.04475348,-0.21147707,0.0010202634,-0.052310336,-0.07558159,0.085540935,0.06283185,-0.119757846,-0.21477346,0.032399587,-0.15043484,-0.08112393,0.07412511,-0.26529375,0.016158218,-0.14655553,0.15878843,-0.16424847,0.058762807,0.068084314,0.048898716,0.055185065,0.017137717,-0.14972207,0.00095599116,0.17421941,0.14048088,-0.05256994,0.12595706,-0.0337922,-0.09509848,-0.0341345,0.06077893,0.0453439,0.0541634,-0.10448818,0.19069284,-0.011516808,0.19535922,-0.33609876,-0.010846954,-0.07762686,0.080741994,0.18791853,0.093323834,0.008605848,0.20518406,0.089405574,-0.12634054,0.0682169,-0.008127988,-0.343276,-0.018586336,-0.020556957,0.28934982,-0.013481136,0.0981534,-0.037156053,0.10928379,-0.122197956,-0.04962722,0.082168765,-0.20328249,-0.10066486,-0.09447765,-0.0705768,-0.07617992,lncRNA
H19,-0.024843846,-0.008173002,-0.014518488,0.070113145,-0.096085094,-0.05863656,0.014438282,0.0209494,0.023851987,0.031148309,-0.0031916755,-0.017532105,0.10742177,0.08996413,0.024206165,0.045835894,0.06034114,0.04014113,0.15433979,-0.032061927,0.06931252,0.088462815,0.048049577,-0.02183861,-0.0321606,0.028249195,0.0140873995,-0.1442013,-0.0064696064,-0.04189489,0.010019448,0.039739016,0.026798304,-0.07216572,0.09958159,0.014300333,-0.043327518,0.012633176,0.04297231,-0.004543323,-0.09662102,-0.09318525,-0.00443426,0.008127976,0.0722017,0.06366603,0.010734274,-0.12125306,-0.013880758,0.05714112,-0.0036442862,-0.020036789,0.0892597,0.0061516725,0.072553515,0.00034685308,-0.055303663,-0.031092443,-0.06665782,0.044705473,-0.06394175,-0.071016245,-0.12191242,-0.05717715,-0.15407266,-0.04033212,-0.14453696,-0.0031184787,0.02446091,0.0892176,0.18006052,0.011300385,0.026609382,-0.064631,0.15658556,0.21545364,-0.017609807,0.040622838,-0.13053021,0.0024521747,-0.020290084,-0.0067793587,0.023108596,0.022275783,0.08193017,-0.14248002,0.019201484,-0.016894724,-0.020287985,-0.09343988,-0.072988555,0.027348444,-0.047844984,-0.065291345,0.021763464,0.11187779,-0.12641624,0.041999996,-0.029809266,0.21248983,-0.061584268,0.022032075,-0.01681956,0.4682607,0.010600498,-0.00023252988,0.022340935,-0.007220594,0.10564591,0.04750008,0.10499919,-0.0109168505,-0.04512413,0.007023317,-0.06175198,-0.008677674,0.03530749,0.11490051,0.06495622,-0.021239229,-0.06645672,0.05301004,0.036684,0.050389186,-0.09899521,0.0574524,0.16306724,0.084649496,lncRNA
MEG3,0.084870555,-0.021524953,0.047876168,-0.1399352,0.019247433,-0.055389892,0.027724927,-0.07540442,0.04380118,-0.03921784,0.02007568,-0.021406623,0.0056488533,0.037370067,-0.016322307,0.13724163,0.039302785,0.026878536,-0.028830139,0.055660814,0.048095368,0.019744929,0.10061847,0.015675753,0.21523848,0.07704166,0.0929405,0.0064996127,-0.09304622,0.091542095,0.031541962,-0.021132546,-0.029250527,-0.050749414,0.1053454,0.06459938,-0.039354198,-0.023903288,0.016011138,0.0822127,-0.13177255,0.19796823,0.0382911,-0.0317562,0.01912349,-0.19359824,0.10313757,-0.011952986,-0.023313489,0.018193053,-0.012067963,0.014518337,0.0468064,-0.01165812,0.065778635,0.048661157,-0.049420163,-0.09000388,-0.12115224,0.041175634,-0.074233286,-0.02393499,0.020016393,-0.11023822,-0.11686222,0.016839825,-0.03532036,-0.0109563265,-0.07761694,-0.105784975,0.025621274,-0.021217762,0.039149873,0.092877366,0.049111553,-0.039250795,0.017706133,-0.08235808,-0.020633994,0.023488,0.004919565,0.0055573923,0.073781334,0.0019996315,0.082112625,0.04356982,0.030183423,-0.08710174,0.2675397,-0.071178325,-0.12329942,0.10933366,0.10313134,-0.006217567,-0.0073937303,0.04263688,0.031614263,-0.082115784,0.0071877483,-0.016644506,0.046008535,-0.027020311,-0.046543524,-0.11626709,-0.015983507,0.054648496,0.039348267,0.12753962,0.014044296,-0.15758646,-0.053372454,-0.016499609,-0.0030581523,0.18599375,-0.11432362,0.02802272,-0.13385782,0.05439565,0.03621391,0.019561809,0.08065417,-0.11203747,0.04709502,0.029325519,-0.04418367,-0.0050741034,0.04942308,-0.07490171,lncRNA
PVT1,-0.0011325272,-0.055650804,0.025887348,-0.042057715,-0.18813361,0.06463288,-0.10340138,0.07503515,0.0887025,-0.010982801,-0.12058179,-0.0027521583,-0.006470179,-0.0016606844,-0.11333961,-0.013866369,-0.07192503,0.021146229,0.11804637,0.12446275,0.20183581,0.00299297,-0.051315777,-0.16772011,-0.062146027,0.020183258,0.03148831,0.047951665,-0.080818966,-0.10782358,0.053189635,-0.15781061,0.24698384,0.07154144,0.013684395,-0.03909845,-0.047663473,-0.03867559,-0.07883712,0.061195895,-0.014366494,0.028734116,0.09743841,0.01849191,0.007976085,-0.14208491,0.025994154,0.09676379,0.051720083,0.052792095,-0.024171334,-0.11883593,0.049266603,0.08067208,-0.00480441,-0.04355266,-0.0040386366,0.0076780682,0.030974772,-0.015418509,-0.0014730047,0.011850578,-0.13884088,-0.012591825,0.023066988,0.073571146,-0.021175485,0.12871738,-0.06962254,0.099123344,0.24898487,-0.20631132,-0.058358815,-0.04721898,-0.08882019,-0.17107536,-0.025223995,-0.04367732,0.07708122,-0.05748032,0.037169073,-0.031886537,-0.01528704,-0.048518494,0.019732809,0.05279935,0.05053657,-0.017047867,-0.010360999,0.013060377,-0.017850328,-0.09103662,0.047768824,-0.064834565,-0.12644912,0.015408667,-0.046346564,0.025181439,0.03917213,0.082837224,0.00063614105,0.015058504,-0.17621225,-0.029040791,0.0785076,0.07957336,0.051101442,-0.028508462,-0.023625167,0.032446284,-0.0014713845,0.041864146,-0.006418392,-0.019741176,-0.019607203,-0.082591124,-0.038652346,0.065864176,-0.034804385,-0.050618604,-0.040154677,0.124700785,-0.042505693,-0.0519938,0.13235977,-0.088370316,-0.10819114,0.046851307,lncRNA
LINC00052,-0.1219735,-0.10295027,-0.2017833,-0.014909554,0.0069121113,-0.034546066,0.15419064,0.07348265,-0.030202597,0.053322796,-0.018408641,-0.14786638,-0.06947483,-0.029109554,0.045927845,0.037380733,0.098424524,-0.014862222,-0.08453723,0.068353154,0.22295266,0.089296564,-0.1006381,0.038648464,-0.118928075,-0.14929783,0.0130523015,-0.14752068,-0.047773648,0.04932646,0.044892825,0.14650215,0.04317131,-0.033153903,-0.11648058,-0.01211175,0.0335948,-0.3219525,0.010363983,-0.11599721,0.18863404,-0.05272245,0.057402894,-0.102872476,0.14373133,0.0025484054,-0.07496854,0.13204554,0.12710936,0.013520915,0.13138089,0.13838732,-0.0068756607,-0.0049396623,-0.15102486,0.0064871474,-0.004079844,-0.03274232,-0.018647183,-0.16389678,0.02749269,0.011796093,-0.17527612,-0.029539067,-0.34857848,0.10207156,-0.0922162,-0.19377454,-0.03278841,0.042958558,-0.045265198,-0.19750123,0.026395887,-0.18356937,0.09284056,0.028386021,-0.31486273,0.007117451,0.07813006,-0.058880806,-0.0040782066,-0.11765466,-0.05679672,-0.02498649,0.15156291,-0.12816676,0.06533496,-0.101504855,0.053230226,-0.011636856,-0.15120234,-0.099615775,-0.07093576,0.064158686,0.15963,-0.11103757,0.011496184,0.20170818,0.431617,-0.027514478,0.01347606,0.0034660785,-0.0330837,0.17649615,0.0026517848,-0.06735394,0.27290258,-0.049701,-0.17456739,-5.4581324e-05,-0.06525457,-0.048430417,-0.042629663,0.0825901,-0.11002898,0.056966167,-0.09542576,0.007704324,-0.15854691,-0.035266172,-0.0075352252,-0.0007455923,-0.045907,-0.088578925,-0.0020094807,-0.16360961,0.09897853,-0.101613194,lncRNA
CASC15,0.2155832,-0.037787937,0.07194523,-0.034862794,0.018423546,-0.07252627,0.009348787,0.020664407,0.039378997,-0.093284726,-0.02335518,-0.05888307,0.074894324,0.13481909,-0.09293072,-0.067566685,-0.025926463,0.06938521,-0.0060868696,0.005929367,-0.152459,0.054834817,-0.18988596,-0.11524358,0.0036771123,0.018382251,0.009115406,-0.08566247,0.04812668,-0.1793756,0.045169745,0.03553859,-0.056308534,0.1425374,0.08331209,0.025064826,-0.27111372,-0.042044904,0.06855623,0.19108565,0.08489198,0.15609567,-0.025532683,0.16996074,-0.15210655,-0.041764528,0.22884196,-0.038582467,0.026381453,0.042439487,0.06727964,0.08907822,-0.10251414,0.05152845,-0.06404414,0.005333637,0.015969252,0.03664964,0.021829467,0.056442376,-0.027972372,-0.16618937,-0.0075819795,0.10946403,0.066762574,-0.08051072,-0.073743105,0.12078535,-0.022734338,-0.08138419,-0.06265921,0.16738835,-0.015130707,0.221688,-0.07606283,0.13477741,0.083636045,0.3850164,0.063222975,-0.18888873,-0.103284165,0.11632281,0.10065573,0.058419008,0.020516414,-0.06326817,0.031180544,0.2944172,-0.09032458,-0.11364488,0.17526759,0.0071542542,-0.2216048,-0.034779165,0.036668822,-0.16323712,-0.07100334,0.22025348,-0.10022072,-0.07784217,-0.14326896,-0.108367145,-0.2101058,0.08736602,0.16464914,0.17096667,-0.22271633,-0.0238865,-0.029619263,0.03391638,0.29211077,-0.055875026,-0.10795531,-0.053259555,0.16513851,0.16266656,-0.030533599,0.004722426,-0.22299735,-0.043247752,-0.10479692,-0.019011531,0.020715227,0.047245488,-0.0034755468,0.0034986667,0.024200432,0.065680474,lncRNA
ZNF667-AS1,-0.082612105,0.040759116,-0.17752866,-0.3056439,-0.08657227,-0.06753956,0.18967906,0.1862645,0.122948065,0.22446707,-0.079172745,-0.1509311,-0.09064351,0.0143294,0.05527419,-0.0018714577,0.12131003,0.014693795,0.032906882,0.15317938,0.16170844,-0.10308908,0.2718759,0.101013124,0.097124875,-0.07147532,-0.0072520403,0.20941465,-0.031937487,-0.14973837,-0.012765207,0.013885347,0.16103627,-0.18699668,-0.02650297,0.028768238,-0.09021039,0.05079317,-0.018447373,-0.081539944,0.09800652,0.09638655,0.36993325,-0.11218115,-0.061895564,-0.20743118,-0.14074512,0.08893949,0.013644496,0.022789892,0.054651838,-0.0075757676,0.067766525,0.0014352014,-0.10682284,-0.09468836,0.14196877,0.049481373,-0.046706557,0.16227299,0.13567124,0.14198418,0.24384789,0.015640501,-0.2423874,-0.103163175,0.11242437,-0.041277114,-0.022303455,-0.13807757,0.026093053,-0.1185422,-0.09537362,-0.14585328,0.25438225,-0.116622075,-0.08007812,0.1269988,0.079150416,0.20794961,-0.13135822,0.096739665,0.025343727,0.20350182,0.21093565,0.2820337,-0.20463888,0.020647975,-0.17853694,-0.00049674214,-0.14898929,-0.3494256,-0.031356998,0.06991358,-0.17182516,0.08893904,0.021103747,-0.09262773,0.13961439,0.08324837,-0.12469318,-0.11271586,0.24915352,0.030488735,-0.046000108,0.076719716,0.04641017,-0.05212146,-0.028036967,-0.021210453,0.10211013,-0.002175211,0.060960367,-0.11893182,-0.1259931,0.04672691,-0.36765474,0.052680373,0.07644794,0.05498646,0.061341494,-0.08130727,0.054380365,-0.017264498,0.05410882,-0.013694002,0.04782469,-0.075421475,lncRNA
DLEU1,0.018500231,0.06344405,0.07787884,-0.039994784,-0.07803862,0.20987117,0.057565503,0.10125479,0.07354653,0.024156747,0.10702787,0.11141402,0.15775375,0.038065147,-0.06803584,0.02602214,0.0015437953,-0.15126342,0.051359277,-0.00047957513,0.035058793,0.107427366,-0.20377295,-0.0610703,-0.053764954,-0.078328796,0.007748514,0.13517661,-0.19282463,0.0008117829,-0.1070008,0.010736828,0.09802518,0.002461031,-0.006455388,-0.16225043,-0.14671686,0.030121507,0.06334189,-0.07016548,-0.0627963,0.13951096,0.17469345,0.034937844,0.017992768,0.10631199,0.017211454,0.033953913,-0.046798985,0.21336985,-0.26676264,0.036525987,0.097012706,0.022721842,-0.11845038,0.01854793,0.08208086,-0.08552815,-0.072431184,0.12399191,0.01977502,-0.16720584,-0.032329805,0.07941701,0.0014227524,-0.062374625,-0.007301482,0.037034493,0.146367,0.032597125,-0.018450424,0.061402455,-0.10282218,0.06250581,-0.087299295,-0.17505789,-0.040704995,-0.08417999,-0.019708999,0.018738968,0.0536147,0.009553843,0.058173,0.147146,-0.036222767,-0.15671618,-0.0776597,-0.34044686,-0.09178232,-0.00075100554,0.021856511,-0.04095821,0.03108815,0.2203764,0.12011995,-0.059011616,-0.20853037,-0.02827228,-0.023294779,0.016272401,-0.09048122,-0.078965984,-0.17595755,-0.0308654,0.1429611,-0.00967035,-0.159041,0.019060425,0.14663906,0.11681201,0.0646278,0.07422715,-0.06391188,0.15624326,0.045115042,-0.001878009,-0.023353955,0.025344765,-0.09951197,-0.032580227,-0.17651285,-0.08592364,-0.08379359,-0.10884185,-0.09155555,-0.026891531,-0.055654325,-0.16081105,lncRNA
SNHG5,0.047538355,-0.051950745,0.04268515,-0.095511556,0.0044283383,-0.044065103,-0.15460932,0.08723586,-0.04134841,-0.003319114,-0.054661013,-0.0015161838,0.036857646,-0.073293,-0.047377497,0.10874318,0.029779524,-0.06680405,0.120406084,-0.030697396,0.061407648,-0.09458182,0.018471716,-0.17758153,-0.15732954,-0.07433687,-0.0071750833,0.016425692,-0.119178645,0.046790663,-0.029642884,0.08608567,-0.096658655,0.22724943,-0.008747693,0.0036506779,0.045274973,0.24740867,0.08256958,0.054953992,-0.01987172,-0.13804688,0.16568404,-0.04922143,-0.08783968,0.10274108,0.030523818,0.017529102,0.006581852,0.08621601,-0.06262351,-0.09667007,-0.13664739,-0.057126254,-0.15680993,-0.04635382,0.046879772,-0.11345687,-0.16873297,-0.16112961,-0.034315523,-0.28255495,-0.089552656,-0.040975127,0.14604074,-0.11908225,0.04034027,0.18278979,0.10591387,-0.11104044,0.08105057,0.0053128116,-0.10870299,0.048117306,-0.11422035,-0.13005279,0.057370167,-0.1961017,0.034959093,0.046906117,-0.0024084824,-0.045128874,-0.037952933,-0.11364587,-0.09741121,-0.06961513,-0.021991655,0.052267186,-0.15434264,-0.11253876,-0.061930537,0.010791252,-0.024533637,0.07652284,-0.031000165,0.0048434306,-0.079959944,-0.12860857,0.17018633,0.016149374,-0.0552876,-0.03625208,-0.03929048,-0.01681182,-0.03623592,0.1550094,0.07118383,-0.045420166,0.04242022,0.022122255,0.003795309,0.009243126,0.096783586,-0.11366782,-0.02983146,0.14681646,0.046468683,0.0007497707,0.04385667,0.04146219,-0.07570738,-0.005694594,0.14764163,0.013213277,-0.04194304,-0.0022060727,-0.08666188,-0.038158633,lncRNA
MCM3AP-AS1,-0.042442556,-0.017263148,-0.043863554,-0.07257608,0.060041152,-0.007845421,-0.009966641,-0.09473702,0.021606948,0.11395082,-0.07192473,-0.03962511,0.12132926,0.037748255,0.04769783,-0.0010379129,0.12740226,0.016234072,0.06030527,-0.075245805,-0.07658646,0.024137802,-0.10301132,-0.06819093,-0.30929288,-0.0068586385,0.19333707,0.13420478,-0.09160746,0.016654927,0.005093597,-0.003396285,0.017716728,0.016947966,-0.02831889,0.111781776,0.020836994,0.1585305,-0.09539866,0.007904044,-0.178198,0.07865161,0.14944863,0.044311825,-0.11592175,-0.03722946,0.030485976,-0.0008450933,0.09526049,-0.04765112,-0.21317677,-0.3353266,-0.027793946,-0.049991872,0.19632569,-0.12540086,-0.01620949,-0.07891392,0.23080778,-0.13970771,0.07992472,0.056218054,-0.09265788,0.48260447,0.017862948,-0.053987246,-0.15246539,0.037036397,-0.11797531,-0.075032435,-0.003008716,-0.12636107,-0.1630246,-0.22765572,0.24239615,-0.21954548,-0.20125489,0.07480206,-0.11595928,-0.10012881,0.09784624,0.031501148,0.09335063,-0.17370257,0.17059974,0.25148457,-0.17519628,0.09098215,-0.025921153,0.09271146,0.0053098155,0.100008726,0.21603213,-0.051383007,0.039816257,-0.0020232787,-0.005381804,0.09603246,0.050343722,-0.043277144,-0.012938187,0.07246145,-0.07208748,-0.1159111,0.13381767,-0.10310431,-0.28958818,0.101301536,-0.11785201,-0.05283193,0.02249554,-0.018069386,-0.10282633,-0.09682791,0.03420545,-0.14739145,0.08699806,0.038066905,-0.18179767,0.010462573,0.093166545,0.08561858,0.040875625,-0.06131596,0.07623638,0.11123362,0.052660808,-0.10301929,lncRNA
NORAD,-0.064959295,-0.038389925,0.010189323,0.13068686,-0.056211732,0.080825135,0.010193558,0.17294918,0.024233216,-0.020111553,0.022703635,0.012279442,-0.17063801,-0.015678193,-0.054609682,-0.10947271,0.01998186,-0.16969442,-0.32386637,0.060876593,-0.022315063,-0.10295662,-0.07546979,0.0824158,-0.1501994,-0.007541049,-0.0370891,0.070782065,-0.010830404,0.1039688,0.027801115,-0.07761177,0.058494076,0.092715025,0.07559218,-0.1097616,-0.30314583,0.14790201,-0.12538305,-0.17253046,0.06452645,-0.16220945,-0.04128968,0.015441629,-0.026314761,0.114246234,0.028642802,-0.098062694,0.13154794,-0.10058145,0.027329935,-0.09782592,0.046765152,-0.07413535,0.082065634,0.09953706,-0.048584398,-0.05088117,0.10583933,-0.04975947,0.05013586,-0.06648305,0.17013341,0.09880505,-0.060640506,0.14825137,-0.13561577,-0.12123068,0.051606838,0.014080574,0.030784,-0.027196355,-0.21477206,0.13036725,0.05236307,-0.02298714,-0.013559811,0.077029265,0.20576194,-0.021958817,-0.29029515,0.029888842,0.022645053,0.11836232,0.12009462,-0.081813686,0.19895017,0.17625052,-0.69901365,0.10366541,0.008739139,0.11175989,0.18992628,-0.011973042,0.03126833,0.084137164,-0.06394947,0.03659984,-0.08386134,0.08585161,-0.23351604,0.06466284,-0.12556389,-0.030251937,-0.03480753,0.11680277,-0.016232824,-0.19034255,0.14374883,-0.065320864,-0.2311297,-0.08114252,0.04425987,-0.08510921,-0.06914593,-0.124534495,-0.15126798,0.040786624,-0.08437713,-0.114042,0.023790458,-0.109838314,-0.247715,0.022651669,-0.0854878,-0.058990534,0.005840658,-0.0040941727,lncRNA
SNHG1,-0.07739283,0.025430415,-0.19757451,-0.04812342,-0.044591926,0.007451416,0.024392411,0.0372774,0.027448319,-0.04598784,-0.008197191,-0.10363576,-0.096770406,-0.021267889,-0.029617976,-0.0053089354,0.024416428,-0.06668511,0.08284547,-0.10367093,0.077534705,0.028548557,0.0034810945,-0.063247785,-0.06597396,-0.031897914,0.01929815,-0.13258603,-0.006024879,-0.16518003,0.05683,-0.00019123175,0.048703615,0.042113543,0.08320227,0.06287431,0.020650081,-0.03511587,0.017789064,0.021342795,-0.06989849,-0.044810046,-0.07038285,-0.11893489,-0.026925774,-0.08343119,-0.03607024,-0.091878586,-0.00073310477,0.02756747,0.019589882,0.11555619,-0.14312857,-0.00025947334,0.017535971,-0.031967558,-0.08128066,-0.108124554,0.15898374,0.11149126,-0.063106366,-0.06028599,-0.00432954,-0.011140044,0.24827224,0.009129399,0.0711875,0.024876093,0.052012123,0.090430744,0.009529617,0.0025252842,0.044596676,-0.039706666,0.013177618,-0.11478721,-0.16683404,-0.025789736,0.016812408,-0.031635974,0.1185805,-0.010824427,0.042507853,0.08725947,0.0041912445,-0.046466872,0.08250265,-0.04464408,0.041549396,-0.014639007,-0.0037001416,0.05291052,0.11493331,-0.008822588,-0.043582734,-0.0884706,0.12029794,-0.06710877,0.0052620703,-0.19242829,0.043258287,-0.063816026,0.0039463188,-0.07082686,0.011945128,0.046186436,0.017514182,-0.049425006,-0.056941696,-0.15899846,0.23249851,-0.08774361,0.13319786,0.00037909724,0.042978115,0.085749984,0.010814192,0.009368062,-0.05112383,-0.06970951,-0.017883137,-0.12768756,0.12857528,0.034066126,0.034907516,0.16366556,-0.044025257,-0.009254895,lncRNA
DANCR,0.019668525,-0.04127675,0.109931,0.13080518,-0.03327697,0.1123601,-0.21957225,-0.0016532292,0.12932803,-0.08359486,0.0037597697,0.029066332,0.06686768,0.011851904,0.121001184,-0.00233571,0.15987694,-0.05441138,-0.08157929,-0.09681575,0.014051485,-0.13253242,-0.11354249,0.01966488,-0.13310775,0.08374092,0.12949839,0.10277518,0.0629459,0.05206959,-0.055847593,0.044253442,0.06373769,-0.06536482,-0.06341585,0.1702309,0.06719995,0.26043352,0.12589946,0.040960435,-0.040377118,0.04630548,-0.043120787,0.009540783,0.07612702,0.102390654,-0.31270742,-0.09688824,0.09882421,0.06506665,0.063742705,-0.037113223,0.018372405,-0.03868594,-0.1108187,-0.086112514,0.07588605,0.022503,-0.17107764,-0.053502284,0.04019393,0.10705623,-0.12569027,0.07740985,-0.3099608,0.0598708,-0.033642523,0.06927442,-0.07701711,0.018794026,-0.049754754,-0.061166637,-0.058021158,-0.18413033,-0.2750626,-0.0869235,0.19447896,0.11242404,-0.100647666,0.071098134,0.025625218,-0.09841552,0.0025076144,0.07667695,0.102674566,0.052530814,0.11263021,-0.23272228,-0.07009367,0.11367036,0.021861287,0.018248007,0.04352707,-0.1318492,0.08083444,0.06719229,-0.04020268,0.09756752,0.096625276,-0.020307075,0.14225237,-0.0038378173,-0.08639647,0.07765082,0.028662587,0.02189256,0.10753563,-0.13965787,0.21798372,0.029763227,-0.01520909,-0.059915636,-0.08727645,-0.058002274,0.0005788364,0.055859786,0.2758909,0.2752684,-0.07728883,0.09166288,-0.06969056,0.007093831,0.23546137,-0.09381003,-0.10531037,0.13842528,-0.1107781,0.06801018,lncRNA
CCAT2,0.030331982,-0.06940147,0.009973304,0.11641695,0.025809148,0.00047827436,-0.0743145,-0.12896797,-0.0039720964,0.05704068,-0.105026625,-0.09930507,-0.08424657,-0.09293605,0.08502457,0.120983474,-0.048216235,0.07409508,0.010044867,0.15376304,0.09579614,-0.031202286,0.027393956,-0.28981864,-0.056597583,-0.046694387,-0.085740894,-0.010055907,-0.063789845,-0.07140142,0.094076015,0.042893156,-0.018775703,0.07637708,0.15241194,0.14370733,0.07803734,-0.09050602,-0.036787182,0.015297788,0.16745117,0.11996343,0.03290645,-0.16098861,0.09215219,-0.06921843,-0.17929453,-0.25876212,0.066573985,0.08312316,-0.04348839,-0.18435489,0.1142091,0.08650496,-0.017824534,-0.023889923,-0.21641512,0.22420353,-0.095726304,0.021737503,0.04918127,-0.11962624,-0.02570047,0.09324146,0.06628039,0.035621975,0.0060988846,0.21354912,-0.06370342,0.17284873,0.016646922,-0.2558228,0.18886103,-0.000509078,0.07278925,-0.17643997,-0.028861172,-0.20955503,0.017017914,-0.10996936,0.0851906,0.019993985,-0.0033915516,-0.07303757,-0.016627133,0.19965622,0.043274913,0.18637481,0.111404225,-0.020371418,-0.21790552,0.050371137,0.07489567,0.03817475,-0.0019337828,0.1626781,-0.045628317,-0.04778845,-0.6478042,-0.12912336,0.18755607,0.07736089,-0.03710926,-0.09958064,-0.017152369,0.0643756,0.016798416,-0.024242723,0.06626771,0.013854483,-0.10901111,-0.2043928,-0.035766985,0.20288849,0.103133984,0.08409626,-0.016521972,0.0412304,0.014945859,-0.10194187,-0.057051,0.049116787,0.04693454,0.0374943,-0.10928197,-0.065352224,-0.0030211776,-0.07599894,lncRNA
CYTOR,0.045145046,-0.053905305,0.018468985,-0.016526632,-0.071763046,-0.19676808,-0.17258751,0.101363115,-0.004323409,-0.01854458,-0.0698344,-0.07432008,-0.013323358,-0.18250005,-0.10704815,0.02015446,0.17428981,0.18760285,0.07950818,-0.09965558,0.089806475,0.027168231,0.04745063,0.031178182,-0.049509097,-0.10637182,0.0056264643,-0.085736975,-0.023420794,-0.14070879,-0.03400103,-0.06005034,0.09047353,-0.17386675,0.17275189,-0.15378869,-0.014930672,-0.17717144,-0.07926889,0.047428507,0.10334086,-0.19581105,0.0057750302,0.08990383,0.042236608,-0.02026825,-0.046098128,-0.08440067,0.06634573,-0.059608318,-0.034492176,-0.07947075,-0.003828677,-0.011663729,0.018186934,0.07684103,-0.11431999,-0.018494189,0.110529706,-0.0857456,-0.056743514,0.052537557,-0.04520189,0.017653186,-0.19524942,0.09523936,0.027429054,0.024674112,-0.009355342,-0.08424486,0.13814425,-0.048037916,-0.024077648,0.067153096,-0.16117255,-0.10072182,-0.12451629,0.046230663,0.04073799,-0.11569431,-0.023834592,-0.09071686,-0.09773676,0.092292644,0.029199528,-0.042432684,0.059686627,-0.015208409,-0.050501693,0.18153365,-0.032171797,0.030619474,-0.15221757,0.06887068,0.047795594,0.055540778,0.08864643,-0.09660785,0.072590426,-0.15256467,-0.09796414,0.034081187,0.12633392,-0.15097335,0.00017478189,0.12129957,0.13138774,-0.040338177,0.117280334,0.0518697,-0.07940047,-0.108194776,-0.07922693,-0.009625498,0.059745952,-0.005918012,0.036855064,0.037109427,-0.11223955,-0.07058764,-0.018717853,-0.15672678,-0.026623055,0.07484283,0.005662217,-0.009502213,0.1245529,0.12799817,lncRNA
GACAT3,-0.05983215,0.03727041,-0.05995613,-0.00079599826,-0.00090787245,-0.13094772,0.022808336,0.14303581,0.013551995,0.2878018,-0.21219982,-0.037501886,-0.08779123,0.038152047,-0.0515813,-0.13301864,0.0048901886,-0.02622671,-0.149709,0.015872695,-0.03357236,0.2977027,-0.12785542,-0.042807154,0.031990595,0.1306726,-0.073436156,0.026803471,0.12490252,-0.010487385,-0.16743481,-0.14020513,-0.05365111,0.028818684,-0.016656639,0.0048337667,-0.036880035,-0.10979837,-0.04462636,0.368424,-0.036317144,-0.15757486,0.019918622,0.15198477,-0.1547732,-0.002228744,-0.075128905,-0.14150472,0.01772367,0.2590591,-0.03741357,-0.06592832,-0.08771332,0.027281135,-0.04766517,0.10246464,0.0047789044,0.07017169,-0.046543542,0.34111682,0.12089177,-0.020032957,-0.07950838,0.20576584,-0.040730953,-0.10802347,0.097209185,0.016310021,-0.11053895,-0.09110818,-0.0004967152,0.3083688,-0.13581009,-0.14055939,0.10423005,0.11130888,-0.07053553,-0.043373086,-0.0047018616,0.09656496,0.107520595,-0.002399726,-0.01438964,0.04415163,-0.46445748,-0.01025606,0.02960256,-0.08434461,0.023855004,-0.00092732563,0.059667695,0.07635863,-0.10365837,0.1882824,0.11257828,-0.13871373,-0.011326037,-0.05326357,-0.018033642,0.06829418,0.15879625,-0.059750464,0.049750384,-0.042626347,0.025202403,0.07085883,0.00602439,0.078470476,0.19437608,0.044273615,0.11334066,0.022099866,-0.048983775,-0.1303197,-0.017977808,0.24755493,0.1214292,-0.02189685,0.027226495,-0.16556036,-0.21217951,0.050059427,-0.060240045,0.0025676785,-0.03902544,0.2761858,0.10352474,0.10436959,lncRNA
LINC00313,-0.028156156,0.0032257596,-0.08249825,-0.037871055,-0.018434094,0.00650906,-0.12176258,-0.16848187,0.0029855706,0.0072846976,-0.061172053,-0.17715752,0.054855302,-0.11613725,-0.1493935,0.092329815,0.04838374,0.020148197,0.039360713,-0.0017926788,0.054499168,-0.15548083,-0.009576,0.02919473,0.015422359,0.018327003,0.02887138,0.13540831,-0.17266531,0.01990293,-0.0010778506,-0.09133355,-0.0033245243,-0.13524434,-0.11404748,-0.07536046,0.07062754,-0.02208255,0.0013739975,-0.08931731,0.017093338,-0.03944315,0.17070238,-0.19122706,-0.07347182,0.124019645,-0.13609657,0.04500182,0.025495851,0.11751623,-0.10216048,-0.1037478,0.13921918,0.05823443,-0.052340977,0.063869685,0.0072173295,0.06659406,-0.050695382,0.09043314,0.021475377,0.11957892,-0.11135798,-0.066694975,0.19558354,-0.0073629776,-0.06842667,0.033414815,0.04381123,-0.0057721427,0.17567962,0.324481,0.20966001,0.10001878,0.086462215,0.03237745,0.0037315856,0.004862421,-0.18447052,0.114589125,-0.14786369,0.032120872,0.15317439,0.017570196,0.13688976,-0.012870014,0.087624386,0.024551455,0.29960608,0.28153178,-0.03490334,0.10193879,0.124369755,0.09844792,0.044196088,-0.06428231,-0.15870823,-0.080502436,-0.09715935,-0.08368067,-0.0011590996,-0.055450995,0.10393961,0.025910392,-0.12212725,-0.08379095,-0.06145683,-0.14354679,0.077706754,-0.08937464,-0.18967582,-0.062593356,-0.06744681,-0.0353969,-0.01896938,-0.23200692,0.044420842,-0.10711507,0.07881896,-0.2360169,-0.041280787,0.099892065,-0.17439096,-0.09590207,0.107019074,0.16553517,-0.17927812,-0.14945225,lncRNA
UCA1,-0.050990306,-0.14824513,-0.043464977,0.050693125,-0.14370249,-0.012171881,-0.017286422,0.019751024,-0.04175253,-0.08316255,-0.031766996,-0.1385785,0.044991683,0.0064278254,0.11564812,-0.07412625,-0.17482245,-0.0036844402,-0.012045826,0.17262869,0.08715467,0.069815405,-0.073177695,-0.0010589429,0.04227368,0.042929728,-0.04198292,0.0058202953,-0.10572933,0.0138917435,-0.06170918,-0.083954155,-0.031100744,-0.066524,-0.19416387,-0.0838997,-0.009954916,-0.21377212,0.093642116,-0.03390951,0.028970579,0.06722177,-0.20690885,-0.09972939,-0.13224287,0.04282382,0.102576405,0.004392968,0.06280758,-0.045617934,0.0173996,-0.08132782,0.009564995,0.0690176,0.055285733,0.03928987,-0.11521426,0.10056316,-0.01084603,-0.1546592,-0.22382632,-0.026472015,-0.04214922,0.039342336,-0.14513077,0.08429475,0.049019493,0.014865436,0.06066533,0.03229586,-0.10533841,-0.03899582,-0.0013597561,0.14738998,0.12811765,0.0081790835,-0.03051374,0.011273036,-0.056872793,0.09637119,-0.016953623,-0.011695591,-0.05267057,0.09060946,-0.072856925,-0.034668524,0.039404396,-0.087160096,0.048073113,-0.030863617,-0.01478494,-0.044581912,-0.18464108,-0.111461505,-0.012572659,0.05481732,-0.11619903,-0.032901485,-0.08536048,-0.034110438,0.19175786,-0.018671729,-0.051990807,0.13617471,0.0822802,-0.08397697,-0.044884488,0.1084969,0.12108389,0.06733278,0.0029955609,-0.027460955,-0.08251853,0.04532948,-0.15327317,0.058832243,-0.007425075,0.057775144,0.07970879,-0.095501274,-0.050013106,-0.15707895,0.041640848,0.037459936,-0.21084343,-0.08056925,-0.13335124,0.001352581,lncRNA
ROR1-AS1,0.16161694,-0.1667037,0.10314415,-0.11606444,0.2156665,0.07761381,-0.14150244,0.009737812,-0.06280324,-0.0107133165,-0.29371083,-0.030491393,0.011466049,-0.116819166,0.07544753,-0.06341105,0.15707171,-0.08500809,0.06944324,0.055810772,-0.030455014,-0.007801981,0.14354485,0.122180186,0.110231444,-0.3441292,0.13272376,-0.17366804,0.012438841,-0.043531124,-0.03275973,-0.014169397,0.04101919,-0.0895661,0.011173166,0.0271173,-0.065340884,0.015633518,-0.00615863,-0.077244416,0.21178573,0.22525324,0.22657646,0.09744586,-0.000805411,-0.1050114,0.11660756,0.18528378,-0.20876612,-0.209045,-0.09801001,0.053162746,-0.0795681,0.15390933,0.047340013,0.09604702,0.036248066,-0.18284945,0.16778906,-0.17876258,-0.6214783,-0.0437308,0.06610513,-0.0005773128,-0.040527005,-0.009723343,0.01609466,-0.29689792,0.18683939,0.06826379,0.16572995,-0.009275111,-0.08498602,-0.07591651,-0.11004776,-0.01808314,-0.085270785,-0.0009382375,0.12925631,0.05306665,0.13816144,-0.0009773573,0.11642289,-0.246575,-0.14545095,-0.0019215445,0.0024932246,0.1934888,0.11866332,0.18300675,0.17759794,-0.057026308,0.053104598,0.022021115,0.10935033,-0.21405324,0.10688744,0.28637356,0.057968657,0.08059667,-0.05479188,0.042775255,0.2964078,0.06779667,0.15939757,0.06453369,-0.13530812,-0.21634658,-0.077626854,-0.07922409,0.21407919,-0.5206004,0.112636365,-0.06878278,-0.08538696,-0.0019198933,0.024390828,0.14679374,0.08294159,0.105154335,-0.07695589,-0.064576924,0.12201152,0.011058055,-0.0629602,-0.074923135,-0.16342318,0.0794467,lncRNA
ZEB1-AS1,-0.115771264,-0.14935176,0.020949768,-0.012037199,0.06397987,-0.007515376,0.11230482,-0.0077196998,-0.006655594,0.013042805,0.03216222,-0.059240296,0.09117674,0.080340765,0.12629993,-0.07206861,-0.12064212,-0.08219428,-0.039420668,0.048062637,0.019593773,0.08336145,-0.07454029,0.066699885,0.0940244,0.07537777,0.11373913,0.07874347,0.019182026,0.059556026,-0.10667387,-0.12741043,0.027994372,-0.09407246,-0.07805591,0.034654323,-0.10780054,-0.19874536,-0.15489797,-0.18675844,0.19230889,0.105827294,0.14948301,0.013586865,-0.11648091,0.07685001,0.0070967525,-0.15838403,0.17175439,-0.0073428177,0.04521961,0.04723446,-0.112611644,-0.07462862,-0.11405943,0.08648639,0.043992817,-0.037612133,0.022472885,-0.09429204,-0.039282043,-0.110998094,0.06920697,0.061697382,-0.028223421,0.060201664,0.010963325,-0.08810546,0.047747225,0.10126366,0.06495418,0.008455432,-0.049454022,-0.035316736,0.050052576,-0.01701756,0.05602917,-0.070866935,-0.10182183,-0.12725648,-0.11931191,-0.1145998,-0.043731123,-0.012162634,0.11339588,0.08453909,0.095071405,-0.03191285,0.0828986,0.120494366,0.10744498,0.049778197,-0.21454644,-0.10780612,-0.073475294,0.04136176,0.0124096135,0.048799265,-0.03739436,-0.089600034,0.12293689,0.0585017,-0.035072938,-0.25472203,0.11325236,-0.0662752,-0.23589677,-0.09447576,0.18190199,-0.031786956,0.006724676,-0.05020019,0.07300431,-0.015293789,-0.09584963,-0.109759524,0.0072646514,0.037599545,-0.032258306,0.054630805,0.0103246095,-0.03171832,0.16317219,0.0493353,-0.15173931,0.013870047,0.056901738,0.10628146,lncRNA
SNHG7,0.07805631,0.045300405,0.20295113,0.18391013,0.047366295,-0.105739295,-0.11821173,0.104280874,-0.09847229,0.22017112,-0.06996365,-0.042251527,0.039533876,-0.022496918,0.008689659,-0.024684371,0.05696708,-0.0016849922,-0.02937475,0.088461936,-0.03857327,0.015564783,0.15743773,-0.042634964,0.05221102,-0.1043202,0.050217442,0.111734115,0.03022893,0.01849216,-0.08363135,0.0158152,-0.0028229842,0.090409674,0.16041434,-0.01092786,-0.010314061,-0.011774894,0.01191707,-0.15919381,-0.051682606,-0.0018617328,0.17379744,0.035299227,0.0031800445,0.10868673,0.056471452,0.12939785,0.059543114,0.048982456,0.0846208,0.110171065,-0.08977284,-0.041894518,-0.04208957,0.039612707,0.026611833,-0.06219579,0.12050774,-0.07325158,0.033766393,-0.13523816,0.04607647,0.09090632,-0.022328265,-0.08892999,0.039463352,0.19092564,0.11079753,-0.09541234,-0.031443603,-0.021174982,0.015506195,0.16379347,0.10709018,0.0542694,-0.019586325,-0.095574014,-0.003721295,0.02110973,0.014308635,0.11481076,0.023215963,0.17449676,0.15380262,-0.13053651,-0.10662584,0.059857164,0.1028839,-0.104244165,0.055594664,0.10101242,0.04103425,-0.15770711,0.09436631,-0.010533776,-0.12967998,-0.013529774,0.012847957,0.113157995,0.103289545,-0.18482101,-0.018481085,0.051835287,-0.1178313,-0.07732506,-0.062390137,-0.104632854,-0.22482345,-0.032845445,-0.060209747,-0.037875045,-0.05669329,0.20119888,0.06922917,-0.038871508,-0.08059147,0.078572586,-0.13255903,-0.1155494,-0.015834974,-0.11793303,-0.05954378,-0.020382946,-0.11930795,0.04281723,-0.121437736,-0.10290025,lncRNA
LINC00173,-0.1040696,0.05464422,0.17983773,-0.19632262,-0.04954987,0.06955612,-0.10953818,-0.011395707,0.08506468,-0.04238808,-0.088601775,-0.049131278,-0.17143649,0.11173123,-0.12525146,0.16888121,-0.25605276,-0.100772984,0.027808802,0.0097065605,0.13301912,-0.14381638,0.0624816,0.03761253,0.006869391,-0.14046036,0.08100844,-0.060036354,-0.08922619,0.01182296,0.10369221,-0.058096007,-0.08779283,0.1336399,0.008811462,-0.068805434,-0.14126159,0.006729978,-0.13722178,-0.024704885,-0.065877,0.007950805,0.08450944,0.045571312,-0.02911405,-0.0027804696,-0.09888391,-0.06328047,-0.012956034,0.0884659,0.19484545,-0.20760188,-0.013060162,0.018731471,-0.0149133345,0.27643955,0.038354542,0.11404013,0.053496562,0.22982551,0.035950102,0.04748719,0.02756329,0.114847064,-0.13129131,0.08985992,0.18662672,0.17490917,-0.11446826,-0.18588263,0.025410656,-0.039620142,-0.0007466732,0.0085247485,-0.08885041,-0.060664155,-0.10660436,0.026705544,0.08207825,0.03346019,0.19094393,0.07316054,-0.051719945,-0.31987733,-0.03698845,-0.13993035,-0.030755512,0.14387599,0.15455328,-0.18277757,0.08721992,-0.13927652,-0.02616587,-0.04668012,-0.20084879,-0.044742376,-0.027233148,-0.17878404,-0.12920505,0.038359966,0.2715768,0.12965341,0.25207582,-0.09155833,-0.013531552,0.12158206,0.04157044,-0.16322407,0.09764515,0.29862276,-0.019930484,-0.12697597,0.019460669,0.037395563,-0.037174277,0.052160755,0.16316935,-0.3624557,0.014214624,0.13709939,0.07265672,0.10495045,-0.20749119,-0.116269015,-0.0056886147,0.099374555,-0.08196718,0.07177938,lncRNA
SBF2-AS1,-0.07391073,0.11410394,0.14602417,0.048563737,-0.20807236,-0.12445445,0.044355024,-0.017887782,0.00030272492,0.0046782806,0.06318665,0.07533343,0.08747229,-0.052659817,0.022363102,-0.17074984,-0.12057188,0.14359406,0.089988105,-0.12966622,0.03873477,0.09668855,0.08163179,-0.049080662,0.11469928,-0.057570305,-0.08060358,-0.15795447,0.06344027,-0.22238605,-0.12278457,-0.090308964,0.012364434,-0.02105529,-0.08627286,0.01277067,0.0096977325,-0.071993835,-0.09646529,-0.008736063,0.030635104,0.037668478,0.096064955,0.17175372,0.10012737,-0.023473162,0.050558444,-0.09526169,0.08285052,0.0314416,0.06765616,0.12362178,0.0647122,0.045918256,0.030758869,-0.12844223,0.024892367,0.05804767,0.03382596,-0.089807615,-0.11463214,-0.1587257,-0.081823945,-0.050060306,0.014174643,0.14165273,-0.13728571,0.04655984,-0.039402347,-0.033602703,-0.119906105,-0.044580594,0.21538535,0.18271372,0.19969223,-0.037775736,-0.13530351,0.16834067,0.15850376,-0.08526962,-0.115956336,0.023917576,-0.041797373,0.08888541,0.18063343,-0.021866316,0.077306665,0.14182755,-0.15812431,0.1813979,-0.009589683,-0.061835185,-0.1090269,0.008957837,0.066059925,-0.07931572,0.01783173,-0.19135903,-0.08807228,0.01404444,-0.17276318,0.074287735,-0.0005782807,-8.493953e-05,0.077662885,0.012674669,0.004525996,0.1331028,0.26723373,0.07313098,-0.25342917,-0.09160138,-0.07509152,-0.010742119,0.1217988,0.097426675,-0.09905107,0.071556695,-0.015203645,-0.0029690664,-0.0381368,0.013279602,0.058716483,-0.034334328,0.015568794,0.20023364,0.21647495,-0.0054357066,lncRNA
IFNG-AS1,-0.08361358,0.0072319955,-0.26005045,0.048689257,-0.021700988,-0.055552762,-0.12209914,-0.08411656,0.05034536,-0.054811887,-0.09279193,0.07113529,-0.03509977,0.12108321,-0.01969394,-0.15247853,0.021894561,-0.19629043,0.026844813,0.038520567,-0.15379511,-0.0146032665,0.1253686,-0.09326182,0.06351335,-0.017562682,0.21544729,0.16983393,-0.10274655,0.13252583,0.08134447,0.1946681,0.028094465,-0.20982386,-0.0894233,0.2401402,-0.035078537,0.103000596,0.038100883,0.018066933,0.030724144,0.17718276,-0.12164416,0.14141606,0.024763845,0.0711119,-0.30795217,0.04640986,0.12027296,0.11080028,-0.013933372,-0.04555674,-0.39410836,0.09808833,0.005734035,-0.019504542,-0.121194735,0.022843856,-0.056455027,-0.09694669,0.026270146,0.05246454,0.14668885,-0.08647325,0.092491925,0.099294335,-0.11410629,-0.079620115,-0.02271149,0.0879186,-0.058544826,-0.16002253,-0.1406452,0.0170524,-0.21428667,-0.01716508,-0.18722868,-0.10235456,-0.022175064,0.045608066,-0.025464604,0.19325943,0.08321938,-0.09259622,0.17808509,-0.2138279,-0.2160333,-0.0080577005,0.15828636,-0.046455245,0.068028115,-0.15956822,0.10031856,0.07640548,-0.19289671,0.21380936,-0.014279615,-0.07111979,-0.083470784,0.073805705,0.114125535,-0.09514324,0.034420572,-0.06441587,0.033813383,0.009340722,-0.00026404843,-0.015084565,0.01916899,0.052052826,0.042496726,0.03881915,0.09547114,0.1969606,0.009961965,-0.14696442,0.25998214,-0.039116573,0.04691889,-0.21465455,0.098404475,-0.032756902,-0.16675432,0.33200863,-0.040730923,-0.07615261,0.16541134,0.045377,lncRNA
HAGLR,0.06363846,-0.04652277,0.036831226,0.058011007,-0.11802255,-0.09836515,0.042772956,0.021035733,0.18504083,-0.05046449,-0.030193735,-0.13505122,-0.0412839,0.0516097,-0.08816596,-0.008479815,0.084370084,-0.0642833,0.080444194,-0.11648367,-0.17840955,-0.105080515,0.05496596,-0.082517244,0.07679477,0.030549819,0.12826768,0.10224948,0.11796316,-0.13334888,0.050575405,0.07825976,-0.10056536,0.07082206,-0.12739377,-0.14805295,-0.08741223,-0.21050304,-0.067065515,-0.118542284,0.044712085,0.014403514,-0.0061517903,-0.1433983,0.06815624,-0.10377495,-0.03347759,0.10868062,0.08773994,0.19928099,0.08045828,0.034658235,-0.0013003038,0.059789054,-0.06668584,-0.060130067,-0.07629906,0.029904539,-0.021025402,-0.101333015,-0.05237956,0.08914269,0.103151746,0.06171687,0.11045459,-0.08473503,-0.07465261,-0.06736877,-0.005667411,0.013790315,-0.001188085,-0.14182545,-0.047766645,0.06745871,-0.35260233,0.11407234,-0.11203722,0.08278697,-0.015572546,-0.12612717,-0.027422111,-0.03056917,-0.09329178,-0.046368137,-0.027898543,-0.06139371,0.05767603,-0.07386538,-0.2274364,0.06625011,0.04114083,-0.023438212,0.08178424,-0.039272685,-0.15509525,-0.010302519,-0.041609164,-0.04477883,0.06923042,0.016841609,0.15826142,-0.028842453,0.12854192,0.10735217,0.12047179,-0.07062895,0.16046585,-0.025975272,-0.090741284,-0.01793549,0.07295641,-0.09513132,-0.106193274,0.011000076,0.18387635,-0.023095982,0.17002423,0.015961636,-0.26729864,-0.11668157,-0.14918734,0.07765923,0.05798755,0.0034014059,-0.21062076,-0.005252228,0.12642667,-0.054652486,lncRNA
LINC00477,0.0030686953,-0.02359523,0.026044216,-0.0025365846,0.073750444,0.016268792,-0.008947346,0.118533924,0.0041892775,0.28129157,0.0053107375,0.034670442,-0.025812352,0.085331276,-0.08725157,0.32489583,-0.054179758,0.025894852,-0.10821136,0.022445286,0.07668666,-0.2154278,0.026676722,0.0021668128,-0.13075706,-0.36462826,-0.05171498,0.026526228,0.10569571,-0.074544705,0.003581278,-0.0717472,0.2913634,-0.06916482,0.010705368,0.14507619,0.19360545,0.06536942,-0.004349678,-0.15049773,0.15554853,-0.051452704,0.052413803,0.03958989,0.08325628,-0.05493138,-0.025952235,-0.04521379,-0.061293606,-0.026167156,-0.021367796,0.021172345,-0.06676322,-0.0010654266,-0.014004133,0.051335398,0.33370018,0.042314913,0.11501821,-0.0823879,-0.05959465,-0.08386081,-0.020869575,0.021289134,0.10651146,0.13789085,0.053667255,0.07673375,0.26003438,-0.0008550561,-0.65305847,0.018712612,-0.025311908,0.11623257,-0.5669647,0.00980976,-0.004189264,0.045911357,0.053325366,0.03336994,-0.016685298,0.13649943,0.0052152397,0.090444215,-0.11865045,-0.016128805,-0.02598071,-0.087544054,0.011219164,0.116364375,-0.10955283,0.13069248,-0.029139634,-0.016316678,0.07004164,-0.02400992,0.0557233,-0.05353597,0.14275135,-0.0028921005,-0.12435798,-0.036445368,0.023405863,-0.15374541,0.115207575,-0.045350675,0.07710441,0.045811474,-0.045285404,-0.0730041,-0.104604885,-0.22187254,0.009594722,0.018067293,7.493095e-05,0.0709404,-0.37693483,-0.11733933,-0.10925335,0.015441855,-0.05401308,0.028010035,-0.12666677,-0.07125942,-0.06603987,0.0044439817,0.025917266,-0.10109654,lncRNA
SNHG12,0.0292984,-0.009986957,0.07903577,-0.02165335,0.0053078337,-0.055117726,-0.05347853,-0.007380244,0.015848435,0.051251765,0.059767157,-0.08052399,0.021879189,-0.12833494,-0.00058506674,0.026584273,0.19367158,-0.20729084,-0.02182447,0.12521139,0.2045037,-0.039622627,0.017997956,0.13039365,0.18821742,-0.0674378,-0.076154314,0.03287392,-0.03555803,0.062213954,-0.06387436,0.08546878,0.06751994,-0.08664315,-0.016143018,0.015323349,0.07418113,-0.06326431,0.01696392,0.038283933,-0.02346297,-0.038929567,-0.046842948,0.15391263,0.05760692,-0.039576426,0.13963667,-0.22517608,-0.06922855,0.009287767,0.06912476,-0.10415098,0.023491865,0.35652184,0.035360683,-0.012876062,-0.2669973,-0.14104201,-0.035052113,-0.046252195,0.048644442,-0.15114886,0.0013299924,0.10001894,-0.049778197,0.08114163,0.1024809,0.06565391,-0.123771586,0.034159124,0.043153133,-0.013669065,0.16091987,-0.017941376,-0.04185623,-0.26777062,-0.19598389,0.14379789,-0.11967977,0.012139132,-0.07475742,-0.076326646,-0.053334195,0.04481896,-0.10608506,-0.041544437,0.06214958,-0.11542195,-0.144455,-0.003009317,-0.050178505,-0.069094,0.096590266,-0.17826727,-0.06375084,0.11794456,0.012324515,-0.24680756,0.20981161,0.06047228,-0.026426183,0.22232889,-0.15904574,-0.028017234,0.14446013,0.09236902,0.120632485,0.11824039,0.06817597,-0.1330924,-0.049375467,-0.037461966,-0.013282971,0.17074452,0.0021315673,-0.007192358,-0.17900762,0.15737343,-0.04824915,0.06660373,0.039114118,-0.058175527,0.054450877,-0.033559248,-0.0434863,-0.034163676,-0.19776547,0.05433807,lncRNA
CTBP1-AS,-0.052475166,0.0392865,0.11438319,0.029999858,-0.008652632,0.1250115,0.041722976,0.027665649,-0.03990853,-0.020099666,-0.012406314,-0.008965896,-0.11695077,-0.21220529,-0.038176324,0.018077044,-0.13201009,-0.084970675,-0.046431445,-0.06804544,0.087851465,-0.043293424,-0.07781086,-0.0872589,0.04199981,0.046180416,0.19964412,0.042348012,0.037842285,0.00991211,0.07254918,-0.06561311,0.011627286,-0.1025474,-0.06567768,-0.14540248,0.13612029,-0.009494062,0.018675614,0.12044732,0.10000207,-0.007285836,0.008304058,0.09687238,0.068291344,0.030097706,0.4992822,0.12522322,0.009949068,-0.21942681,-0.011775049,-0.07664889,-0.12770608,0.10952117,0.09744045,0.10263883,0.13431144,0.041171554,-0.28893182,-0.08262732,-0.066867866,-0.047238007,0.050124984,-0.11841429,-0.23096703,0.14020616,-0.03562326,-0.04327111,0.09003828,-0.13852729,-0.013599646,0.08372029,-0.0018205529,0.07325051,0.15343614,0.036169995,-0.21275577,-0.014474297,0.10434729,-0.08726837,0.13270448,-0.028662715,0.056310985,0.07163623,-0.07131502,-0.22106293,-0.019715255,-0.05163321,0.14201254,-0.056298617,-0.0011408258,0.2782886,0.07630975,-0.011487795,-0.056411542,-0.044257354,-0.20193571,-0.11791662,-0.11604837,0.0942266,0.083482064,-0.064250804,-0.03503481,-0.076855004,-0.006783995,0.017154245,-0.02492115,-0.06608028,0.10819454,-0.07442731,0.12062088,-0.049445175,0.03875748,-0.0069287834,-0.018118545,-0.10299621,0.012459353,-0.009199933,-0.12080635,-0.114898585,-0.02966906,-0.07771273,-0.03926529,-0.0043261847,-0.118277416,-0.08775032,0.13184477,0.023383122,lncRNA
LINC00319,0.1616429,0.001369434,0.02304265,-0.14637992,-0.1357809,0.11172433,-0.008697592,-0.047761597,0.2081806,-0.12114599,-0.06575316,0.011754895,-0.052725043,-0.020961849,-0.2975392,0.015968934,0.14699724,-0.16868028,-0.15844384,-0.0035740146,-0.12511079,-0.008481055,-0.029082216,0.19947985,0.0093256105,0.18628407,0.18022001,-0.1026535,0.04376484,-0.27512765,-0.089693084,-0.062685184,-0.039217114,-0.21709718,-0.020284032,-0.061859913,0.11813716,-0.16211101,0.07737457,-0.08120425,0.059970453,-0.025016788,0.08799071,0.09126451,-0.029065998,0.09807298,-0.27016577,0.072598845,-0.1831394,-0.26498735,-0.21274655,0.0128067965,0.097830296,-0.3012388,-0.042512443,0.042978268,0.005696123,0.10292287,-0.033779245,-0.14865412,-0.053383775,0.073280714,-0.08422952,-0.03853269,-0.18593942,0.061036613,-0.04102497,0.25333247,0.035695948,0.03707053,-0.062405165,0.18261713,-0.031998966,0.027900321,-0.103394225,-0.16654988,0.07357076,0.15807556,-0.0062353224,-0.034459844,-0.18629801,-0.042582583,0.1145064,0.33217436,-0.060814105,0.14528932,0.019701483,-0.036950946,0.38711855,0.062188763,-0.10386495,-0.058405135,0.11283608,-0.042265717,0.03565038,0.06418832,-0.22226171,-0.070686705,-0.02373473,-0.09258906,-0.05673645,0.08880658,0.03806261,-0.0586368,-0.14376995,-0.03369203,-0.123665236,0.003506964,0.1126431,-0.009222428,0.028252654,-0.19702718,-0.028799124,-0.17183281,0.14440821,0.121806204,0.07771075,-0.15665114,-0.0653466,-0.049907453,-0.058840528,0.010041925,0.10221645,-0.047977243,0.13161038,0.2325442,0.12818937,0.08562941,lncRNA
LINC01224,-0.26512304,0.018929727,-0.0280748,-0.07679124,0.15232307,-0.09654408,-0.038755484,-0.02634797,-0.07805986,0.034126908,0.1918451,-0.15964228,0.006605261,0.09519924,-0.011343647,-0.010128588,-0.06311866,0.1585936,-0.21661352,0.11091243,-0.038444694,-0.058163058,-0.013540364,0.036228135,-0.0494026,-0.09140383,-0.17302483,-0.019007456,-0.1808176,-0.15816529,0.08202455,-0.082852244,0.0836088,0.091634676,0.0092334645,-0.034147307,-0.21924447,-0.011296153,-0.03723853,0.07020503,0.10705385,0.0017556882,-0.027385037,-0.09427842,-0.11685692,0.19552445,-0.17293134,0.10157186,0.0077500097,0.094786,-0.032408413,-0.087205246,-0.060516126,-0.20832838,-0.14050625,0.17593344,-0.015395903,-0.033339392,-0.051045094,-0.077712685,-0.017914921,-0.018911486,-0.014918023,-0.07518117,0.05183562,-0.033700265,0.076634966,0.08796087,-0.07821374,-0.07976533,0.045838475,0.003003192,0.008974895,-0.046630606,0.11594508,0.022812493,-0.040249802,-0.1603069,0.18770999,-0.16931039,-0.022646755,0.28480497,0.009438399,0.07799252,0.010976425,-0.18432917,0.012073747,0.03729419,-0.059914466,-0.0567314,0.05456604,-0.14042816,0.020595962,-0.033631206,-0.021115864,-0.033580873,0.013478663,-0.1107596,-0.08492641,0.0094007505,0.032193407,0.1145124,-0.16519423,0.00046647096,0.05533435,0.0117408885,0.118595354,-0.18457676,0.042527694,-0.04953749,0.034088608,-0.017514076,-0.08692136,0.011089356,-0.07539741,0.1450821,0.067623384,0.25397676,-0.03279098,-0.031564705,-0.07019063,0.03699443,-0.14247,-0.019218825,0.08584345,0.016487474,-0.1080882,0.05102103,lncRNA
HOTAIRM1,-0.078049794,-0.088636,-0.1414997,0.040914785,-0.047844976,-0.14354308,-0.028515808,0.101293065,0.063874334,-0.17410088,0.07675582,-0.06619353,-0.008736923,-0.3209708,-0.06377621,-0.07029153,-0.10609412,0.14414585,-0.0066851317,-0.07351572,0.1276095,0.066903464,-0.14170069,-0.2555821,0.042076,0.16685355,0.15539512,0.010148893,-0.026986498,0.008813085,-0.0370787,-0.037830364,0.124778196,-0.066482045,0.005761051,-0.06723289,0.042690113,0.097267024,0.11885464,0.14201473,0.028798046,-0.034468412,0.19097097,-0.07015842,-0.090926506,-0.06521737,-0.09924607,-0.32635966,0.020327728,0.046501543,-0.1602298,-0.060438756,0.009826541,-0.021640694,0.038276948,0.15324427,0.08991505,-0.081910826,0.10214286,-0.09097838,0.044130255,-0.14414257,-0.025545478,0.19410111,0.17136146,-0.33362213,0.07616551,-0.10678847,-0.27812734,-0.09065145,0.03466543,0.001875139,-0.11629085,-0.05092325,0.19768625,0.24857406,-0.17613524,-0.03970611,-0.056656778,-0.1109927,0.15238142,-0.036149368,-0.055360824,0.008030227,0.15312026,-0.114146285,-0.08084293,-0.03511998,0.24069266,0.019504916,0.040964536,-0.15128481,0.101657934,-0.0951709,0.009507779,-0.15959387,0.04217406,0.010971048,0.03032574,0.07090081,-0.049859397,0.059750523,-0.05271526,-0.03921545,0.014014931,-0.040971257,-0.12061316,0.21037973,0.060048986,-0.04364529,-0.22183912,-0.06236984,0.0681257,0.07669301,0.2838023,-0.08565783,-0.24426302,0.2180842,0.2027932,0.041047417,0.09112036,0.10899039,-0.039193552,0.060737297,-0.018740596,-0.050495252,-0.043587342,-0.03179605,lncRNA
RPSAP52,0.22600959,-0.11568262,-0.029194556,0.122743756,0.011370798,-0.08637974,0.04413445,-0.053309247,0.11172372,0.07567487,-0.11789166,0.018854829,0.06662369,0.11156344,0.10482788,0.23942247,0.094921716,-0.0018697623,0.045136563,-0.1678964,-0.032116693,-0.048011295,-0.031837557,0.22481172,0.10276009,-0.10172676,0.101909295,0.1811228,-0.022055903,-0.005821458,0.06101957,0.009963098,-0.14666067,-0.043288697,0.32665873,0.104169145,-0.13627693,0.18536115,-0.015869433,-0.01071398,-0.11048042,-0.12778999,0.00067665934,-0.18963322,0.19610359,0.03758364,0.07522762,-0.059541263,-0.15056872,-0.052357573,0.035358038,-0.034383837,-0.07122105,-0.009016229,-0.14458445,-0.061320208,-0.09912242,-0.1672191,-0.006595664,0.048945405,0.22717553,0.0945482,0.28065073,0.24507695,0.12801237,0.02932033,-0.0032918486,-0.190462,0.011904791,-0.09818151,-0.40011775,0.08546355,-0.050904423,0.08967393,0.040061966,-0.06787897,0.0926762,0.04957102,-0.043734945,-0.052773006,-0.10081058,0.15599771,0.008687542,-0.15861042,-0.11676011,0.036771085,-0.18689871,-0.15093197,0.11194444,0.037643727,0.14347139,-0.08962662,0.023902167,0.046798673,-0.034027543,0.023479851,0.032754652,-0.0340327,0.10936181,0.14474833,-0.15718777,0.07127301,0.035362154,-0.012198852,-0.10974904,0.12418308,-0.15683001,0.14902869,0.10208942,0.0011643209,-0.123853624,-0.16846156,0.05915384,-0.12500566,0.10760512,0.02015116,0.10800525,0.12850885,-0.07318068,0.11724968,0.0044450047,0.010111572,0.029255202,-0.14437647,0.026741203,-0.019911021,0.004027539,0.05668577,lncRNA
NNT-AS1,-0.054638635,0.033127397,0.09542792,0.15929443,0.10558105,-0.011931149,-0.07661602,0.1727714,0.1209134,-0.033840522,-0.050206702,0.0046256674,0.15451272,0.0431873,-0.11648918,-0.01567869,-0.072328374,0.015936924,-0.06075566,-0.15589125,0.20227678,-0.037522584,-0.069122694,-0.11608025,0.0050240345,0.08425012,-0.044141974,-0.06379978,0.0351582,0.002904465,0.123146474,-0.13642845,-0.045880612,0.15323879,0.06139054,-0.023795707,0.07835542,0.1359762,0.2090985,-0.012230609,0.1404305,-0.019696198,-0.017903144,-0.05095649,0.103908874,-0.12719339,0.002330838,-0.14675435,0.022518627,0.07607229,0.10360923,0.13014533,0.010249938,0.18018952,0.053900372,0.23371145,-0.096282616,0.13094757,0.0449076,-0.2089241,0.038395762,-0.08870718,-0.029376127,-0.05359294,-0.12358473,-0.09234613,-0.041382287,-0.044288754,0.04000657,0.098721474,-0.0083301645,-0.15767536,0.046836723,0.0015170681,0.05354807,0.043668725,0.10464632,0.017566204,-0.08242771,0.18721041,0.101631954,-0.048538294,-0.016941173,-0.0019954927,-0.027429286,0.13541466,0.136807,0.13097559,-0.023376774,-0.032243118,-0.09528027,-0.024258278,0.096386515,-0.033606485,-0.086137496,0.068189,0.049446225,-0.044609576,0.09918338,-0.017295506,0.05398516,0.012821393,0.13427942,0.101606205,0.18591902,0.042319853,-0.21366593,-0.0659823,0.06831189,0.060729556,0.008223562,0.08141265,-0.20764582,0.11252444,-0.003676027,0.2512036,-0.17173138,0.15655096,0.022871003,-0.1218817,0.009615178,-0.06173367,0.051093142,-0.04808926,-0.12508899,-0.054761365,0.010895403,-0.20269811,lncRNA
LINC-ROR,-0.104277335,-0.029859195,-0.12631398,0.009532483,-0.10794468,0.07847423,0.11652297,-0.11306859,0.016584627,0.05344706,-0.08774191,0.027207151,0.08594831,0.029957797,0.15395905,0.08228277,0.14174171,0.09763601,0.010335315,-0.08244363,0.06944492,0.12734555,0.0624461,-0.13565724,0.0793422,0.00909619,0.04495516,0.016321948,0.0386843,0.07234419,-0.028292382,0.03512692,-0.035923023,0.23254083,-0.094480254,0.06631261,-0.037171446,0.0730162,-0.0027095913,0.052722964,0.032338355,0.14398207,-0.1529339,-0.019563427,0.01862873,-0.031219194,-0.07576808,0.0074136006,0.16010067,0.10689252,-0.07715847,0.012146019,0.07980337,-0.0014485893,0.05421281,-0.04522398,-0.22810593,0.19592999,-0.031829596,0.046347618,-0.13742393,-0.079887345,-0.112870656,-0.05637695,0.25683215,0.06403203,-0.09376278,0.03131456,-0.16335037,0.014985741,0.13217095,-0.07074371,-0.04925559,-0.07198465,0.12999013,0.017191004,-0.06433005,-0.0032839046,-0.055945594,-0.08743957,-0.10533837,-0.01696444,-0.060761116,-0.027749447,-0.08684942,-0.05494919,0.102174096,-0.05399539,0.03162828,0.10469966,0.22512965,0.162692,0.10090182,-0.029746888,-0.08305635,-0.06096936,-0.31137452,-0.08529712,-0.0016387899,-0.21828322,-0.0010297202,0.021015618,-0.09601995,-0.06967695,-0.033287812,-0.058121458,-0.15241492,-0.034024067,-0.03392025,0.012297917,0.12412614,-0.14373642,-0.032430343,-0.013935657,-0.017758582,-0.0033181028,-0.07195142,0.04106581,0.13906144,0.08668205,0.023024328,0.0005898897,-0.052420802,-0.09483067,-0.06258,-0.021844467,-0.041113112,-0.0016479164,lncRNA
FENDRR,0.0991319,0.0534874,0.13879687,-0.06484043,0.029743971,-0.11231166,-0.039298818,-0.11957624,0.027732883,0.059708033,0.062439445,-0.06528506,0.11388797,-0.09554688,0.013860012,0.029830426,-0.060407057,0.049668547,0.09540121,-0.077045366,0.16908099,-0.11352203,-0.12990032,-0.038646806,0.057256855,0.032281995,0.09878316,-0.09320651,-0.2968665,0.0771894,0.08841776,-0.031506304,-0.028412627,0.09163313,0.1582164,0.033334922,0.04851285,0.013384787,-0.04367686,-0.005054613,-0.102668956,-0.02601416,0.04564112,0.119652696,-0.019003486,0.046412535,0.010592692,-0.05704486,0.070414,0.03587009,0.16588655,-0.059368942,0.0031927186,-0.08206497,0.15551323,-0.06233254,-0.11208721,0.05407553,0.03002573,0.03806866,0.009995469,-0.071255624,-0.22471765,0.046498545,-0.06551662,-0.11494538,0.14217342,0.006235308,0.048958495,-0.07028889,0.014047965,0.04794667,-0.05351402,0.043551527,0.10381505,-0.10111665,-0.006620722,-0.065795906,0.025027575,0.025035404,-0.13608111,0.060808532,-0.021080932,-0.010703591,0.062339008,0.12070171,-0.16469029,-0.15219334,-0.016309377,0.10720834,-0.033711936,-0.083367445,0.0013473115,0.05788536,-0.1004739,0.07042404,-0.13690718,0.033974297,0.027220901,0.10642773,0.09332888,-0.03539967,0.12517382,-0.11771116,0.06755435,0.042846903,-0.12661362,-0.10013946,0.026467416,0.09563544,0.12872554,-0.09661248,-0.31160054,0.10031829,0.03585438,-0.07640891,0.17661564,0.0820402,-0.026566517,-0.061711695,0.100045495,-0.10096878,0.018805519,0.1629952,-0.0384596,-0.1320794,0.15407617,0.032625448,lncRNA
TUSC7,0.06321261,-0.0016122467,0.14606522,-0.09990025,0.015723616,-0.014630164,0.015166863,0.059849612,-0.0749429,0.028185157,0.07066149,0.030617693,0.08792296,0.066651054,-0.01854149,0.04149101,0.10587064,-0.21894288,-0.053547014,0.112473056,0.2214323,-0.03971526,-0.027219465,-0.078965284,0.035243295,-0.031810336,0.08620018,-0.014874727,-0.015431725,0.17240052,-0.00045558735,0.024515573,0.017746275,-0.022467084,-0.08501818,-0.05733087,-0.14991763,-0.17938887,-0.041085947,0.15458441,0.036082957,0.08628075,0.020314904,-0.0762633,0.04449419,-0.013869811,0.07457207,0.07852744,-0.108025715,0.06180019,-0.06869157,-0.1584803,0.1482446,0.2259678,0.09850622,-0.059511755,-0.33325857,0.09855206,0.0033084138,0.09625291,0.018709656,-0.27539575,-0.021732721,-0.15172,-0.11557066,-0.026119383,0.0022358634,0.14773339,0.092119776,-0.044545073,-0.12275272,0.13180982,-0.0039839707,0.05995357,-0.017724508,0.064470455,-0.140449,0.033566274,-0.06009572,0.089631975,0.15879473,0.1427455,-0.04224804,-0.15722501,-0.046809148,-0.005204974,-0.0021148217,-0.04639457,0.29601476,0.022763174,0.033265986,0.057067215,-0.118380256,-0.1823199,-0.09499768,-0.14317513,0.06463028,-0.1362637,-0.099098675,0.021385653,-0.1568512,0.037375864,0.0026634522,-0.0649821,-0.09146612,0.15908848,0.2444027,-0.05863255,-0.0096643325,-0.10925657,0.10445149,0.041224487,0.18438004,-0.0007027724,0.032854445,-0.19559528,-0.24203998,0.14203458,0.01110063,-0.007287091,-0.12973239,0.15474299,-0.057921775,0.1864865,-0.15593167,0.1791721,-0.02907642,-0.04307969,lncRNA
PCAT1,-0.04918713,0.042786445,0.10723509,-0.11167351,-0.0072817267,-0.0034136502,-0.21922468,0.03194768,-0.027418053,0.042715836,0.049835872,0.16183372,0.049303934,0.008627892,-0.09032144,-0.18062063,-0.059265822,0.014487665,0.045237247,-0.033344,0.10039422,0.040882986,0.043122824,-0.015562213,0.16837701,-0.016349204,0.013653522,-0.02066558,-0.06713953,0.1806032,-0.06957405,-0.19047195,0.03413618,0.03125942,0.10961953,-0.09084525,-0.16501845,-0.112196475,0.06258032,0.17088838,-0.039829828,0.09139819,0.23383957,0.104065254,-0.12456469,0.12241126,0.018242514,-0.16448134,-0.0012298822,0.09089118,0.034590673,0.013840411,0.037744373,-0.1592585,-0.002865808,-0.03897419,-0.08751712,0.03403778,0.08487393,-0.015406586,-0.12834561,-0.21044008,-0.12325713,0.005133711,-0.008278976,-0.016729135,0.070010185,-0.19693494,0.12040605,0.12885393,-0.07806578,-0.07985951,0.048454985,0.074562415,0.03215884,-0.01623506,-0.00386328,0.08423491,0.13206112,-0.020597015,0.16931215,0.06576966,-0.101893656,0.10573507,0.02258336,0.043144614,0.15976584,-0.038587,-0.08651673,0.055723768,0.121427245,-0.039553717,-0.036105353,-0.038223855,-0.19731557,-0.0042002443,0.23672104,0.012900765,0.088180624,-0.11492506,0.016644133,-0.05317737,0.01708703,-0.121121675,0.025560854,-0.054432504,0.0574328,-0.09208652,-0.047885586,-0.058643132,0.22002481,-0.044034258,-0.13229744,-0.031634267,0.0017570306,0.036295023,-0.02125671,0.05293399,0.081437536,-0.011918464,0.008067026,-0.080128774,0.09109852,-0.035489947,0.041933253,-0.17113934,0.05579844,0.023383824,lncRNA
SNHG3,0.07042781,0.06782312,-0.096010044,-0.088676535,-0.029461524,0.17555471,-0.14654607,0.14866695,-0.12381031,-0.10163649,0.06587492,0.030334955,0.021741778,-0.08766031,-0.18895993,-0.114553764,-0.038516503,-0.03911196,0.06555092,0.09956352,0.041578103,0.025317969,0.056985416,0.0075698076,0.06981812,-0.010967728,0.048637543,0.085686155,0.01725538,-0.106903434,-0.15743177,0.040959183,0.049603954,0.05031436,-0.00045914855,-0.087304346,0.016470661,-0.047086976,0.029351048,0.057108097,-0.050557654,0.14180446,0.19188231,0.0019086538,0.034297336,-0.026950657,0.07547904,-0.025872245,-0.05487336,0.18605375,-0.0349377,-0.059824135,-0.105686955,0.0013261035,-0.07484524,0.07730134,-0.10774417,0.22530709,0.06681573,0.032986652,0.08002785,-0.027778797,-0.05672934,0.004401532,0.12819967,0.09409008,0.03631258,0.048466403,0.020813817,-0.041442998,0.03777694,-0.09072767,-0.09851388,-0.11718212,-0.026539458,-0.0150549775,0.03494464,-0.031373996,0.13324465,0.031263646,0.086389706,-0.09802482,-0.027188178,0.0052448334,0.1588624,0.1032978,-0.03566644,-0.06677285,0.07065004,-0.0058669574,0.05545897,-0.105184324,0.19369523,-0.01663024,-0.11888407,-0.08091305,-0.00090170564,-0.0004105058,0.14983028,0.077121064,-0.027662175,0.09104005,-0.040268037,-0.026835006,-0.010301176,-0.015090748,-0.075667076,-0.21443245,0.008995551,-0.007884144,0.108318105,-0.23708747,-0.07611311,0.057160474,-0.2637467,0.03379587,0.08644144,0.2103351,-0.15335687,0.021585427,-0.120103076,-0.22099748,0.29167753,-0.0004650929,-0.020115023,-0.22560638,-0.04859922,-0.018670594,lncRNA
MIR155HG,0.019399427,0.036378462,0.1465254,-0.020179978,-0.077052146,-0.03557139,-0.13033876,-0.075158976,0.1109046,0.07398362,0.02138759,-0.03406172,0.014177593,-0.015263486,-0.26105884,0.082696296,-0.045833774,-0.065311946,0.10106544,0.12252035,0.14153789,0.18538687,-0.059282236,0.11450165,-0.042785965,0.037606113,0.0076040444,-0.0069379937,0.04511929,-0.080053,-0.048217062,-0.123150975,0.23491018,-0.0871346,-0.16162722,-0.023532026,-0.044884898,0.105352886,-0.13036533,-0.035464156,-0.0028576246,0.037680168,-0.16214828,0.0069126114,-0.01015292,-0.14111115,0.1513176,-0.11274356,0.071240716,-0.016352627,-0.2327523,0.028416168,0.09349007,0.066437274,0.13282536,-0.18126242,-0.02649182,-0.17628601,-0.114112414,0.0066348864,-0.03269755,0.06689764,-0.08414795,-0.07158242,0.089703895,-0.12663847,-0.09856286,-0.0007325848,0.15682113,-0.06422879,0.21736583,-0.21024519,0.05749221,0.0654406,-0.08415363,-0.02906782,0.024541184,-0.12988672,-0.08211382,0.026070606,0.035420325,0.016566033,0.09253603,0.21947043,0.018539727,0.13847485,0.31209427,0.030231146,0.16803533,-0.004582907,0.030576326,0.061620876,-0.10144135,-0.08308872,-0.047370277,-0.036128707,-0.042460486,0.26761407,0.027539717,-0.09781565,-0.06993752,-0.0967054,-0.04201,-0.0183783,0.1281826,-0.09473144,0.0680697,0.07615309,0.20005056,-0.1514066,-0.08212396,0.016066464,-0.16902123,0.08385866,-0.14355837,-0.0115935635,-0.18867967,-0.021109799,-0.0024784638,0.37326783,-0.07565492,0.04253457,0.0126981735,0.15942731,-0.21019615,-0.05150577,-0.027060116,-0.17455219,lncRNA
HCP5,-0.10687876,0.007789091,-0.054633405,-0.051656116,-0.1638463,-0.001161664,0.042809803,-0.0451638,-0.0693628,0.029651549,-0.0009369183,0.02061945,0.13765687,-0.096094385,-0.19324969,0.21841589,-0.088142306,0.03894651,0.056980457,-0.048452213,-0.026453016,0.036547285,-0.017588748,-0.027739475,0.033438135,-0.16474424,0.017707542,-0.09520287,0.059082918,0.010861671,0.08391911,-0.14087342,-0.11714799,-0.03144193,-0.051844202,-0.048174445,0.0030328967,0.051136807,0.054951757,0.021924693,-0.07108523,0.1417346,-0.040477894,0.01594044,0.024905486,-0.033819083,0.09806722,-0.017637257,0.043109685,0.072607316,0.13622768,0.1400114,0.17947434,0.11678946,-0.028451487,0.05482216,-0.0996939,0.063607894,0.020138128,-0.062095553,-0.032567296,-0.062752634,-0.07113136,0.046799622,0.10825957,-0.060445856,0.071431585,0.03739696,0.25924504,-0.09066965,-0.03712451,-0.15194863,-0.16087037,-0.00643027,-0.02265238,-0.21326324,-0.09983952,-0.037788995,-0.06954764,0.07437749,-0.0062115197,0.0876849,-0.0009291435,0.122941874,0.1614407,-0.22125648,0.018803017,0.2650108,-0.168246,0.061487958,-0.05275782,-0.16804259,0.06673486,-0.05911474,0.21080364,-0.29953668,0.05251388,-0.0151355285,0.12932938,-0.052731197,0.017852476,0.13897254,0.07845438,0.020219807,-0.10266572,0.020614713,0.15364972,-0.009587797,-0.017000424,0.0405954,-0.031649698,-0.06499156,-0.053204693,0.051979672,-0.008552567,-0.040634252,-0.06391016,0.10326949,-0.19248116,-0.06538925,0.13085563,-0.028772876,0.15565364,-0.39531377,-0.013537131,0.012864092,0.19018771,-0.124224536,lncRNA
CCDC26,-0.17039128,-0.08585316,-0.020389592,0.018680545,-0.023224514,0.07329586,0.024239302,0.0823224,0.13731335,0.029736837,-0.07153918,-0.05526161,0.12707172,-0.051213805,-0.14835224,-0.0148171745,0.03300231,0.04473912,-0.05543498,0.18459691,0.12493664,0.05705924,-0.08200906,-0.060033426,0.09868678,0.14088365,0.07760825,-0.011323545,-0.32983148,0.011248838,-0.049712755,0.01292394,-0.1309541,0.028463425,0.28193378,0.031813692,0.03427783,0.07649676,-0.019690717,-0.04895215,-0.087393515,-0.048453588,0.05580862,-0.09427831,-0.048240267,0.12920772,0.00916596,-0.095796905,-0.07383185,0.02465725,-0.10790057,0.20862575,0.026163058,-0.050328955,-0.032943223,0.016359543,0.08353606,0.15188731,-0.060620777,-0.15463693,-0.13869677,-0.015420354,-0.038030006,-0.01008795,0.11927705,0.06699298,0.028316423,-0.08136809,-0.066224,-0.027137013,9.475302e-05,-0.06317856,-0.037824683,-0.11332157,-0.021188868,-0.04427009,0.08040761,-0.023499204,-0.0031051198,-0.13832287,0.08402308,0.050171033,-0.12942941,-0.1412403,0.071386665,-0.11918572,-0.0053404877,0.093157,-0.0295678,-0.08731102,-0.17839059,-0.0108007,-0.020046717,0.03540044,-0.054000925,-0.12144378,0.029183066,0.06705107,0.11944311,-0.20512785,-0.03775972,0.07085828,-0.02218262,0.057036392,0.12430868,0.05694088,0.024305638,0.04191315,0.0387606,0.11478458,0.115434565,0.110062696,-0.11667885,-0.053612214,0.031171404,0.13086686,0.057323128,0.077522956,-0.099028714,-0.12000115,0.0017387014,0.07941921,0.13494287,-0.073061965,-0.027303457,-0.007728059,0.13957754,-0.057638943,lncRNA
ZFAS1,0.041577734,-0.13912149,-0.037274927,-0.08158893,0.041732278,0.15293577,0.023558913,-0.0150966905,0.047176152,0.12406881,-0.012751943,0.112924896,0.009759518,-0.012566058,-0.04332077,0.026215991,-0.0071557616,-0.027518714,-0.031656418,0.09982219,-0.11117274,0.03140586,-0.1190465,-0.2136852,0.13829559,0.050696567,-0.10874377,-0.16390574,0.051837064,0.04860842,0.00741157,0.023503989,-0.21709967,-0.037504673,-0.07956835,0.0026336946,0.0043775598,-0.084752366,0.10845963,-0.020422567,0.04073233,-0.112158455,-0.15136302,0.06303553,-0.022044932,-0.14170218,-0.11053245,0.03919051,0.025335241,0.15295649,0.08183641,0.09162862,0.1001866,0.007816679,-0.019408356,0.12729207,-0.1338889,-0.00095819356,0.021714078,0.024168938,-0.1201059,-0.021870965,-0.22385244,-0.014657742,0.028832698,-0.09079176,0.005212136,-0.02960744,-0.023442348,-0.027225012,-0.13834435,0.0027510514,-0.2171103,-0.06170999,0.11855018,-0.16553546,0.08639162,0.059887465,-0.065024085,0.026624799,0.03524532,0.037046105,0.15876535,0.036555305,0.106868215,0.14363237,0.076919004,0.10083592,-0.016888293,0.059129473,-0.11412424,-0.020325486,0.0401433,-0.053674486,0.053926528,0.014160968,-0.10433632,0.09085549,0.00058385066,0.0074620796,0.014288103,-0.018027656,-0.121187486,0.0043148096,0.23438342,-0.072558105,0.05532754,-0.09927168,0.00878645,0.016749246,-0.020570459,0.06280995,-0.089176245,-0.0135106975,-0.02506469,0.020645117,0.598289,-0.033436224,0.026747065,0.08645105,0.08187013,-0.1153203,0.14442338,0.0329689,-0.22792041,-0.018220311,0.038465347,-0.059312947,lncRNA
DLEU2,0.25680783,-0.20794615,-0.015309056,0.14522904,0.09747317,-0.026991772,0.107071035,0.055096164,-0.08726302,-0.11912395,0.17180645,-0.06585969,0.026893917,0.052378193,-0.18923688,0.17038876,0.03707112,-0.009821274,0.11489668,0.027868265,-0.14981213,-0.10340174,-0.17283642,0.11149161,0.00135394,-0.15862054,-0.054636743,0.06489173,-0.07516842,-0.12862337,0.057984877,0.07217746,0.13818265,0.0064363643,0.054673407,-0.0015202553,-0.055272803,-0.10481698,0.11920408,0.05936788,0.09757624,0.08512719,-0.051742915,-0.019439965,0.034942497,0.14110005,-0.056669123,0.006665077,-0.07523764,0.10302351,-0.11393374,-0.044474535,0.025296327,0.17763874,-0.00072230876,-0.13222624,-0.013318495,0.2400516,-0.055026073,-0.0014317986,-0.10793403,0.039409187,0.036509663,-0.011382701,0.0035016323,0.0143776545,-0.010503762,0.1651381,-0.09547732,-0.015858399,-0.01927158,0.17284733,0.19397648,-0.00055297196,-0.11046385,-0.042373862,-0.19696045,-0.009074971,0.14768776,-0.15277284,-0.00084215257,0.049859587,-0.0093317805,0.28746185,0.13522756,-0.07964789,0.23621644,0.047910176,-0.17720471,-0.10104685,-0.11958026,-0.088177755,0.006497123,-0.08328367,-0.021828245,0.061162796,0.060348738,-0.04363104,0.02557231,-0.23487209,0.10054364,0.00807203,-0.11905555,-0.056720313,0.06337908,0.102794886,-0.14086215,0.12959963,0.19807164,0.2319742,0.02568299,-0.117536776,0.009642781,-0.029872201,-0.13346052,-0.0008667066,0.07020942,-0.1363267,0.1694578,0.10371331,-0.1146994,0.00885241,-0.0012865579,-0.0020585563,-0.018712396,0.1469801,0.023319084,0.24401784,lncRNA
FLVCR1-DT,-0.038808934,-0.17779577,0.020132339,-0.071767434,-0.08700319,0.11162144,-0.1719518,-0.15318309,0.11166973,-0.06123411,0.047148425,0.10226991,0.019523663,-0.20403063,-0.08473458,-0.094926715,-0.11229916,-0.07375589,0.02747799,0.08702605,-0.0695156,-0.056905635,-0.051180728,0.024372509,-0.0035351408,-0.0634106,0.051713917,-0.11940774,0.03621294,0.08641077,-0.08035157,0.10665532,0.22572827,0.064016424,-0.06017797,-0.03145089,0.05442262,0.078854,0.13049519,-0.04278893,0.19405328,0.13629194,0.06712117,0.019221725,0.020845292,-0.006260123,0.27416798,-0.08310052,-0.15974769,0.07885234,0.10033745,0.017229963,0.048275627,0.027467513,-0.116848126,0.11088023,0.094688885,0.026228528,0.05020696,-0.0076608784,0.037613876,-0.05056073,0.012713795,-0.118045814,0.026106432,0.14936778,0.08570766,-0.18536885,0.12222373,-0.04319133,0.16830862,-0.047201056,0.033997137,-0.2611128,-0.08263037,0.13065538,0.10243158,-0.13161841,0.106341414,-0.120850325,-0.0143596465,0.057097778,-0.037575576,-0.08078045,0.08683511,0.103325985,0.025575778,0.008548301,-0.027439754,0.018350154,-0.01355965,0.013371138,0.04623925,-0.11766986,-0.052027587,0.10479688,-0.10467775,0.07280409,0.24696343,0.016313858,-0.044403013,0.007294572,-0.16086063,-0.1410748,-0.09894451,0.1780981,-0.027055115,-0.15187596,-0.082433894,0.009241516,0.0042973165,-0.032905135,0.054235883,0.0361515,-0.06505335,-0.042089563,-0.02252834,-0.10296862,-0.0021559289,-0.062176242,-0.18113445,-0.008221014,-0.022076797,-0.08063697,0.07402221,-0.14016992,-0.08317053,-0.08792331,lncRNA
LINC00963,0.11160213,-0.12906466,0.0064477483,-0.09878249,-0.008616762,0.018921494,-0.033262506,-0.0417761,-0.058237802,0.01814039,-0.05255853,-0.16706072,-0.25769177,0.087515324,0.0705224,-0.17464551,0.009308652,-0.082196146,0.15303025,-0.06979069,0.045443542,-0.11194046,-0.04661821,0.17708315,-0.14872286,0.032911982,0.14056246,0.03545552,0.0049327514,-0.053297184,-0.13364017,0.011938067,-0.053742263,-0.047595117,-0.16259351,-0.034384675,-0.07968552,-0.011656659,0.062444534,0.20528673,0.002164233,0.067365505,-0.03302216,-0.08855693,0.10153294,0.28094962,-0.075279996,0.04571683,-0.053575456,0.0037689372,0.15238582,0.1155928,0.04265861,0.039096337,-0.19113052,0.05227785,-0.176978,0.0021621638,0.12898217,-0.03705193,-0.12111189,0.07626617,-0.32457545,0.20680879,0.07171682,0.06497853,-0.013226773,0.26076943,-0.14293459,0.22177361,-0.06489661,0.029299987,-0.08989142,-0.08473388,-0.13267846,-0.047435597,0.18034023,0.13587251,-0.08426496,0.2252455,-0.014231778,-0.08380618,-0.00045222545,0.14533372,0.104798086,-0.22884782,-0.1371786,-0.12058939,0.15753628,-0.024577627,-0.023177724,-0.24771614,0.27216962,0.02366478,-0.18553217,0.0503991,-0.16609031,-0.061615933,-0.077645496,-0.061305463,0.14860047,-0.15058723,0.115443,-0.053258736,-0.094255835,0.014261397,0.1630057,-0.100649826,0.08320749,-0.06226999,0.29817265,-0.26578578,-0.08068443,0.0038812156,0.02024954,-0.061885525,0.08513235,-0.12740198,-0.10187756,-0.02663877,0.05808212,-0.054978713,-0.0017337512,-0.037831593,-0.042005174,-0.09429142,0.0372925,-0.064086996,lncRNA
