lncRNA,feature_1,feature_2,feature_3,feature_4,feature_5,feature_6,feature_7,feature_8,feature_9,feature_10,feature_11,feature_12,feature_13,feature_14,feature_15,feature_16,feature_17,feature_18,feature_19,feature_20,feature_21,feature_22,feature_23,feature_24,feature_25,feature_26,feature_27,feature_28,feature_29,feature_30,feature_31,feature_32,feature_33,feature_34,feature_35,feature_36,feature_37,feature_38,feature_39,feature_40,feature_41,feature_42,feature_43,feature_44,feature_45,feature_46,feature_47,feature_48,feature_49,feature_50,feature_51,feature_52,feature_53,feature_54,feature_55,feature_56,feature_57,feature_58,feature_59,feature_60,feature_61,feature_62,feature_63,feature_64,feature_65,feature_66,feature_67,feature_68,feature_69,feature_70,feature_71,feature_72,feature_73,feature_74,feature_75,feature_76,feature_77,feature_78,feature_79,feature_80,feature_81,feature_82,feature_83,feature_84,feature_85,feature_86,feature_87,feature_88,feature_89,feature_90,feature_91,feature_92,feature_93,feature_94,feature_95,feature_96,feature_97,feature_98,feature_99,feature_100,feature_101,feature_102,feature_103,feature_104,feature_105,feature_106,feature_107,feature_108,feature_109,feature_110,feature_111,feature_112,feature_113,feature_114,feature_115,feature_116,feature_117,feature_118,feature_119,feature_120,feature_121,feature_122,feature_123,feature_124,feature_125,feature_126,feature_127,feature_128
NEAT1,-0.05586257,-0.0034573674,0.06491121,0.04124417,0.0414242,0.09316807,0.04216552,0.06473031,0.046307053,0.014576528,-0.046417873,0.07171562,-0.0224477,0.013572689,-0.06310323,-0.036846094,-0.016056553,-0.01571258,0.026887715,0.07367197,0.16506596,0.12485666,-0.03466021,0.011054244,0.15754795,0.06271862,-0.036330186,-0.07113359,-0.01511172,0.004627426,0.030583749,0.08557855,-0.016023494,-0.050818864,-0.044549093,-0.11292958,-0.122499615,0.015429954,0.07546029,-0.005472661,0.0028564022,-0.09102449,-0.061068602,-0.056188144,0.007641925,0.035526972,-0.095621504,0.014846153,0.02461279,0.04949943,0.05738493,-0.06713752,-0.019408816,0.021855675,-0.105183475,0.013648267,0.0358297,-0.008937162,-0.054644205,-0.13013649,-0.015473018,-0.01736378,-0.076771,-0.0018559203,-0.052958302,0.12374289,0.015521219,0.096083775,0.074927345,0.0023955242,-0.0125168925,0.017955963,0.050921764,-0.084888764,0.00459194,0.104236834,-0.0068432745,-0.031009974,-0.076819174,-0.020686768,0.07480905,-0.055367704,0.06825114,-0.016288716,-0.06624486,0.008394522,-0.07638654,0.007932383,0.06441786,0.023871645,0.031945363,-0.033819195,0.057583954,0.014283553,0.09096226,-0.050130293,-0.009876102,-0.013891378,0.07572286,0.0434788,0.052881617,0.06105194,-0.019908037,-0.071354866,0.031056527,-0.048113108,0.012447338,-0.08346075,0.17401607,0.19379671,0.018432416,0.10380821,0.012795505,0.10153116,0.039128643,0.07743167,-0.100149676,0.063270144,-0.13493715,0.041811664,0.028008541,-0.05285252,-0.016252985,0.042729586,-0.052491333,0.05230329,-0.13514805,0.030568369
LINC00460,-0.2536758,-0.05754857,-0.022377256,-0.09565978,0.08658063,0.072723635,-0.1332039,0.021687064,0.13740374,0.111156195,0.025746012,0.08227634,0.14316267,-0.19072354,0.121083185,-0.0037413272,-0.004484413,-0.13075435,-0.044132672,-0.08274312,0.0052259183,-0.0239307,-0.05845537,0.019449806,0.022258798,-0.13204734,0.08393456,0.21122497,0.012292057,0.07509988,0.06490011,0.079807885,-0.017588375,0.084930636,0.14421831,0.12537858,0.040314734,0.14734046,0.008881534,0.110824436,0.1125698,0.046556063,0.0433739,0.04534115,-0.05812551,-0.0046089767,-0.062200334,-0.2714119,0.006441449,-0.011305947,0.051943913,0.10326057,0.06735037,0.16180873,-0.34640762,-0.08070776,-0.17264472,0.004935072,-0.0674996,-0.04419378,-0.117775686,0.08194895,0.088809706,0.08835653,0.055861063,0.08090224,-0.05319189,-0.18739253,-0.008318093,-0.039285943,0.012209721,-0.102263495,-0.050131723,0.097727835,0.025174072,-0.15512848,0.07324088,0.08411943,-0.18231487,0.053946096,0.050395533,0.03244632,-0.1863135,0.053419143,0.34806564,-0.007856801,0.2529056,0.1394575,-0.11289517,0.08141508,-0.047469754,0.038250457,0.008775765,0.05315128,0.08496062,0.15559226,0.012666068,-0.13640104,-0.22253735,0.002680726,-0.06179755,-0.0068557337,-0.14061554,0.036117423,-0.10219319,-0.12361569,0.029639266,0.0207417,0.09822689,-0.056688856,-0.06387092,0.07049356,0.06288628,0.051192056,-0.17764716,-0.022713805,0.112656794,-0.037251234,0.023708202,-0.0049538417,0.015075287,-0.06865952,0.103724405,0.022465141,-0.13297299,-0.119071804,0.31850046,0.20162314
MALAT1,-0.011250962,0.017768046,0.045886192,-0.06533669,0.048536964,0.08789767,0.044327494,0.1273249,-0.002634398,-0.047683403,-0.013602268,0.11840321,-0.015172133,0.018611176,-0.18231842,0.16500418,-0.036822412,0.08218426,-0.051525682,-0.023236541,-0.15515721,-0.0065064845,-0.050708763,0.0012796315,0.027504938,0.03506424,0.091607854,0.060744394,0.002868779,-0.11008757,0.12989166,-0.024994131,-0.03773531,-0.03799483,0.010811362,-0.051156115,-0.023701632,-0.021135837,-0.04027476,0.02167227,0.019655192,-0.11118081,0.120167255,-0.020137206,-0.081785664,-0.06567221,0.025955921,0.0057438314,0.10536572,-0.06918528,-0.10017151,-0.049887724,0.056518544,-0.04296383,0.018170476,0.013152196,-0.038684703,0.12062119,0.0046433173,0.04075557,-0.013969586,0.014243517,0.007896334,-0.15836282,-0.105179004,0.0664044,0.015951693,-0.08465528,-0.022968937,-0.009298221,-0.076734215,0.06998864,0.04882222,0.00960308,-0.040698834,0.034647834,0.037434977,0.0052675717,0.046652652,-0.051363043,0.07825436,-0.0044642137,0.08166987,0.046425637,0.14312798,-0.10771281,0.029541072,-0.13115035,0.088344395,-0.0031356497,0.003951246,-0.013430533,0.0001698281,0.019622538,-0.09526464,-0.1618107,-0.005805119,-0.13105795,-0.019917332,0.1548893,0.043694705,0.08953753,-0.077496916,-0.038560912,0.012364948,0.043650087,0.13396588,-0.15096965,0.058202792,0.01643373,0.07086795,-0.033845723,0.10310501,-0.102590896,0.10049167,-0.002865475,-0.034992497,0.05309293,0.04124981,-0.043192502,-0.088159874,-0.010065032,-0.011735411,0.059166256,0.019049883,0.10694805,0.011142064,-0.04013544
MIAT,-0.20713905,-0.0051613627,0.069296665,-0.04464301,-0.02208774,-0.031525254,-0.07150146,0.12901774,0.08931995,-0.034475364,-0.09202375,0.016753469,-0.038153835,-0.023256404,-0.0400583,-0.10707929,0.083666794,-0.07563463,0.0106783,0.13617355,0.119303256,-0.020220375,-0.21516581,0.033444118,0.16966198,-0.14434971,0.029906292,0.027507076,0.048475314,-0.12709558,-0.009266163,0.18809138,-0.007991839,-0.03738895,0.06949531,0.018855788,0.10387137,-0.16789235,0.026516512,0.050531402,0.06262052,-0.08325415,0.1370268,-0.15597561,0.039956618,0.06705804,0.013101076,-0.025942525,0.021872984,-0.12678124,0.0681263,0.10676258,-0.052639686,-0.075067714,-0.007422461,0.21541885,0.023650976,0.017028578,-0.043687157,-0.12968013,0.090032324,0.11232922,0.0046234555,0.13036524,0.0038731967,-0.09204029,-0.11136408,0.15559007,0.02585016,0.034872673,-0.30210578,0.22967619,-0.11292106,-0.000825739,-0.16474555,-0.18122151,0.24495487,-0.13247752,-0.022522554,0.09363577,0.018589024,-0.05788741,0.019147428,-0.23949222,0.002306183,-0.04902757,0.10911904,0.0025729663,-0.09715905,0.06807609,0.037635934,-0.11643368,0.020037066,-0.09851984,0.053858154,0.011614382,-0.05036397,-0.10884452,-0.26676,-0.0055741835,0.2498299,-0.1656204,0.022805532,0.113857366,0.012466002,-0.15648627,-0.0318735,0.027585203,0.02493306,0.19264355,-0.09908867,0.083883196,-0.038356964,0.037463255,-0.023128178,0.004496822,0.03361004,-0.07548453,-0.026537945,0.11133708,0.05875513,0.01285,0.14647505,-0.030332364,-0.07419059,0.02591379,0.11441922,0.087170914
CDKN2B-AS1,0.05005888,-0.020029638,-0.056061167,-0.06063925,0.008322308,-0.032604422,-0.1465892,-0.015384228,-0.06324064,0.1360785,-0.2167998,0.015253768,-0.08358922,-0.061517395,0.025541225,0.14226662,0.0566954,-0.02378822,0.08567057,-0.026864253,-0.005871891,0.0152741745,-0.121762455,0.0306538,0.08006631,-0.04597818,-0.060193177,0.075354844,0.013888794,0.026831988,0.025524264,-0.14717679,-0.07414371,0.0988221,-0.07651924,-0.029338084,-0.057254937,0.007654694,-0.028150486,0.0025204734,-0.06995318,-0.057712752,-0.10927864,0.04188123,0.03466095,0.073468454,0.017871413,0.10302795,0.18087192,-0.013728256,-0.11623883,-0.020656629,-0.12777919,-0.026325913,0.016540162,0.0088831,0.044468552,0.015779154,-0.052044634,-0.10397149,0.06659654,0.008438688,-0.11418479,-0.11147608,-0.012229182,0.20290083,0.0865296,0.013697817,-0.11185492,0.26043844,-0.0010540935,-0.0452266,0.10814457,0.029690014,-0.0020489981,-0.04747548,0.14694132,0.032738894,0.0073523773,-0.034303047,0.01680215,0.041288894,0.034639392,0.029117426,0.059041128,-0.06907647,-0.09915043,0.10837327,-0.13677393,-0.091675416,0.075305946,-0.039138276,0.031391446,0.06445799,-0.08935941,-0.0532309,0.020331217,-0.0097197015,-0.07591951,0.107481815,0.06657037,-0.046519008,-0.1886759,0.032074295,-0.15832311,-0.058936685,0.0036992074,-0.061110497,0.04764702,-0.015122278,0.0708218,-0.05069685,-0.03296394,-0.106736414,-0.06941337,0.017693639,0.03132481,-0.06724306,0.033714227,-0.0230739,-0.10049974,0.067246854,0.059156597,-0.080324136,0.035089992,0.055459645,-0.0043579205,0.088936746
GAS5,-0.14149214,-0.11467908,-0.024924072,-0.02197486,0.013863746,-0.035598885,-0.043658853,-0.05607214,0.0036149886,-0.112037614,-0.004834592,-0.06484575,0.03776437,0.06543356,0.26198837,-0.027385829,-0.09381447,0.027940635,-0.039564215,-0.054857045,0.021541564,-0.38744852,-0.049508125,0.11593787,0.042382933,-0.038373765,0.038963195,0.025729036,-0.014923375,0.06488542,0.034224648,-0.07059692,0.090978414,0.013426253,0.022261942,0.04083429,-0.09244468,0.081677474,0.00782861,-0.06458925,0.03547141,0.051587127,0.045783047,-0.016919598,-0.04252532,-0.1664196,-0.05356642,0.11382705,0.082724065,-0.05794539,0.10509247,0.0005619705,-0.17384301,-0.019280247,0.029386329,-0.04068807,0.20050925,-0.023978679,-0.072360374,-0.05367788,-0.0006856347,0.018676475,-0.081442334,0.06278145,0.02421427,-0.071663596,0.025981694,0.14825472,-0.023716448,-0.0092590265,-0.027196178,-0.0470401,-0.045134626,-0.009277624,-0.08776437,-0.07836419,0.20336682,-0.047556568,-0.05304442,0.030648377,-0.19770926,0.016614929,0.026637787,0.09814502,0.15330164,-0.006502539,-0.07777244,0.013274902,0.0021776396,-0.0154786045,-0.06450879,-0.045735523,0.10612304,0.14267112,-0.061464965,0.17528687,-0.07007864,-0.088333316,0.0028446738,0.12377756,-0.040363513,-0.073838755,-0.018754914,-0.0456365,-0.043265108,-0.06641054,0.0872177,0.026300306,0.08994748,0.052546054,-0.03455715,0.059307754,0.08482317,0.023303084,-0.004328549,0.0644128,0.06993463,-0.20393428,0.16953348,-0.14741385,-0.053475626,0.00037599885,-0.12783512,0.10066659,-0.0073905373,0.097428694,0.05397381,0.08319448
CASC2,0.00020780726,0.037894208,0.054825097,0.11057559,0.0066693528,0.048142076,-0.056219365,0.02377493,0.031399608,0.063947335,0.0356027,-0.020181363,-0.0862314,0.011750332,0.0691314,0.09336635,-0.08488824,-0.08442561,0.021339357,-0.032963138,0.014302868,0.2002457,0.112988025,0.1806506,0.09647916,0.22543974,-0.103373304,-0.044387706,0.09823764,-0.119949654,0.026205966,0.10362925,-0.008437141,-0.1883811,-0.054955356,0.0643063,0.11905462,0.05155092,-0.15261233,0.014168346,0.14465891,0.025946397,0.008703018,0.015310317,0.041733183,-0.11655964,-0.038099416,0.09201169,-0.026433703,-0.026132714,-0.2163765,0.004437066,0.053782653,-0.0860603,0.027128978,-0.09940281,-0.17584772,0.122009195,-0.042126533,-0.15190633,-0.083637685,-0.042388447,-0.22943696,-0.036219478,-0.08680371,-0.08055257,0.07875198,-0.0032447977,-0.16406526,-0.060763873,-0.04945403,-0.15734895,-0.09965408,0.06616585,0.02842968,-0.09802903,-0.012672369,-0.07723603,-0.02063494,0.037262417,0.04358827,-0.04216774,-0.021467682,0.04936545,0.07578283,0.0012230992,-0.001692497,-0.036846217,0.059056964,0.15406759,0.07179395,0.024043422,0.0035489337,-0.014845009,0.25432348,-0.06572337,0.04099472,-0.020743614,-0.08574689,0.12469691,-0.033043206,0.04523156,-0.08741654,-0.070337206,-0.043366414,0.095887505,-0.043210063,0.05428802,-0.057404034,0.0499719,-0.0340985,0.088874675,0.024959575,0.013140414,0.08228439,0.052079767,0.012719495,-0.21516114,-0.11256298,0.03429349,0.02388854,-0.013713488,-0.047476258,-0.0017020256,0.10045763,-0.07472119,-0.027119849,-0.07517796
PCED1B-AS1,0.059698533,-0.14031257,-0.08440623,-0.0321378,-0.021506416,-0.028107354,0.074873336,0.012118391,0.12306522,0.015538145,-0.018389845,-0.09692319,0.120838806,0.14049897,-0.0714992,-0.022962509,-0.1545267,0.028735805,0.1025987,0.08743097,-0.017265346,-0.051613882,0.02679424,0.011401488,0.13028906,-0.037287228,-0.081725664,-0.04787198,0.099473625,-0.06410002,-0.30642366,0.15475844,0.17529769,0.0927504,0.021447994,-0.08,0.0067485766,-0.027483847,0.07098321,0.20584767,-0.019333417,0.005940713,-0.05571458,-0.009455027,-0.22470981,0.020917004,0.109142736,-0.04336525,0.037154842,0.008323772,-0.02869163,-0.15289666,0.072968826,-0.051898632,-0.04894092,-0.032623716,0.06317523,0.06503898,0.06653331,0.071277134,-0.04776983,-0.11620582,-0.12484102,-0.09176644,0.17664161,0.113142006,0.24025007,0.08948238,-0.07173633,-0.06520643,-0.047664735,0.06153015,0.18677361,-0.030712867,-0.162251,0.1372261,0.1001901,0.10835548,0.023690632,-0.10856125,0.099184625,-0.13672128,-0.022504952,-0.037330937,-0.08466242,-0.03375865,-0.16896586,0.19722585,-0.04462251,0.13506906,0.15116118,0.07101623,0.09187182,-0.060273618,-0.06525244,0.15772296,-0.106227696,0.13037732,0.12701418,-0.029133588,-0.060453586,-0.17804469,-0.013314565,-0.024623366,-0.030965222,0.013471803,-0.09472744,-0.09995923,0.113028005,-0.12739657,0.081678085,-0.055385713,-0.09789031,-0.07316199,0.19423033,0.20433074,0.0062678335,-0.045499157,-0.078807406,0.12239296,0.16572028,-0.08649611,0.11274815,-0.011150908,-0.24804623,-0.0012602699,-0.1149893,-0.09558021
LINC00662,-0.13322382,-0.042660438,-0.0811398,-0.08871073,-0.0443593,-0.009463877,0.14821745,-0.25112826,-0.06298537,0.008642585,0.1228858,0.05285539,0.06037438,-0.06959235,-0.008012494,0.019690858,-0.124382235,0.03676565,0.04658881,-0.08331615,0.11846129,-0.10367254,-0.082607724,-0.14795291,0.016878866,-0.08682636,0.08587425,0.013735688,0.08025841,-0.007680001,-0.036872514,0.09842051,0.05291427,-0.10817156,0.121345855,0.1110772,-0.05345599,-0.03511512,0.01270042,-0.008923454,0.045564976,-0.06897967,-0.09352511,-0.04155089,-0.09359926,-0.082447395,0.08205261,-0.044710018,-0.23649155,0.20508693,0.16679962,-0.00758632,0.11631222,-0.006576939,-0.053277615,0.02659412,-0.05068979,-0.11718367,-0.055668898,0.05860111,-0.036544103,-0.10312431,-0.04137204,-0.08905881,-0.042245887,0.37072062,0.10437563,-0.060021266,0.076593384,-0.21431169,-0.09858316,-0.055886168,-0.05021788,-0.10352848,0.11687259,0.1448795,-0.14563024,0.0103715835,-0.008818921,-0.009349795,0.23565105,-0.057128623,-0.23312971,-0.14946124,-0.13134934,-0.058512278,-0.28869686,0.061712515,0.04145318,-0.02092985,-0.029823689,-0.0824423,-0.17712083,0.005193966,-0.3138226,0.057800252,-0.02201605,0.053910125,0.03369353,-0.04790775,0.032129295,0.03565487,-0.043859687,-0.011762113,-0.05994129,0.019766416,-0.024718767,0.1907816,0.03604894,0.005166301,-0.0017026231,-0.20188867,0.008123045,0.008013931,0.10504095,-0.021627195,-0.100477,-0.007047495,0.007911289,0.058884304,0.016010433,0.15646711,-0.025255134,0.198687,0.09122435,0.09656656,0.011430364,-0.09683932
SNHG6,-0.017186897,0.063284904,-0.00037145242,-0.09827234,-0.07521985,0.14824194,-0.07326886,-0.099945925,-0.018807692,-0.14509928,0.038949613,0.08455673,-0.07632709,0.030769512,0.018112542,0.22663291,0.06699905,-0.0113944635,-0.05826719,0.123349056,0.154415,-0.048161354,0.09693946,0.20570298,-0.025555566,-0.03588082,0.084459454,-0.095947064,-0.080607064,0.019672377,0.06247704,0.023012517,0.0020205085,-0.05837976,-0.08251814,-0.046535794,0.09326319,-0.10498551,-0.010357205,0.0990426,-0.1407284,0.00357537,0.024414906,0.07113821,0.09534964,0.057320327,-0.047797397,0.099174485,0.05683999,0.15340841,-0.10339218,0.032481853,-0.10955797,-0.17887501,-0.04321661,-0.022877723,-0.036167245,-0.11627942,-0.20705082,0.06274762,0.18536353,0.037487723,-0.12650035,0.072082095,-0.017130487,-0.05749799,0.039615788,-0.032330807,0.039305814,-0.007719635,-0.1323152,0.09222891,0.22167648,-0.06113005,-0.23934798,0.038751554,0.057183895,0.11385666,-0.050184812,-0.20718539,0.036190603,-0.09376983,0.030445287,0.13649324,0.057593312,-0.055378336,0.00710921,-0.08346515,0.14041191,-0.053251293,-0.054535177,-0.08009053,0.097473785,0.039270528,-0.09432988,-0.08959734,-0.10931513,0.15146813,-0.08216029,-0.010834821,0.1084981,-0.2146354,0.0038913097,-0.16941142,-0.088644885,-0.106673986,0.13878079,-0.0033314815,-0.09128695,-0.107211456,-0.053755637,-0.1704071,-0.045318507,-0.058204822,0.15908551,-0.032002002,0.17197977,-0.06532321,-0.115329556,-0.040045306,-0.030042043,0.09194605,0.10934909,-0.04766247,0.018154267,-0.007565034,0.0477332,-0.0020151467
OIP5-AS1,-0.05685136,0.13959089,-0.092922516,-0.031048624,-0.0025036717,0.17276321,-0.08690941,-0.13735579,0.09763458,0.031756595,-0.027715333,0.10386145,0.06751253,0.025620297,0.10847867,0.056035716,0.03389653,-0.03520785,0.025647828,0.08972183,0.06795332,-0.023095492,0.055241622,-0.16857165,0.039987925,0.10848003,0.14701842,0.07887094,-0.15753774,0.0032643806,0.07304927,-0.07120243,-0.1024983,0.07446736,-0.004755729,-0.031618387,0.10550305,0.12393987,0.15483144,-0.0124588385,0.026699381,-0.0073410217,0.023637159,-0.11261129,0.097800896,-0.14250843,0.027070355,0.018647041,0.06855077,0.0147860255,-0.05026199,0.043239474,0.023574425,0.011979587,-0.06882702,0.14657286,0.0011918747,-0.008812888,-0.059604883,-0.0030292643,0.026960323,0.021681221,0.014486922,0.03741608,-0.09687704,0.15835272,0.108097725,0.4427328,0.092297815,-0.008781745,-0.058454122,0.05680791,-0.02410025,-0.13523552,-0.025133066,0.005333802,-0.12483146,0.019168809,-0.0823952,-0.085497975,-0.025481729,-0.032354858,-0.10097855,-0.01454977,0.106957115,-0.07646011,-0.019798947,0.1702503,0.018257745,0.039785154,-0.03025059,-0.02873399,-0.089110956,-0.053894617,-0.06486596,-0.0317894,-0.0399831,-0.061890185,-0.13423996,-0.04537842,-0.063298896,-0.0013016169,0.016188068,-0.028656816,-0.16825953,0.11976122,-0.042897098,-0.052098498,0.041892495,0.018733378,-0.0036638158,0.12828039,0.20238672,0.06071782,-0.03810482,-0.11421693,0.07450753,0.018794438,-0.17848065,0.020404393,0.08958344,0.044668574,-0.021634452,0.07358992,-0.11165079,-0.0061145844,0.15377356,0.12736556
XIST,-0.0913667,0.10845029,0.036406234,0.039627247,0.04173627,0.008724021,0.107976034,-0.10019778,0.041808724,-0.11240667,0.04313693,0.052707292,-0.0032263473,0.018655322,0.050603583,-0.14485909,-0.041482404,-0.12467582,-0.07399414,0.021423629,-0.03413241,0.015381324,-0.037584584,0.14310466,-0.001965231,-0.10901713,-0.031533845,0.1910404,-0.05566004,0.16766816,-0.18085043,-0.16952944,0.010122953,0.014069354,-0.057433106,0.0010363172,-0.007813142,-0.029756641,-0.027208956,0.0034352068,-0.06448789,0.07544432,-0.2673618,0.16401164,0.069253325,0.19342998,-0.007899895,0.05415591,-0.030927828,-0.027385425,-0.012696971,0.029325064,-0.25796074,-0.111928046,-0.1513731,0.063571304,0.072288275,0.079172574,0.044004068,-0.12496188,0.13482206,0.08169835,-0.084115475,-0.087314196,-0.20507342,-0.060711626,0.096027896,-0.1393455,-0.07397442,-0.046339177,0.07988729,-0.09140604,0.11769083,-0.024349838,0.13810454,-0.06689606,0.13385579,-0.02235503,-0.11126225,-0.033336923,-0.10266238,0.048651088,0.05287044,-0.051098887,-0.06782855,-0.030244192,-0.008386834,-0.017726282,0.040319048,0.006968628,-0.006184839,-0.034477383,0.053754833,-0.039228916,-0.017397743,-0.13450201,0.13269104,0.1069002,-0.052836694,0.06737147,0.012195693,0.08991092,-0.047586903,0.08034296,-0.006009297,0.013515689,-0.13689563,-0.22977789,-0.056568563,-0.1488394,-0.0002640098,0.0032947552,0.019880887,0.41039738,0.121905215,0.006828566,0.10471776,-0.11283064,-0.08649769,0.032593552,-0.04380231,0.019461427,0.1616342,-0.063252725,0.2220024,-0.03783958,0.11216803,-0.023005635
SNHG14,-0.0882548,-0.00074708194,0.103756,-0.17693374,-0.06477703,0.06363733,0.10591859,0.07926686,0.043552466,0.034025628,-0.04965861,0.1392924,0.009834986,-0.18439154,0.07944265,-0.0023253658,-0.12528172,-0.117769755,-0.03127192,0.18503065,0.014560823,-0.09002717,-0.13191341,-0.12678812,0.01067668,-0.016798388,-0.037178308,0.14447483,-0.07171839,-0.0662357,-0.015264572,-0.043718215,-0.03510031,0.097921774,-0.18382484,0.015117935,-0.017988177,-0.14840679,0.1670616,-0.054385494,-0.03407401,0.0010600219,0.19631897,-0.017891996,-0.074748285,0.07302494,-0.0811927,-0.02485358,0.08195791,0.0042754705,-0.067273475,-0.077522606,0.02192854,-0.012513701,-0.3076363,0.15527582,0.16418512,0.2476094,0.102934524,0.02723888,-0.030953674,0.17988922,-0.007872709,0.070871525,-0.0023285176,-0.11306301,0.07427423,0.055323433,0.055366855,0.061740197,0.17854276,0.12701906,0.02592762,-0.15982209,0.03146608,-0.012726267,0.053988226,0.15179142,-0.14715835,0.014072848,0.019177184,-0.1158517,-0.084606424,-0.13592431,-0.17241181,-0.030021187,-0.06496052,0.03526938,-0.045357592,-0.27000448,0.08133926,0.06291431,-0.0062835966,0.09618029,0.07526639,-0.41087213,-0.08669312,-0.04676696,0.032778367,-0.023831056,0.06761677,-0.007817164,0.25325033,0.13695428,-0.04056,-0.11157591,-0.2349823,0.0697072,0.086377285,0.034907185,-0.14558956,-0.046694003,0.07235198,0.04117833,-0.108134545,-0.1225277,-0.004128758,0.088649385,0.16233824,0.091108754,0.09062381,0.04572408,-0.045164652,-0.023287347,0.08152676,0.12746403,-0.11975092,-0.03364931
SNHG17,0.047731508,0.02024708,-0.025322529,-0.118716665,0.025203576,0.018955087,-0.20102112,-0.2416128,-0.02037803,0.043188352,-0.14598341,0.103986345,-0.07394515,0.043866947,-0.20803177,-0.04855682,0.0172302,-0.07763901,-0.010504069,0.012277942,-0.029468289,0.04368929,0.036863852,0.05074747,-0.0987971,0.09730654,-0.05050545,-0.09969363,0.24201943,-0.25342923,-0.11199763,0.004241438,0.1315652,0.0011163824,0.12745456,-0.062400013,-0.2165933,-0.0035677685,-0.12750456,0.29579666,0.08317581,0.13146506,0.044633225,-0.17985426,0.07630964,0.05244636,-0.01730192,-0.0727928,0.005953688,0.013521941,-0.13879398,0.17263532,-0.09045383,0.028771922,-0.076613694,0.13178101,0.09289219,0.044823505,0.0061670225,-0.09238408,0.03171525,0.04095326,-0.008485755,-0.23543468,-0.21807882,-0.14693241,0.110044196,-0.035864558,0.026464837,-0.02552233,0.0063115302,-0.113282084,0.08085783,0.034663178,-0.035201684,-0.05117104,0.24430496,0.033829615,-0.08048159,0.09615447,0.11558528,0.014002927,-0.10430159,-0.07020622,-0.24601936,0.2487824,0.111012876,-0.03219457,-0.18103021,-0.08803799,0.059336998,-0.006730014,0.013767403,0.10629837,-0.094607174,0.17752239,0.022768067,0.17911993,-0.104771115,0.09494246,0.060986605,0.019203924,-0.07248584,-0.06958118,-0.04509472,-0.07305966,0.19623917,0.060475733,-0.017109284,-0.00041192793,0.16065787,0.09450778,-0.07179319,-0.02528579,0.0688219,0.04663181,0.21112226,-0.047189802,0.16308396,-0.03995558,0.008799505,0.06304825,-0.2578402,-0.12949893,-0.1183792,-0.056557402,-0.10189487,0.16738562
HULC,-0.027228558,0.05601567,0.121684015,0.0014021075,0.09874748,0.06387874,0.0015925136,-0.10431664,-0.061533187,-0.06662242,0.02084357,-0.10076266,-0.051079985,0.0031580538,0.07228552,0.10053028,-0.13830811,0.117284015,-0.06253917,-0.056665704,0.038584944,-0.1354561,0.065198995,-0.091163486,0.0965404,-0.035365433,-0.052622158,-0.0019184535,0.09529454,0.10627286,-0.020661162,0.042603917,-0.04992293,-0.19128923,0.07554042,-0.004250623,-0.07912019,0.038457062,-0.108629696,0.11375092,-0.0032455362,0.110198475,-0.072781526,0.009765016,0.020072253,0.03547944,-0.0071467925,-2.7654693e-05,0.0808469,0.11372404,0.07577338,-0.117666304,-0.06907334,-0.10456115,-0.061829243,-0.13320202,-0.00055059895,0.04510579,-0.076802045,0.009115142,-0.021596594,0.15922676,-0.029918304,-0.008818637,-0.16286695,0.0026890358,0.11023962,0.033630095,-0.08961794,-0.041257083,-0.046184026,0.21609738,-0.056691766,-0.004910832,-0.13594635,0.0116747795,0.038276438,-0.033792485,0.025198229,-0.05810182,-0.026914699,0.05693157,0.08161576,0.15894075,0.122855656,-0.11149019,0.045789573,0.010036114,-0.02824536,-0.12950653,-0.023767728,-0.066374846,0.08256608,-0.0053996686,0.061010327,0.09569598,0.103962325,-0.14955153,-0.03920846,-0.014567084,-0.003022314,0.009086087,-0.07390853,0.012296127,-0.067155264,-0.12271403,-0.17150159,-0.008532536,0.0297625,-0.032107748,0.11652116,-0.087148614,-0.005001372,-0.088031195,-0.01565894,0.10858724,-0.12391574,0.09950349,-0.014351591,-0.09434613,-0.022714833,0.022133116,-0.07791985,0.016847815,-0.025516467,-0.13384299,-0.033205617,-0.13768716
DSCAM-AS1,-0.1011155,-0.011348852,-0.19142511,0.028808277,-0.0066799517,0.028954804,0.06955869,0.037307877,-0.076970376,-0.07566006,-0.16745846,0.08661522,-0.20362805,-0.30774617,-0.20187718,0.095746785,0.06592696,-0.025775356,0.037435684,-0.077820845,-0.0835387,-0.009843076,0.011971957,-0.013024727,-0.21141723,0.09485559,0.07958934,0.11161664,0.002409495,-0.114921644,0.027091319,-0.29902035,-0.15147868,-0.19659856,0.0030869492,0.021710632,0.024240518,0.018962007,-0.07034638,0.029848179,-0.07383174,-0.0139315585,-0.04376466,-0.078627065,-0.064479895,0.064890355,-0.08618658,0.08060086,-0.3155121,0.11232935,0.07018824,-0.018230727,-0.17454651,0.004762466,0.14172809,-0.017570155,-0.3201495,-0.020054907,-0.062341243,-0.17982207,0.00013658889,-0.16252743,-0.16209595,0.10139953,0.08981566,-0.013354147,0.062836856,-0.17530985,-0.1256159,0.03853604,-0.12707509,0.23426643,0.0002724192,-0.12846357,0.12530866,-0.028698606,-0.01633986,-0.07813312,-0.08876377,-0.2575438,0.09186134,-0.077349,0.012042695,-0.016460145,-0.053676713,0.04354524,-0.10872183,-0.15264727,-0.024228474,-0.037995733,-0.025571357,-0.04380512,-0.023623459,0.0366712,-0.03128051,0.101564094,-0.16291079,0.019738577,-0.06685567,-0.031687617,-0.32149348,0.03129401,0.036391634,0.1517613,0.1252894,-0.080104254,0.08683771,-0.06695245,-0.074353665,0.11447569,0.04704965,-0.21600074,0.07850164,0.24104981,-0.07746076,-0.010734532,-0.1049484,0.027584897,-0.05842347,-0.11312592,0.027569212,-0.2268771,-0.018219205,0.058197908,0.02502668,0.055528786,0.0037896591,-0.16983862
TTN-AS1,-0.09103473,0.15056823,0.05783206,-0.19268571,0.27939227,0.2217263,-0.09417856,-0.12861305,-0.16263983,0.15456581,0.10684952,-0.008424324,0.17069013,-0.11986044,0.10832199,-0.21426344,-0.016369628,-0.023760099,-0.023825647,0.046457585,-0.14416786,-0.09947507,-0.002240819,0.07830083,-0.04833682,0.19876017,0.06653724,0.12930389,0.21717052,-0.14418368,0.2191343,-0.33842522,-0.20486933,-0.06517856,-0.078582644,-0.007033847,0.029829735,0.09448051,0.12544149,0.036005314,0.012507804,-0.030270824,0.07218391,0.05558438,-0.001153628,-0.07432786,0.05859878,0.07308363,-0.100733556,-0.11708081,0.057468016,0.067958936,0.019784674,-0.012682464,-0.0030599362,-0.09899263,0.0309532,0.09660621,0.03183283,0.11611524,-0.034679607,-0.09054146,-0.017361289,-0.021599105,-0.05129494,-0.030463489,0.14300728,-0.019099098,-0.03797144,-0.060317677,-0.022109626,0.10130654,0.017135013,-0.04279613,0.0014581215,-0.11821103,0.09899339,0.050214384,0.0099514,-0.02642632,0.10093986,0.47178477,-0.08329928,0.08370165,-0.039482582,0.1308175,-0.08931464,0.1375326,-0.13902326,0.11121852,-0.13159026,0.07271824,0.18061507,0.015387927,-0.11677472,0.040305704,-0.104759425,0.027294094,0.0011076336,-0.1534362,-0.22503515,-0.1482052,0.08910167,0.0019387985,0.028109264,-0.026205797,0.05722667,0.16511363,-0.07269193,-0.025125356,-0.006022749,-0.099747196,-0.098979466,0.10567384,0.03454154,0.090877,-0.121795334,0.112391755,0.081930794,-0.06116832,-0.11367023,-0.13709012,0.0057573924,-0.047298264,-0.14315727,-0.17156407,-0.06312192,-0.05324089
SNHG16,-0.08279823,-0.01496005,-0.07320792,-0.085928865,0.026084289,-0.074232,0.0025624356,0.25582927,0.035694998,-0.056382354,-0.039689664,-0.1082067,0.0155837415,-0.020503644,-0.015622377,0.024393603,0.25049382,0.12686105,-0.0354279,-0.1347291,-0.028737457,0.061831295,0.010346231,-0.115660496,-0.015390959,0.10064375,0.12467491,-0.040873725,-0.019320045,0.04338809,0.140513,-0.12468371,-0.10237062,0.05727585,0.029792182,0.03093519,0.036453497,-0.026922334,0.046448413,-0.09243293,0.05642587,-0.008590078,0.07486881,0.102437444,-0.01828039,-0.027167328,0.01721661,-0.075617805,-0.14780846,-0.06667826,0.13592856,0.123174176,-0.084682815,0.15595843,-0.07968717,0.019264994,-0.050933294,0.124734566,0.01875642,-0.035189193,-0.22475994,0.023893239,-0.20114276,-0.099770725,-0.006905732,0.016144264,0.026589803,0.0013035275,0.14789896,0.0055667497,0.018854942,0.107210614,-0.008031143,-0.035339244,-0.062421683,-0.23460671,0.14628151,-0.13337727,0.07344866,0.05344136,-0.12957177,0.06857574,0.030476619,0.016617162,0.048727125,-0.055616964,-0.027486786,-0.0032907766,0.0051904535,0.031138964,-0.02545853,-0.06542805,0.022252288,-0.1272353,0.0871146,-0.16655408,-0.1052442,-0.21689023,0.049187943,-0.14451325,-0.07490377,0.009175571,0.015265582,-0.025105618,-0.17778559,0.03827284,0.06989977,-0.16341542,0.13825488,0.003302125,0.10490388,-0.034547932,0.009190107,0.087881975,-0.10940131,0.038546722,-0.054646533,0.054030094,0.16287108,-0.03503942,-0.018625205,-0.02010449,0.015215496,0.14078538,-0.056812424,0.1334139,0.011268253,0.044702053
HOTAIR,-0.20215395,0.024698978,-0.04053364,-0.05406786,-0.10497342,-0.059722964,0.023382105,0.05969523,0.05321146,0.07483924,-0.0775966,-0.012450968,-0.03720962,0.028786177,0.011370923,0.034720555,-0.03659384,0.065485194,0.11451515,-0.03270295,-0.01513055,0.022385603,-0.076852374,0.16736093,0.12835434,-0.06796831,-0.0024921414,-0.050371338,-0.04082156,0.11649516,0.028758815,-0.2517125,-0.19188899,0.005517207,0.09108899,-0.04415051,-0.092146,-0.1293945,-0.088970646,-0.076592185,-0.031129608,-0.055528615,0.082819186,-0.045995075,-0.099634625,-0.04549327,-0.0038506796,-0.07672302,0.09706429,0.04812237,0.043164555,-0.1154175,-0.14189002,-0.04798222,-0.005641594,0.09362295,-0.11327078,-0.014180916,-0.054934207,-0.013412196,0.05862559,-0.03776681,-0.011584256,-0.03397267,-0.10919199,0.023794407,0.039044365,-0.047862284,0.09908102,-0.030210938,0.045129754,-0.054852992,0.017003007,0.085212335,-0.06232746,0.0071992124,0.119288206,0.074501425,-0.1119984,0.08075254,-0.00046532636,-0.0496683,-0.007022301,0.027119344,-0.04719396,0.026654227,0.014006865,-0.078964114,0.036216892,-0.027461154,-0.017612785,0.02991031,-0.12041266,0.011917046,-0.054516945,-0.054492544,0.016898062,-0.03900554,-0.04520293,-0.043040562,-0.101066925,-0.030487828,0.044624466,0.024963835,-0.013932623,-0.08016762,0.052787762,0.020686332,-0.039234858,0.00448134,0.16121028,-0.062153604,0.0036049983,0.042375587,0.0408228,-0.06763374,0.032561716,0.026079392,-0.086324215,-0.23433454,0.007890237,0.07525262,-0.07808553,0.10801186,0.011478144,0.052087914,0.045127124,-0.16394211
FOXD3-AS1,-0.037603825,-0.15523057,-0.086464174,0.079036444,-0.05218211,0.04742985,-0.08771019,-0.004386264,0.04769736,-0.027130092,-0.1388094,0.05532475,-0.054764006,0.02484681,-0.046346392,-0.023740463,0.07565943,-0.15963414,-0.09060427,-0.051289015,0.20976071,-0.044445246,-0.12475075,0.111697264,0.06874994,-0.05243244,0.06369112,0.03488263,0.058343742,0.041133855,-0.016799372,0.033375014,-0.2640099,0.1546058,-0.0276077,-0.0057573724,0.05390777,0.08271141,-0.16548409,0.10697212,-0.047522817,-0.07054714,0.07185164,0.028909033,-0.13579738,-0.012851114,-0.08353698,0.08950565,0.14511347,-0.08239736,-0.20679879,-0.19285944,-0.20183985,-0.18576351,-0.10892102,-0.083942614,0.11618547,0.052145027,-0.19590127,-0.1958513,-0.016781233,0.09586126,-0.108460225,0.012981064,-0.042639136,-0.009777993,0.07813716,-0.034928218,-0.06741485,-0.045655012,0.021136703,0.045494378,0.114217244,0.11761266,0.014790845,-0.029572982,0.06551107,-0.081237845,0.106352955,-0.0615037,0.019820902,0.016432373,-0.08676522,0.020230923,0.016965374,-0.10338588,0.0036236378,0.11049033,-0.07405662,-0.076589875,0.06264614,0.05876074,0.02243442,0.059062302,0.07515629,-0.049797077,0.03732624,-0.09019851,-0.1352521,-0.008153686,0.12806404,-0.14149426,-0.036242418,-0.11333252,-0.02641802,0.10942773,-0.04907633,-0.14636695,-0.014484351,0.156273,0.0358205,0.0069016023,0.08057002,0.00022615539,0.11694503,0.0815653,0.014161765,0.0605004,0.12223199,0.0947258,-0.14606169,0.009142962,-0.05440878,0.10283399,0.12322374,0.048504584,-0.048539888,-0.018433178
H19,-0.057037484,0.06866594,0.048762932,-0.06815287,-0.08395519,0.0222066,0.0041976403,0.10249096,0.009499683,0.014860175,0.07193873,-0.029031482,0.067475885,0.062874235,-0.04385431,-0.13569932,0.064242564,-0.017540514,-0.041241,0.1127971,-0.062470272,0.0036312547,-0.023181548,0.016107611,0.12457096,-0.014858765,0.018860426,0.11417888,0.07997405,0.15175809,0.04780267,0.021399803,0.05881018,-0.04322234,-0.007989308,-0.13995017,0.12580481,0.057209868,0.025847182,0.018100461,-0.005056572,-0.15431467,-0.04480847,0.07018595,-0.13656841,0.013962952,-0.058703583,0.01218198,0.1629092,-0.05241054,0.075349614,0.036949035,-0.07933546,-0.03772563,0.0683732,-0.003311247,-0.05568396,0.1417714,0.0073562693,0.021470264,-0.10626635,-0.048897766,0.02551045,0.03166138,-0.1105609,-0.04299984,-0.09804508,-0.041853357,-0.07658128,0.047859542,-0.066432685,-0.022603469,-0.103958584,0.014694404,-0.13410385,0.067320645,0.044667546,-0.019943217,-0.071414635,0.029433787,0.026619557,-0.055255007,-0.0419519,0.103267595,0.007500011,-0.032309294,-0.09587639,-0.014164134,-0.026739575,0.02896419,0.02230175,-0.061105814,0.02981094,-0.047122538,-0.021300433,-0.014893207,-0.05706471,-0.055190034,0.004919436,-0.016671684,-0.050899614,-0.008395325,-0.038189124,0.057254035,-0.08363332,-0.054192174,-0.0013495635,0.014128559,0.09539366,0.074727125,0.013789547,-0.035765737,-0.028959574,0.02521313,0.06291389,0.10711593,0.052066427,-0.00692111,-0.086160615,-0.03236849,-0.005207148,0.0098944735,0.027472766,-0.012079895,-0.011153821,0.07939257,0.11027133,-0.098894864
MEG3,0.11388583,0.011002786,-0.06410447,0.05758632,-0.2474302,-0.06738336,0.0586964,-0.122509725,0.029544495,-0.056533784,0.027214319,0.096756816,-0.1088925,0.023470838,-0.08308019,0.04307881,-0.035350055,-0.16707939,-0.039575122,0.06015499,-0.037171103,0.11477463,0.07037016,0.22545487,0.14376159,0.12259556,-0.012749877,-0.12421392,-0.0363104,-0.079928465,0.18651882,-0.07632931,-0.08046465,0.023428606,0.074270226,-0.06873106,-0.15159455,-0.06132178,0.22669166,0.07223879,-0.17257503,-0.15630955,-0.02521464,0.101577625,-0.0049979445,0.014231572,0.08939628,-0.04077149,-0.07517139,0.0077876127,-0.09843367,-0.11605779,-0.07421901,-0.05383751,0.11537898,-0.17843615,0.12112628,0.02182544,0.08210083,0.0017475456,0.041217986,-0.017113114,0.009557127,0.02768942,0.13535607,0.04619441,0.09364323,-0.030299485,-0.07782863,-0.0061959606,-0.020132886,-0.09134473,0.03530594,0.017627817,0.023888959,-0.2229344,-0.064653516,-0.0026587415,0.026022749,-0.12198147,0.019359173,0.009169545,0.020975595,0.10340257,0.021117708,-0.013117179,-0.053172067,0.10057701,-0.00871529,-0.2146641,-0.16802861,-0.0096232705,0.0044976305,0.00022980932,-0.07183696,0.022019016,-0.00032481528,-0.04327966,0.09189513,0.08518699,-0.08492215,0.019612681,0.0880765,-0.060474694,0.044441633,0.0350726,0.12357834,-0.020510955,0.0003086027,0.02311788,0.026769275,-0.018318787,-0.01934541,-0.11327683,0.0078113177,0.028249454,-0.052937906,0.15508892,-0.013352838,-0.020015502,0.019983565,0.016018845,-0.08466181,-0.0030679777,0.093158424,-0.008256132,-0.22305366,-0.115379386
PVT1,-0.042310726,0.0257084,0.060705107,0.0111137135,0.009763545,0.06864977,0.116990656,0.05872155,0.03169565,-0.075968616,-0.18428376,-0.044161048,-0.06705936,0.029935095,0.0006746324,-0.012894446,0.11801461,-0.06742123,-0.04630871,-0.0093779955,0.02476186,0.010122549,0.0055812052,-0.054421112,0.016691143,-0.09935178,0.06476864,-0.08120542,0.13344204,0.001280443,-0.15672709,-0.1965245,0.011323091,-0.036106773,0.12569313,-0.08039309,-0.058992166,0.15672474,-0.0030097635,0.04288584,0.091169,0.021520566,0.014549451,0.048613675,-0.06096901,-0.019212244,0.050389957,-0.032119803,0.0021452934,0.0054733814,0.03284955,0.004098299,-0.055248145,-0.042265683,-0.011537945,0.042293206,-0.060669694,0.03943939,-0.09275534,0.033664502,-0.07095208,-0.010054268,0.055698097,0.07910912,-0.052017536,0.18820658,-0.15834609,0.044444155,-0.019189537,0.042140372,-0.0362281,0.13398576,0.042274956,-0.11396404,-0.097209364,0.00064510154,0.09614642,0.052025408,-0.07122539,0.12142306,-0.013532303,0.02732738,-0.012326895,0.14645599,0.049884472,-0.061860703,-0.08176137,-0.2062182,-0.019713765,-0.055257343,0.05724193,0.043500632,-0.005072795,0.11522205,0.05624767,-0.06987109,-0.13627514,-0.15165436,0.113208726,0.15613277,-0.021268412,-0.048758574,-0.08930212,0.0004739305,0.010656283,0.06620988,0.062198695,-0.046101093,0.16473325,-0.005023594,-0.021341402,0.057371676,-0.09892892,0.045262054,0.0023354737,0.054272305,-0.07186419,-0.014792625,-0.025431708,0.0074775997,0.115282364,-0.0012692265,-0.012412703,0.070619926,-0.10587439,-0.003959534,-0.15314147,-0.056401074
LINC00052,0.02753371,-0.0021484718,0.17337337,-0.04310529,0.044864517,-0.21309443,-0.03753522,-0.14454779,0.0869416,-0.017797776,-0.1461891,0.08032533,0.0771794,-0.14088081,0.06802388,0.06370813,-0.60093164,-0.05861534,0.065454,0.21618706,0.20862724,0.038388725,0.016494919,0.043919045,0.048656873,-0.0036091504,-0.139923,-0.011981218,0.03553931,0.19586459,-0.101277255,0.17662044,-0.18889937,0.11057861,0.06644572,0.030432157,0.040880907,-0.20966493,0.18885538,-0.013924078,0.17828211,0.09280233,-0.21095742,-0.07717309,0.09776667,0.3005461,0.12130554,-0.06028355,-0.20156993,-0.1111924,0.12059,-0.0003783162,-0.036321986,0.1576744,0.08059691,0.07564589,0.08795346,0.08292633,-0.010171748,0.019152746,-0.035052825,-0.23810326,0.2729934,0.09635319,0.08027161,-0.059066582,-0.11276618,-0.14327458,0.13454404,-0.024625147,-0.06523975,-0.17412291,-0.038732164,-0.043080255,-0.029730886,-0.082023025,-0.1309797,-0.04575631,0.19180994,0.052564777,0.07093901,0.006825419,0.006562093,-0.07100603,0.027849985,-0.03243442,-0.033316344,-0.089716315,-0.036134847,0.017274821,-0.025511958,0.12221364,-0.042144608,-0.08789281,0.11554809,-0.13684641,0.020594982,-0.056859393,0.083834335,0.04517688,-0.037986964,0.026034836,0.10143786,-0.034380972,0.053185932,-0.02842796,0.123807386,-0.102008246,0.12684615,-0.18016174,-0.11038847,0.21745747,0.05895639,0.17733839,0.14059468,-0.07365267,0.14274295,-0.13096078,0.050584063,-0.018211357,-0.0074330256,-0.082171716,0.2232813,0.064960934,-0.070320226,-0.03368729,0.08908456,-0.044052415
CASC15,0.10458419,-0.08577148,0.021030126,-0.10175179,0.0018520756,-0.057400376,-0.046551798,-0.068040594,-0.17965992,0.079572,-0.028703563,-0.040485315,-0.042087093,-0.18512036,0.09545108,0.11585148,-0.030316312,0.12756221,0.10272771,0.09707122,0.16356328,-0.08282367,0.006470901,-0.096815765,-0.06417261,0.11723201,-0.020635702,-0.0784761,-0.04421292,0.1879795,-0.053464223,0.020973573,0.07856412,-0.27176562,-0.18596603,0.019295573,-0.09617329,0.063882396,-0.09930321,0.084774196,0.016357806,0.026271572,-0.056219094,-0.050315235,-0.11546521,0.07229866,-0.044849314,0.045773268,0.083309665,0.12784283,0.016726542,-0.04095737,-0.084470674,0.04296555,-0.08650546,-0.08852933,0.033245318,-0.16007578,0.13957457,-0.042222776,0.086573645,0.18922457,0.01725065,0.018606856,-0.19799913,-0.029533008,0.058296278,0.009746039,0.1545591,-0.112697,0.044633422,0.015823621,0.016682126,0.18082732,-0.092827894,0.14117052,0.08648878,-0.0648424,-0.108965166,-0.02662058,0.082606494,0.011578237,-0.15851957,0.10340034,-0.12751167,-0.026105968,-0.055098686,-0.06483457,0.06686708,0.0044911793,-0.17509358,-0.09499463,0.07179083,-0.093864076,0.011959315,-0.079076864,-0.005330844,-0.05501572,0.1256503,0.045107473,-0.12294893,0.0032093648,0.0018682189,-0.1395757,0.092543505,-0.0067093857,0.0011177419,-0.080578044,0.099196725,-0.030628372,0.10855655,-0.05439622,0.080863655,-0.106791325,0.13362497,-0.019045858,-0.0870056,0.012612142,0.06630183,0.04737985,-0.08647137,0.081487134,-0.14260086,0.036924828,0.0102387,0.04601399,0.08888625,-0.06582158
ZNF667-AS1,0.08425989,0.06908242,-0.21050054,-0.025476743,-0.04274699,0.081652395,0.19834316,0.07710783,0.006353626,0.028280403,0.034043103,-0.115789734,0.07944868,0.038007457,-0.18523026,0.025135392,-0.053650644,0.13968459,0.16557135,0.10737609,-0.20339179,-0.23818769,-0.0014869528,0.12553713,0.14895579,0.06489792,0.13538739,-0.108430974,0.103483744,0.0020780251,0.09269999,0.050415583,0.18249658,-0.031032631,0.012870708,0.077796005,0.105257355,-0.18285348,0.09749413,-0.096021935,0.0563548,0.007907375,-0.04802726,0.05093124,-0.035325613,-0.1317072,-0.03035716,-0.019088395,0.026146138,-0.015200581,0.122543156,-0.06542715,0.025827955,-0.25282887,-0.15849991,-0.0006098049,-0.08647661,-0.019885384,-0.16173667,-0.12165554,-0.17465246,-0.111672975,0.034444276,0.135071,0.08278452,-0.06585726,0.14638959,-0.23568925,-0.01751602,0.11192272,-0.1449927,-0.084058106,-0.08784864,0.06830114,-0.108529024,-0.044156086,0.076465376,0.05900076,-0.049928814,-0.059789997,0.039118767,-0.043447714,0.045153115,-0.112463035,-0.1790049,0.1891055,-0.036836393,-0.011193113,0.078000166,-0.01969264,0.053947944,-0.020559086,0.0042882096,-0.004127347,-0.015169928,0.14274693,-0.16224226,0.07514201,0.2281781,0.13121414,0.0035097497,-0.01891517,-0.2832485,0.21434754,-0.14498848,-0.022845676,-0.20187151,0.020613927,-0.09449017,-0.048882697,-0.07143514,0.045443986,0.05764633,-0.013091222,0.0835825,-0.077096194,-0.06546631,-0.09617206,0.0510956,-0.009730825,0.05609856,0.15142043,-0.06599593,-0.0978768,-0.059708495,-0.014727183,-0.15535118,0.2061238
DLEU1,0.16131847,-0.071082294,0.07679986,-0.021871598,-0.02804066,0.08923471,0.27077046,-0.09257682,-0.10366191,0.2878605,0.08164509,-0.117617704,-0.040555496,0.054763805,0.05580013,0.058155842,0.04469266,0.15876696,-0.21801184,0.14144015,-0.08920554,-0.093591854,-0.18711485,-0.10970278,0.057232894,0.037122756,-0.013322558,-0.13380986,0.057075806,0.15981205,0.03713056,0.013506618,0.11052659,0.027629968,-0.024629775,0.028922021,-0.21913642,-0.24595039,-0.019081859,-0.005690039,-0.06829565,0.002153967,-0.12284834,-0.012251358,-0.056179684,-0.13560544,-0.10471707,0.13902049,0.14220546,0.009456573,-0.02444097,0.0647279,-0.15257084,-0.14701857,-0.18919314,0.13632424,0.04011501,0.049638886,0.05644203,0.014077006,-0.15784775,-0.25085875,-0.1411798,-0.05728971,-0.19766425,-0.1841055,0.057407685,-0.07528804,0.01151394,0.08478038,-0.0068158065,0.14219385,-0.0049255793,-0.025525764,0.14770748,-0.08380656,0.0031230794,0.033722848,-0.058135867,-0.03974118,-0.03800219,0.073740244,0.073397726,-0.21516538,-0.05368673,0.015034822,-0.20700254,0.042280324,0.16474064,0.043472353,-0.03008116,0.13964428,0.025727427,0.028089153,0.038215086,0.1443564,0.04095618,0.1239261,-0.09614952,0.21063739,0.19185412,-0.035923786,-0.15853137,0.06350566,0.031318314,0.040362686,0.18658796,0.14625877,-0.027429564,-0.09344954,0.025980223,0.008644048,-0.102167726,0.045170505,-0.017758043,-0.047007196,0.049519286,-0.051569942,0.023249786,0.09784278,0.03776888,0.023871446,0.06573441,-0.02332175,0.22651856,-0.060081813,-0.02059076,-0.028985951
SNHG5,0.07470381,0.07247575,-0.0792421,-0.13671517,0.0002322644,0.108927965,0.006964185,0.009515153,0.03499072,0.066272214,-0.1644506,-0.103734285,0.0507695,-0.028959915,-0.0981499,0.22067887,-0.02476338,0.06400669,-0.06265133,0.07284143,-0.06866432,0.08333821,0.00704707,0.0014905147,-0.085464194,-0.13084403,0.002827847,-0.12906781,-0.16469592,-0.013586255,-0.020729927,-0.11930888,-0.023295881,0.053361293,0.008605121,0.07393806,-0.07597469,0.065309405,0.051238433,0.061113857,0.13232048,-0.09324804,0.09137266,-0.013054724,-0.051792778,-0.067048244,0.068923175,0.16598287,0.021651963,0.12840869,-0.04173824,-0.08615543,0.039260276,-0.06669476,0.022554802,-0.11128896,0.057049952,-0.025618192,-0.05024867,-0.062334806,0.0638727,0.033661194,-0.088844955,-0.014408441,-0.08681066,-0.010347917,-0.13041963,0.045136023,0.19382009,-0.0061160745,-0.003344251,-0.027512033,0.0009696948,-0.012066923,0.0076654996,-0.0068773464,-0.04500036,0.008958028,0.0962857,0.05305136,0.026688628,-0.20690082,-0.008006158,-0.008862599,0.22497545,-0.13706054,0.039189886,-0.10184249,0.15822396,-0.15154956,-0.02795772,0.110614486,0.20475249,-0.12099698,0.1384305,-0.013574881,-0.07927072,-0.1512825,0.14987426,0.11084857,-0.034324843,0.16798621,-0.01159041,-0.0912557,-0.029410927,0.022914456,-0.036250547,-0.004771578,0.0358513,-0.05094356,-0.056460187,-0.03556741,0.031259257,-0.053903848,0.03549711,0.07434735,0.065622404,-0.041084003,-0.041262295,-0.048396487,0.04030718,-0.2052801,-0.02782971,0.054300904,-0.016258199,0.05226202,0.14497623,-0.0005038855
MCM3AP-AS1,0.08932503,-0.11237401,0.0012610361,-0.19365051,-0.059625436,0.0051680603,0.13070154,-0.21332747,-0.08162491,-0.036252424,0.059420884,-0.09877288,0.19770567,0.052921623,0.0178649,0.3264867,0.13928871,0.008655884,0.2955452,-0.07874007,-0.017135382,0.028782848,-0.087120175,-0.03017417,0.015894039,-0.113625534,-0.13400827,0.008412751,-0.23379552,-0.10253077,-0.27483913,0.079245925,0.14862308,-0.05880501,-0.26942384,0.08048639,-0.054749295,-0.03662906,-0.057460852,-0.17383194,-0.11683163,0.08567458,-0.08406098,0.12710696,-0.076170824,0.14446145,0.19496548,0.015440403,-0.04203299,-0.03758803,-0.0667718,0.01305509,0.22969022,-0.40284905,-0.32112622,0.07076679,-0.087498315,-0.12161052,-0.12524983,0.3838625,0.15034762,0.00056790875,-0.17449027,0.08593759,0.054480407,0.027291525,-0.26952595,-0.0198056,-0.054423586,0.109074645,0.1447111,-0.066981316,-0.022701109,0.15008022,0.064688504,0.06887231,0.1139911,-0.14524142,0.1872567,0.259006,-0.12937899,-0.08104608,0.22714348,0.16029237,-0.50451785,0.09110496,-0.14145558,-0.097984284,-0.11585565,-0.03924427,0.12718624,-0.1327079,0.10492176,-0.030890387,0.09119953,-0.048988886,-0.04716359,0.113983154,0.007013806,-0.115091644,-0.034764886,0.19778167,-0.17484215,-0.2564911,-0.017994571,0.11156006,-0.032222867,-0.11531856,-0.265058,-0.14573516,-0.07343544,-0.15232936,0.12151507,-0.4953181,0.1436734,-0.02279711,0.18313545,-0.1002619,0.06542792,-0.12618034,-0.028636154,0.1294192,-0.065032445,0.07273631,-0.042130895,0.17475158,0.14566265,0.034502573
NORAD,-0.041792545,0.04311104,0.044878874,0.010830391,0.111501,-0.09232454,-0.022561928,0.099433325,0.013610407,0.011132873,0.008635059,0.21281333,0.103657074,-0.13109922,-0.030164853,0.06491349,-0.74086624,0.061186302,-0.08655348,0.05366456,-0.08267082,-0.152859,0.00044202493,-0.0029278216,0.08711832,-0.17224512,-0.008919665,0.15973662,0.08869396,-0.19344628,-0.025916666,0.08587869,-0.1706451,0.009849611,0.13878556,-0.008248873,0.1241375,0.051144134,0.06607134,-0.17031133,-0.0037103037,0.17022917,0.14908774,-0.05560647,0.05540695,-0.0829568,0.034776505,-0.041821428,0.032766983,0.07446945,0.020887047,-0.18591452,-0.042701587,0.041403353,-0.05198731,-0.025699079,0.23807624,0.111720964,0.2953248,0.03773363,-0.020466402,0.056877896,-0.117350794,0.03734316,0.14142032,-0.055945132,-0.019444982,-0.010317187,0.0021172902,0.05557061,-0.07954401,-0.041955456,-0.013811305,-0.17462416,-0.07050453,0.09677764,-0.023016889,-0.26442248,0.09540241,-0.12417846,0.009829761,-0.12030422,-0.057618927,-0.00078615715,0.26148,-0.06654294,-0.15844621,0.22362074,0.033460774,-0.13407144,-0.24991477,0.1388978,-0.12616418,-0.020296376,0.065338485,0.0030239956,-0.2055734,-0.047599338,-0.1911467,-0.045745596,-0.08329368,0.027985953,0.03299945,-0.070856296,0.0047432347,0.02291828,-0.02875353,0.15074378,-0.027509835,0.0066085337,-0.19849661,0.04251116,-0.00626177,0.06416592,0.011310115,-0.0048307683,-0.035952788,-0.032551832,-0.053332128,-0.01681645,-0.062192,0.024404185,0.123709604,0.091077104,-0.048943862,-0.07896001,-0.12651423,0.07572053
SNHG1,-0.075280026,-0.1365671,0.027975231,0.030607028,-0.0062185866,-0.025706042,0.0064261965,-0.11599862,0.07023896,0.12834807,-0.039782822,0.031111952,-0.08839777,-0.09726822,0.10455724,0.13685401,-0.050572067,0.038258072,0.075431116,-0.064672686,-0.06952843,0.13134958,-0.045193054,0.06470536,0.1045006,0.068510555,-0.019281188,-0.00086196687,-0.092542335,-0.019543197,0.010985028,0.011911957,-0.041411407,0.013176968,-0.008740259,-0.04671957,-0.08517343,0.093566254,-0.05983956,-0.29860812,0.07168213,-0.074055165,-0.037419062,-0.16537562,-0.19743663,-0.061241224,-0.07421876,0.02029977,0.023460925,-0.08773183,-0.20335054,0.040580094,-0.08529159,0.013080782,-0.05172945,0.007975308,-0.081747144,-0.031115042,-0.0830594,-0.07984885,0.1096002,-0.008011813,-0.079295434,0.012188704,-0.13513857,-0.078188136,-0.09915148,-0.12727699,0.014235813,0.11850993,0.09101131,-0.051061902,0.18594696,-0.032756053,-0.097262375,-0.0068708207,0.12187913,0.0456044,-0.05648481,0.016769383,-0.05732906,0.036825377,-0.043717824,-0.03376601,-0.010966486,0.03259225,0.058674328,0.07551119,0.02041443,-0.023718867,0.021532344,0.013906628,-0.021443194,0.031774998,0.0856794,0.05252436,-0.007325814,0.1150263,0.029032119,-0.0085578635,0.030646285,-0.0052588484,0.056403797,0.050212953,0.097993776,-0.055560984,-0.022589074,-0.01956739,-0.06534255,0.09093182,0.08794718,0.00048794923,-0.23611967,-0.024389554,0.015276372,0.08776497,0.0018761237,0.014055581,0.0065287165,0.051598243,-0.028767351,0.14436519,0.025916252,-0.007544485,0.07462865,0.23969527,0.13907342,-0.11554838
DANCR,0.053831942,-0.041213766,-0.053479414,-0.024612166,0.016987966,0.17212494,0.123501055,0.019700177,-0.078112684,0.077080905,0.036152087,0.10774755,0.09049201,0.00016973198,0.036585003,0.08661416,-0.0806773,-0.07343601,0.0012055419,-0.040888935,0.17815284,0.095225975,0.12285972,0.17711794,0.039591014,0.039979108,0.03054612,-0.12272097,-0.009921991,0.15671262,-0.01983496,-0.07620813,-0.10799078,0.042918865,0.11220546,0.08515566,0.1315077,-0.09625712,0.0047606053,-0.01990549,0.0065966547,-0.12987483,-0.12756318,-0.14396419,-0.0832801,0.01123514,-0.105959125,0.009115401,0.14182559,-0.051603783,-0.109954864,-0.07922507,-0.08540753,0.16291265,-0.04431808,0.10600667,0.20416608,-0.052798074,-0.074319065,-0.076143175,-0.0060024685,-0.05989658,-0.021781038,0.046144016,-0.0031389995,0.05120466,-0.025959546,-0.15960817,-0.071234435,0.013760136,-0.050771434,-0.21256043,-0.04894548,-0.09107155,-0.17709835,-0.100023076,0.14768381,-0.11824118,-0.0015892561,-0.002470923,-0.08500405,0.14005339,0.017118674,-0.08654155,0.09863925,0.002394137,0.067807786,0.010853637,-0.090806745,-0.073233776,-0.015314876,-0.11829239,-0.06341446,-0.15620707,-0.012728959,-0.06830625,-0.04715911,-0.06444977,0.09353009,0.0057045566,0.09282651,0.18442896,-0.28811002,-0.08043566,-0.048868373,0.027559966,-0.06641989,0.121005945,-0.1569475,0.03997745,-0.05768889,-0.013018271,-0.007453276,-0.033421766,-0.05011856,-0.06838917,-0.056184493,0.109976865,-0.037365213,-0.014360708,-0.03013949,0.0046576317,-0.16835278,0.06455468,0.19602631,0.07551174,0.10591578,-0.03407542
CCAT2,-0.0050059063,0.086040445,0.048359025,0.17059729,-0.084636524,-0.027540281,0.05785926,0.083281115,-0.076613605,-0.114839695,-0.060347345,-0.10127258,-0.19452523,0.020751536,-0.028238365,0.14898087,0.003924909,0.0134646455,-0.044171635,-0.021685256,-0.02763892,-0.027953211,0.10446665,-0.13354574,-0.029762093,0.044956632,0.024711419,-0.14809611,-0.016134834,-0.07012853,0.0044507287,-0.06324973,-0.08496286,-0.07083804,-0.16605464,0.14439714,0.04010013,0.08023319,0.04833807,-0.09300436,-0.009773984,-0.08312097,0.09993771,-0.06017519,-0.23888227,0.056126073,-0.04565168,-0.11600384,-0.12227773,-0.04962642,-0.03133865,-0.013250905,0.08426621,-0.06435422,-0.0018319767,0.048060462,0.15690458,-0.17317937,-0.042235866,-0.19487824,-0.03681495,0.018094068,-0.25591692,-0.05499961,0.017286446,0.03263146,0.018640235,0.50187963,0.12177915,-0.17961867,-0.07253123,0.13737904,0.07096853,0.13460788,0.049479336,0.1502783,0.05041094,-0.029179452,0.03780386,0.05093808,-0.0047803638,-0.064841494,0.04025665,0.031072361,0.0047525563,0.064966515,0.19467926,-0.17094854,0.05388577,0.021406198,0.13755606,0.022396695,-0.046360217,0.13887328,-0.018363269,-0.06826079,-0.15828629,-0.0399039,-0.016797064,-0.19243428,0.081433974,0.15420905,-0.3206581,-0.03963993,0.07330607,-0.0029903396,-0.12816435,0.085670784,0.1515502,0.09886921,0.018506272,0.23138303,-0.11153191,-0.08684333,0.005445135,0.029130567,-0.0041191773,0.14846355,0.11564317,-0.13971797,-0.030726125,-0.074816406,0.029189158,-0.121560484,0.21408139,0.18605338,0.08202032,0.10033861
CYTOR,-0.12307479,0.004273998,0.072544955,-0.03393294,-0.13000278,0.20190436,0.005966738,-0.06018995,-0.012353518,0.06041995,-0.11316545,-0.046908088,-0.067592904,-0.2504236,-0.03448485,-0.23896204,0.056287006,-0.072915025,0.10488861,0.07650889,0.040809065,0.029307216,-0.132918,0.0770754,-0.059429187,0.021254694,0.06904663,-0.018918717,-0.11077027,0.06473146,0.021219766,0.07536197,0.05627419,0.028304417,0.014589072,0.15640672,-0.045279212,-0.12784892,-0.06406032,-0.03454,0.097264595,0.028094787,0.10641596,-0.07477334,-0.11146482,-0.03860238,0.01723614,-0.081475094,-0.0122737195,0.08679415,0.060233846,0.09237849,-0.04117349,0.013054847,-0.068692274,-0.039843112,0.16013989,0.041544437,-0.013209509,0.019009696,0.05226271,-0.09630119,-0.06055998,0.055450715,0.10219794,0.07198499,0.13893256,6.487884e-05,-0.066761,0.016385533,0.05903337,-0.118980266,0.008609166,0.006927068,0.05008824,0.02156327,-0.008790644,-0.040929753,-0.09335273,-0.022770783,0.16257995,-0.06115631,-0.064493805,0.01282508,0.10808793,-0.042861097,0.011660001,-0.25579903,-0.03620006,-0.09023223,0.06680572,-0.0026604454,-0.028867554,-0.064953014,0.113169596,0.05786684,0.016090453,0.12787491,-0.026889222,-0.031783335,0.13538383,0.084617786,0.027817855,-0.017527893,-0.13180226,0.10678844,0.092741586,-0.06690236,0.07437644,-0.033177935,0.06339348,0.03376441,-0.06642659,0.007020279,-0.09301526,-0.089401454,0.039930686,-0.028559899,0.16765292,0.0035061752,-0.019243171,0.034747817,0.051057935,-0.01585623,0.19314085,0.003210594,-0.07180877,-0.11099381
GACAT3,-0.09530081,-0.032046616,0.09493341,0.016870325,-0.019209895,0.005747484,0.037286445,0.042203773,0.18370439,-0.029373372,-0.075645335,-0.112354055,-0.017735578,-0.03830753,-0.12518929,-0.05762042,0.014652771,0.01227967,-0.20969233,0.009487173,0.14092787,-0.0471064,-0.23524928,-0.036634628,0.018405817,0.0026722152,-0.03258271,0.09083231,-0.07126043,0.03207801,-0.0153523665,-0.081037164,-0.011284416,0.057092436,0.11762881,-0.187334,-0.015866831,0.08061917,0.052541405,0.026792299,-0.0852594,-0.13914965,0.08776078,-0.043230817,0.0040077195,0.11160539,0.09383535,0.01087185,-0.094628975,0.07514591,-0.092767335,-0.10167573,-0.051110864,-0.2787201,0.06010735,-0.03874232,0.18034552,-0.03418266,-0.107410125,0.056975372,-0.018471505,-0.15601479,0.027235739,0.070252076,-0.0015410802,0.001865119,0.13242638,-0.07280706,0.13216905,-0.06954515,0.10102776,0.094641976,0.505404,0.0101685515,0.1154301,-0.08066884,0.13614728,-0.039956592,-0.18403466,-0.12687923,0.042624734,-0.006703455,0.04126613,-0.005531385,0.005762185,-0.027516438,0.08284298,0.08391256,-0.0045115016,-0.10030746,0.08317174,-0.05968859,-0.15105788,-0.036548823,0.075958975,0.010049209,-0.115898885,-0.039249483,0.07886947,-0.017224425,-0.019412994,0.018981365,0.085332096,-0.043909863,0.03901406,0.019724883,-0.07676644,0.042944785,-0.009073447,0.16101967,-0.13198379,-0.038949236,0.051503975,-0.17213535,0.018805068,-0.045535047,-0.01914468,0.015753053,0.25125682,0.030013353,0.03852288,-0.10760753,0.15191916,-0.116407394,0.09871643,0.037551295,-0.009195201,0.042542893
LINC00313,-0.07821188,-0.025338953,0.18027881,-0.17144953,0.096203834,-0.093326,0.09122041,0.030557852,-0.025845878,0.12537727,0.19553064,-0.10828845,0.38474494,-0.07354478,0.108878836,-0.11170512,0.09896874,-0.070422165,0.16660094,-0.25382912,-0.058567803,-0.09783198,0.1443526,0.0054490636,0.07224444,0.04657739,-0.003796926,-0.0205579,-0.08736145,0.16217995,-0.120819524,-0.24643257,-0.046876404,0.07442887,0.010363238,0.13070375,0.1009873,-0.19344403,0.06924895,0.15463324,-0.059466332,0.035178874,-0.61524975,-0.31413823,0.030369408,-0.12715492,0.030205129,0.2766636,0.027930044,-0.19413708,0.3100053,-0.09934457,-0.0076527735,0.066950254,0.017700939,0.0680334,-0.27718636,-0.02681206,-0.160065,0.04552205,-0.36362007,-0.12071226,0.04266752,-0.095328316,0.070838794,0.06756151,-0.10706893,0.1516856,0.15411893,-0.096895896,0.0928293,-0.47995168,-0.1264862,-0.16688451,0.061884914,-0.06568205,0.08583388,-0.16599603,-0.56904685,-0.12292391,-0.16181782,0.002479292,0.022924406,-0.3922047,0.072982594,0.08274376,-0.250978,0.08748714,-0.031153584,0.02962834,-0.2602513,-0.01762627,0.047120694,0.104603946,-0.045008104,0.018389653,0.19775128,-0.034499794,0.15559483,-0.08174585,0.18707322,-0.0059008617,-0.057034522,-0.0829956,0.07408809,-0.10271568,0.1568706,0.016830001,0.5033425,0.15507284,-0.00995463,0.11422056,-0.10163082,-0.14316587,0.020817552,-0.007274035,-0.10802781,-0.07838348,-0.025700709,-0.04246511,-0.1419255,-0.088529035,0.06403434,-0.072700664,0.18028103,0.0413071,-0.25201243,0.2120288
UCA1,-0.027070919,-0.026410578,0.034959413,0.019266326,0.097990505,-0.13087454,-0.060236637,0.04002211,0.008086502,-0.10056212,0.11759583,0.07776593,-0.044468485,-0.0032064617,-0.07639544,-0.0714039,0.06293728,-0.030113013,-0.08044319,0.09233701,-0.02290993,-0.00024705986,0.11805704,0.20795146,0.011929553,-0.009819495,-0.029312043,-0.024969663,-0.07656025,0.06363073,0.13669623,-0.022056507,-0.117526636,-0.026538383,0.07710663,0.00040140253,0.024648529,-0.068572305,-0.07000013,0.10705512,-0.015655247,-0.0033004624,-0.1488041,0.013454642,-0.15988484,-0.09327517,0.0027547844,-0.014495218,-0.1657483,0.018784143,-0.16797273,-0.034368187,-0.067140415,0.071101815,0.02304331,-0.10839004,0.039000876,0.058092277,-0.040071532,0.06064678,-0.1088958,-0.0968156,0.07116976,0.13373962,-0.059287548,-0.006068531,0.19165966,0.0007631078,-0.009419698,0.13730693,0.0742719,-0.020831259,0.05549755,0.057431154,0.121774554,0.11247453,0.0071907737,-0.006408724,0.06161412,-0.06554272,-0.004660404,0.01616748,0.07839528,0.051930618,-0.09146417,-0.07451592,-0.018695867,0.17413904,-0.0032748394,-0.06812352,0.12737347,-0.09117551,0.040487062,-0.0041944487,-0.058899187,0.07318968,-0.018535905,-0.11664531,0.012039378,0.12578443,-0.0802419,-0.026225846,0.01868268,0.016912729,0.024248337,-0.10405242,0.15902664,-0.08553099,0.02446065,0.04671772,0.08753442,-0.11445536,-0.03168922,0.13777564,-0.07891844,0.09859558,-0.10186187,0.04897514,-0.11923355,-0.057258714,0.018629985,-0.07138501,0.044693768,0.016508503,-0.056214437,0.10761116,0.043986544,-0.14891163
ROR1-AS1,-0.011995819,-0.10803499,-0.08606192,-0.055648938,0.07942263,-0.014083068,-0.08452744,-0.01897336,0.15567529,-0.020110426,0.02306958,0.18072693,-0.111166984,0.0765719,0.07470816,0.19179755,-0.1399686,0.18306902,0.30707502,-0.053924665,0.034408152,-0.09682294,-0.10230176,-0.15235175,0.17256895,-0.023366565,0.05511084,-0.13647063,0.15878995,0.09882413,-0.18978658,0.06735272,0.011646926,-0.04669391,-0.009432714,0.07811719,0.018648298,0.117574036,-0.11951114,0.15067787,-0.26442352,0.024293901,0.21505846,-0.21189794,-0.024392642,-0.24647473,0.06779289,-0.06609784,-0.1852495,0.042242642,0.043126382,0.25943857,0.18310735,-0.15153058,0.03049081,0.13538836,0.13780527,-0.030613668,0.031481557,0.032631367,0.0020639347,0.119791664,-0.05800114,-0.32650104,-0.15805563,0.028907567,-0.031478826,-0.14820231,-0.13092613,0.05627291,0.05682389,-0.014210425,-0.13816406,-0.123380736,-0.29522833,0.06990039,0.21030736,0.055740148,-0.076790005,0.013550583,0.11526246,-0.0852816,0.09252398,-0.15468267,-0.13702548,0.33670568,-0.16726086,-0.11624724,-0.02049228,0.23464787,0.040623456,0.039465863,0.01459022,-0.064435564,0.008489301,-0.15116967,0.10683197,-0.0014865585,0.24722348,-0.046618897,0.12057631,0.06865684,0.007959282,-0.30721328,0.0018331266,-0.14323348,0.04744549,-0.019915942,0.14213616,-0.03203166,-0.122827604,-0.16546638,0.008205865,-0.011637,-0.055935197,0.043549936,-0.053512037,0.06432356,0.19629835,-0.1767986,-0.005685011,-0.15825151,0.104201764,0.044141207,-0.38360533,0.12428576,-0.13621071,-0.06806589
ZEB1-AS1,-0.20637873,0.19069982,-0.08662629,0.09207481,-0.0013911453,0.11272169,-0.07142428,0.1626149,0.04851108,-0.076220065,0.09264135,0.075049125,0.09449025,0.04131248,-0.054518636,-0.13135365,0.07294617,-0.14477988,-0.094769396,-0.01372632,0.09897159,0.0729572,-0.14706732,0.073571004,0.06107244,0.13427675,0.061580706,-0.016227696,-0.14617658,0.14097114,0.06819717,0.03799048,-0.055550013,-0.05830223,-0.07274499,0.13197772,-0.00069983513,-0.014559729,0.016443215,-0.11377247,-0.15663065,0.052596856,-0.068526536,0.16380697,-0.04765616,0.12129994,-0.048378896,0.12708376,0.18474889,-0.099531874,-0.074742995,-0.0034423093,0.045751426,-0.013609941,0.08495756,0.103540115,-0.049152005,-0.008773109,-0.07350272,0.004918607,0.04247963,-0.13711934,-0.020628514,0.098791726,0.07660004,0.12776223,-0.079699725,-0.046383664,0.038058236,0.023155538,0.12048868,0.09575351,0.05179806,-0.0061922497,0.06647731,-0.040065315,-0.0071819476,0.10843151,0.08521894,-0.042265546,-0.065003246,-0.084859796,-0.21728976,-0.058694493,-0.064472355,-0.017403735,-0.1425735,-0.017036019,0.08362232,-0.035551127,0.20040923,0.09229178,-0.10218208,0.11877145,-0.07335036,-0.052272882,0.037383173,-0.07943015,0.05863241,0.04013523,-0.057901427,-0.005695463,-0.13213827,-0.08993179,-0.024733331,0.0019862077,-0.12253899,-0.0120539395,-0.044139806,-0.12290744,0.017535675,-0.08324349,-0.019457478,-0.10750575,0.0943244,0.07108976,0.091836266,0.08263257,-0.043759357,0.0017873796,0.011574856,0.076196335,0.052044846,0.16113655,-0.12212923,0.12712272,0.20299584,-0.037790183
SNHG7,-0.10351482,0.055846464,0.015488002,0.0557161,-0.087139316,-0.0657294,-0.002815382,0.011682872,0.07114747,0.055966977,0.12700813,-0.12022963,-0.055814546,-0.06459462,0.0010990591,-0.004876789,-0.09241331,-0.031854186,0.058057208,0.07949774,0.080186285,0.03453252,0.05039328,0.17276767,0.066746235,0.03325049,0.09684665,-0.14173892,0.040127043,-0.11605523,-0.07785102,0.07911968,-0.15127173,0.12587242,0.019891823,-0.120152265,-0.034929257,0.061484817,0.02358898,-0.0679126,-0.098277085,0.038841326,-0.06611858,-0.033188645,-0.039255936,-0.08732876,0.14886189,0.10860824,0.10371815,0.10333746,-0.0843938,-0.114435874,-0.09793559,-0.03225971,0.051213745,0.028693883,-0.10333377,0.087812394,-0.16864982,-0.084391914,0.027294513,-0.03457674,-0.06377952,0.11963894,-0.11464942,0.078736216,0.12427258,0.019371316,-0.039666336,-0.014786985,0.0056202826,-0.0020031296,0.045491017,-0.015227257,-0.023217337,-0.13823114,-0.0145408,0.15648763,-0.14546669,-0.06131037,0.018447578,-0.09597173,0.07790283,-0.042599034,-0.047445588,-0.08020248,-0.05400139,-0.027954547,0.011078396,-0.114903465,-0.078430474,-0.06798566,-0.1368165,-0.10838185,-0.058112532,-0.21952258,0.0170389,0.006053607,0.004477918,0.059694454,0.1315879,-0.10968488,0.05572253,-0.010930227,-0.056831293,0.108560406,0.044241644,-0.122440055,0.006082584,0.004955213,0.06284736,-0.15328841,0.024364913,-0.025023958,0.110812046,0.104192056,0.04180602,0.04897245,0.16613021,-0.11936015,-0.011777223,0.053821363,0.031509213,-0.1467896,-0.06386307,0.042558476,0.09845473,0.012537581
LINC00173,-0.0014303578,0.052711174,-0.10993432,-0.082867,0.06900389,-0.015473102,-0.11076264,0.1399999,-0.013309688,0.050645843,0.15789282,0.027031088,-0.032616094,-0.005011362,-0.1381146,-0.14888096,-0.10966482,-0.086871825,-0.10394597,0.0062656645,0.006440505,0.11196477,0.0717167,-0.06370286,-0.037762355,-0.06340742,-0.026877044,-0.25487044,0.026016686,-0.013501963,0.22026773,-0.14807928,0.074211985,0.026081523,-0.13126312,0.067593575,0.13221173,-0.016110513,0.0032706857,-0.09953997,-0.16935675,0.0974511,0.037942402,-0.09815921,0.14154834,0.01338361,0.0030180751,-0.09325105,0.056281492,0.007748581,-0.11772303,0.01486673,0.07443775,-0.1329614,-0.03792296,-0.15485446,-0.0013352772,-0.071837455,-0.079101,0.10359491,0.11244553,-0.020172428,-0.11914525,0.01998589,-0.117472224,0.014251449,0.036515154,-0.2560397,0.13336314,-0.025816835,-0.0074463296,0.061275285,0.2745574,-0.034806706,-0.18408619,-0.13618547,-0.10769942,-0.050623614,0.4143242,-0.06124307,0.071207754,-0.13391642,-0.08429108,0.036165964,0.069724835,-0.001035465,-0.08195937,-0.33697468,-0.17906837,-0.0503243,-0.10442495,0.10890108,-0.13373755,-0.08886379,0.004439465,0.19956738,0.12367469,-0.12827058,0.021705657,0.092115924,0.07072154,-0.21886927,-0.1809096,0.0046837986,-0.097840734,-0.16883045,0.14184633,0.31962144,-0.07784257,0.0170682,-0.10223584,0.04748748,-0.13971451,-0.14625318,-0.05650317,-0.116089776,-0.123756394,0.085835055,0.05984259,0.012659211,0.040132158,0.049124144,-0.059000652,-0.01666788,0.08759617,-0.07390684,-0.15699497,0.07531246
SBF2-AS1,-0.051376827,-0.012373298,0.035704702,0.030044662,-0.07527581,0.11023146,0.08989274,0.0015692217,0.0008714977,0.04099175,-0.10677232,0.10614487,0.08542098,0.022411844,-0.09393445,-0.08402704,-0.04089884,0.005437799,0.0641024,-0.039164055,0.095304854,-0.026585422,-0.025616877,0.06557188,0.0043763313,-0.12882635,0.016407758,0.157147,0.080588765,-0.0399938,-0.025390044,0.04703917,-0.39158368,0.12846482,-0.023125762,-0.14324681,-0.16112116,-0.08803864,0.039688252,0.020427078,-0.26282042,-0.08190446,0.057348065,-0.06268444,-0.061294198,-0.005313058,-0.01601331,0.13231398,-0.0069717546,0.012090423,0.10020314,-0.022530848,0.0066721896,-0.21577637,0.057352453,-0.000807416,0.06788701,-0.024826463,0.04939422,-0.026218858,-0.061917286,-0.047003813,-0.0065803784,-0.008959901,0.017184418,0.053206787,0.17576027,0.111887865,0.037679337,0.028355723,-0.03617903,0.0018926477,-0.011897773,-0.00019801635,0.046784457,0.0086706765,0.1731717,-0.05616256,-0.28877696,-0.07860006,0.15624338,-0.015416951,-0.069918014,0.053286288,0.013735758,-0.10208235,0.06895882,-0.058675975,0.33303055,0.09020577,-0.0111616235,0.10485456,0.05094796,0.06249398,-0.11517659,0.25056487,-0.033585116,0.11053512,-0.014156121,0.055624504,0.05736194,0.091937244,-0.026520066,0.06600628,0.09423166,0.050259825,0.034326103,-0.11151515,-0.17442189,0.17420076,-0.09411967,-0.07608144,0.093641,-0.026120795,0.033674244,-0.033640172,0.31781,0.0758274,-0.09213003,-0.049738903,-0.018475942,-0.04536982,0.036163714,-0.17949855,-0.0010475726,0.011208153,-0.07673698,0.14347793
IFNG-AS1,-0.17780001,0.10446386,-0.02146365,0.022353096,-0.10847191,-0.07484129,0.21611634,0.1718043,-0.042947583,0.09407127,-0.027157951,0.04622043,0.11875589,-0.038774207,0.079382405,-0.09551513,0.0041633765,0.034542512,-0.00089029875,0.03319961,0.15445052,-0.14834483,0.106063746,0.09351108,-0.09076668,-0.07163248,0.02236986,-0.16639441,-0.27849266,-0.006582921,0.040567443,-0.019556494,-0.11440954,-0.053836152,-9.192084e-05,0.059034918,0.039468996,-0.051764715,-0.07032081,0.06148723,0.10714423,-0.014689801,-0.11490221,0.051293824,0.17117183,-0.007131372,-0.31182563,-0.10319556,-0.15343238,0.004851664,0.0321235,-0.13878776,0.06991415,0.042971358,0.13426429,0.19010533,-0.14338039,-0.0826219,0.17549202,0.098325334,-0.04044361,-0.06602455,-0.12962888,-0.13412744,-0.1449661,-0.049190376,-0.02985967,0.1547225,0.15423462,0.104736336,0.010178518,0.10912231,-0.17096479,0.08449665,0.013897338,0.12004952,-0.07478383,0.027394464,0.20394629,0.11478791,-0.23355612,-0.03779678,-0.16576096,-0.017022252,0.06258019,0.071489796,-0.16489695,0.040816303,-0.047666226,0.10205383,-0.015683006,0.07831548,-0.07765493,0.29508436,0.07532358,-0.09288,-0.0143762585,-0.023668231,-0.09215668,0.061961677,-0.18367006,-0.0779029,-0.04744771,-0.07640364,0.07683538,-0.16456914,0.23646435,0.015779687,-0.19658872,-0.03495413,-0.07044931,0.0663915,-0.010845737,-0.064396024,0.14764184,0.09792891,-0.008828391,0.0555041,0.0015492863,-0.17412947,-0.11909213,-0.12599036,0.057605576,-0.065298185,0.08834476,0.10896046,-0.058735568,0.19484445
HAGLR,-0.107986346,-0.035272114,0.047927167,0.079752915,-0.023458429,-0.0782151,0.038100574,0.08577838,0.16620868,-0.10681817,-0.060093068,-0.078050554,-0.09685714,0.03813918,0.11703641,-0.16026077,0.0015670438,-0.13575861,0.09339649,0.08166272,-0.121643454,0.1338907,0.13731022,0.08521908,0.037873074,-0.044026308,0.03994892,0.070119426,0.06284977,0.17658256,-0.09284761,0.017460046,-0.02251771,0.06823673,0.2442034,0.054850776,0.027965918,0.1550384,-0.1002824,-0.04558259,-0.03367136,0.1413295,-0.16772157,-0.05234779,-0.02268096,0.023430929,-0.021675231,0.018734686,-0.03508978,0.15299901,0.016960505,-0.12804149,0.054197952,0.09007516,-0.122506894,0.013425653,-0.11823201,0.13985126,0.056873,-0.057106853,-0.017896978,0.11490008,-0.23145948,0.016202616,-0.025630435,-0.083996266,0.16139235,-0.07294981,0.05605011,-0.11380262,0.14757907,-0.023850895,0.058298606,-0.030429924,-0.17404531,-0.23098934,0.07200565,-0.11848414,-0.09467262,-0.04704718,-0.013573625,0.02681574,-0.027298756,-0.08918222,0.024466746,0.06578414,-0.09539241,-0.08042034,0.1423469,-0.064468786,0.0675801,0.11147672,0.16646414,-0.0032589405,0.059666045,0.013774425,0.12793894,-0.03699401,-0.25905344,-0.13150387,-0.033853248,-0.011802311,-0.106362954,0.029124007,-0.021701826,0.03505489,0.11475947,-0.036698,0.08853997,0.025754252,-0.27220887,-0.106517516,0.066408455,-0.014633717,0.058260925,0.05479188,0.11514714,-0.015754325,-0.0034178784,-0.10141462,0.06965734,0.08071821,-0.10820066,-0.06143282,0.039945934,0.013049064,-0.10812587,0.047572065
LINC00477,0.0048741912,0.0527892,-0.07239445,0.065067805,0.03550877,-0.14009741,-0.06953859,-0.0892945,0.05602629,-0.059458524,0.002055016,0.22309725,0.025030492,-0.04829115,0.0058066905,0.027882062,0.08695822,0.024601717,-0.0036549778,0.12658803,-0.080365546,0.058260337,-0.0020757918,-0.34965,0.041017257,0.10314554,-0.22482987,-0.07176337,-0.017442727,-0.09918948,-0.07282036,0.11211546,0.0896803,0.12885132,-0.060202975,0.08266741,-0.13172846,-0.09980637,0.083001964,0.0106480075,0.10177903,-0.07522731,-0.036696807,-0.018581837,-0.01489814,0.025997614,0.046353023,0.02052315,-0.019356154,0.01049679,-0.018175581,0.03828125,0.09602264,0.1560254,0.15259361,0.018867934,-0.1946374,0.18319893,-0.32432988,-0.11003156,-0.12911269,0.061558038,-0.07127826,-0.06931321,0.16813044,0.029076107,0.003922819,0.14489402,-0.19249058,0.013886744,-0.1536604,0.0680962,0.08947742,-0.009099822,-0.028622288,0.020700183,-0.015663937,-0.028104208,-0.060236786,-0.1813245,-0.14850546,-0.102432065,-0.07461861,-0.008197308,-0.052048627,0.026127994,0.0518414,0.0682442,-0.14392987,0.11505639,-0.034601804,-0.03365828,-0.067203805,-0.030011652,0.018565496,0.017911134,0.017456764,0.23741336,-0.0898587,0.017547717,-0.001136739,0.042458158,-0.090222724,-0.08291882,-0.044496343,0.0570063,0.1263334,-0.057154655,0.11220902,0.009434101,0.117346235,-0.042297654,-0.2575073,-0.10151101,0.14941874,0.19958344,0.16257828,0.06830223,-0.008054587,0.046079114,0.0155262165,-0.17840073,-0.0115484735,-0.20922364,0.054387875,-0.01585916,0.28887433,0.0427268
SNHG12,-0.19065224,0.041016743,0.0028341596,0.04585,0.061067987,0.105112575,-0.13310485,-0.046540197,-0.107113205,-0.011177881,0.17238794,0.066199586,0.026821425,0.066253945,-0.05561394,0.08489077,-0.009147266,-0.2452046,0.05993179,-0.007717848,-0.03403366,0.25283137,-0.0026224856,-0.07802786,0.121543206,-0.012985458,-0.11615986,-0.014709078,-0.020964285,0.027796274,0.01752962,-0.06981088,0.026181998,-0.12750326,0.073198214,-0.08577653,0.11032829,0.17565328,-0.110444464,-0.1223321,0.04375713,-0.0014533916,-0.15741158,-0.046363577,0.036924556,-0.07252664,0.017381713,-0.03469105,-0.07247576,-0.06576827,-0.17639409,-0.033940755,0.093476415,0.02002304,-0.13909394,-0.21331738,-0.25948787,0.21900657,-0.13089275,-0.20450713,-0.15917961,-0.1060393,-0.119779445,0.030580264,-0.0412663,0.15207717,0.061549935,-0.045247197,0.04966,-0.04807125,0.005950585,-0.12759338,-0.020362176,-0.04262638,-0.07794042,-0.21087365,0.055414375,0.0009777561,-0.028158553,0.046644922,-0.066064805,0.025630731,0.19655979,-0.12412873,0.09892897,0.07054712,-0.058003593,-0.14021087,0.023354204,0.083715454,-0.17047235,0.05900662,-0.022128304,0.032340087,0.0085304575,-0.14928609,-0.1051902,0.13949896,-0.121811554,0.069094464,0.002685253,0.002832652,-0.06587871,0.06929963,-0.10401284,0.11781382,0.07421798,0.016145853,0.004675039,0.12485378,-0.02983954,-0.12508379,0.090991035,0.048851248,0.0143049,-0.047439564,0.21126774,-0.14836231,0.06394266,-0.044352543,-0.10538397,-0.006576407,-0.050369438,-0.028310066,0.18645824,0.040699016,-0.0288546,-0.08941539
CTBP1-AS,-0.023334896,-0.050079823,-0.03173887,-0.03791917,0.18893835,-0.03671261,0.0016900877,0.11308327,-0.04908653,0.1538611,0.06612412,0.08470652,0.04091128,0.04078969,0.12955782,0.05934085,0.0131750265,-0.25484866,0.09593899,0.07422563,0.09282446,0.042392984,-0.12317291,0.26932174,-0.052017912,0.02927121,0.0045558605,0.06160992,0.02454176,-0.052425575,-0.089810275,0.032742802,0.1340127,0.18673015,0.018087627,0.06238333,0.04946132,-0.110953115,0.034683384,-0.089503415,0.023567587,-0.15794824,0.13579546,-0.02075146,-0.040422343,0.02258087,0.04868091,0.021738207,-0.07684827,-0.17011188,-0.16526946,0.09040818,-0.07630186,-0.1641874,-0.09743116,-0.0082081705,0.15028852,0.16297704,0.10592784,-0.10294857,0.21998003,0.035844903,-0.1690226,0.047294293,0.1681447,-0.07338927,0.054026198,0.086382255,-0.08893781,-0.021601442,-0.0659293,-0.048980378,-0.008086117,-0.019757956,-0.008839734,0.107217975,0.01557133,-0.007643128,-0.1302995,-0.07016987,-0.13657486,-0.072392344,0.035885666,-0.0834312,0.053320475,-0.106861494,0.19620493,0.0275497,0.14088856,0.09486871,0.13281173,-0.13115197,0.022283768,-0.041429263,-0.06117783,0.045508634,0.10679616,0.048298623,-0.12346407,0.24106723,-0.071001716,0.009212889,-0.013493327,-0.04423306,-0.08730406,-0.01600576,0.14706622,-0.09977369,-0.23708585,0.105067395,0.016026895,-0.045715474,0.031593487,-0.13928376,-0.033183243,0.07403461,0.00093354157,-0.036414117,-0.17013246,-0.023809457,-0.27254778,0.14510249,0.06960794,0.03581707,-0.10412023,0.10624192,0.020076958,0.04682616
LINC00319,0.0035297426,0.11653642,0.1459784,-0.028933346,0.01794664,-0.3077449,-0.113180086,-0.052748274,-0.15248293,-0.2605988,-0.07970317,0.19047828,-0.26554114,0.2644785,0.24596693,-0.07826621,0.010803947,0.035108488,0.032408196,-0.035931177,-0.13719088,0.100075,-0.024049925,-0.14030893,0.053395424,-0.14146386,-0.02427955,0.13371024,0.08227428,0.32686213,-0.09657942,0.042906165,0.09767556,0.016421078,0.0439201,0.12753253,0.2046537,-0.09279845,-0.104543485,-0.15993086,0.0041134,0.1203483,-0.01597223,-0.12414266,0.13204287,-0.052634504,0.037797604,-0.1617064,-0.124619186,-0.06216479,-0.035339884,-0.30410445,-0.121895745,-0.14062686,0.11429769,0.049188837,0.013813616,-0.0078087794,0.11855466,0.04566663,0.052380774,-0.06254126,-0.10603678,0.059541598,-0.27111414,0.07929639,0.13779218,0.02934803,-0.25429216,0.11583245,-0.12388852,0.05537952,0.07839154,0.126564,0.27870604,-0.13501687,0.028918644,0.17859852,-0.06429286,0.1185274,0.0494693,-0.14597559,0.20710687,-0.096199974,0.0037963176,0.054587122,-0.0011401947,0.21418494,0.03293715,-0.011017666,-0.02436928,0.46563244,-0.17940997,0.076062955,0.12630032,0.011799732,0.011007454,0.073965654,0.04223725,-0.00011904939,0.121424556,0.05876396,8.1989216e-05,-0.24597558,-0.16565117,0.17015979,-0.10913798,0.22152215,-0.05041825,-0.046094935,-0.011841905,0.07431742,0.19984648,-0.03327329,-0.0900922,-0.15586847,-0.05993501,-0.001718523,-0.026668,0.07756126,0.0620937,0.15264368,0.18994756,-0.009943148,-0.07183859,0.099589854,0.024345264,0.053515002
LINC01224,0.045547217,0.050975703,0.09499342,0.16458039,0.016149187,0.12588497,-0.1326693,-0.022644602,0.10373628,-0.017129416,0.010558382,0.10667998,0.13051635,-0.15193433,0.082092956,-0.15518115,0.07165489,-0.057900503,0.12042998,-0.08220863,0.027743075,-0.20416,-0.1316044,0.011350696,0.07574853,0.09823976,-0.016013963,-0.0171931,-0.007205886,0.11289106,0.14657788,-0.00076986395,0.12858708,-0.110149965,0.1267703,-0.023028811,0.19639008,-0.0077597024,0.16530943,-0.19972584,0.08869323,-0.12515233,0.012556253,0.028894791,-0.04017339,-0.08652083,-0.122805595,-0.015283784,-0.0794471,-0.23260573,0.11933818,-0.1150931,0.17946935,-0.065175906,0.13672808,0.046882402,0.106429555,0.10716115,-0.16637297,-0.07056246,0.11027447,0.035374228,-0.19355452,0.1194346,0.089386985,-0.14236216,-0.020842487,-0.011259278,0.09073112,-0.028972596,-0.12179944,0.05663281,0.04955025,-0.08301704,-0.041564945,0.014057895,-0.11029036,-0.13286129,0.023276893,0.52684003,-0.113954775,0.10732264,-0.08279362,-0.027501335,0.06541084,0.07383544,0.034362763,-0.03954716,0.052689936,-0.13650705,0.17519476,0.1332646,0.09065926,-0.093455024,0.10857251,-0.014068141,0.26866224,0.14838329,-0.09190572,0.0494761,-0.26149046,-0.15563121,-0.10058984,0.13046345,-0.19730191,0.057731688,-0.014646977,0.055317454,0.07287125,0.10376971,-0.0029613504,-0.008404547,0.11846121,-0.29283354,-0.013166824,0.051293317,0.020767767,-0.19710594,0.07275744,-0.16844237,-0.07131948,0.16952272,0.15488125,0.007832651,0.082634576,0.02524866,-0.036824543,-0.19441128
HOTAIRM1,0.009761868,0.090034716,0.015236609,-0.057035238,-0.20917936,0.114351444,0.05488988,-0.0825555,-0.18175797,0.14928506,-0.08369317,-0.13788779,-0.10924252,0.0795712,-0.20860875,-0.034817446,0.17945589,-0.078476764,-0.21230653,0.037474286,-0.04490394,0.27103552,0.0050357063,-0.044829242,-0.031685133,-0.06329456,0.003496394,0.110102035,-0.020433435,-0.021532666,-0.033788826,0.11221067,-0.057957243,0.11565766,-0.009609685,0.10333169,-0.11081111,0.09253947,0.008009173,-0.06587536,0.06018747,-0.05473482,-0.029997924,0.0004351004,-0.06992677,-0.073642015,0.013282536,0.05440663,0.059126,0.14575672,0.0736904,-0.13620189,0.056390163,0.21006514,0.0035165553,-0.13522273,-0.08960565,-0.09202027,0.087625764,0.069334924,0.013265017,-0.024047015,0.010988183,-0.030274643,-0.081251666,0.02376272,0.0010611562,-0.16343182,-0.072573066,-0.008548463,0.09371874,0.035136323,-0.027422797,-0.18217503,0.05643669,0.0950507,0.019712461,-0.05586077,-0.051303364,0.041271538,-0.05562976,-0.04851195,-0.009184778,-0.006896289,-0.026248826,-0.005169706,0.09849109,0.13755558,0.114790894,0.0516213,0.13087152,0.13054287,-0.24604309,-0.04951141,-0.1415428,-0.08318583,0.20741369,-0.018730622,-0.18408808,0.059979748,0.06791797,0.13721256,-0.05761182,-0.04391104,0.021303244,-0.03232136,-0.12387603,-0.030053565,0.0024502906,-0.0064107445,0.045397513,0.16499004,-0.17246023,-0.016049495,0.040883828,-0.051268544,0.027557293,-0.045917537,0.036673468,0.017962536,-0.0262342,-0.039841432,0.0085472185,0.009465674,0.080313586,0.038401898,0.110850014,0.02598291
RPSAP52,-0.008648634,0.13441512,0.041550145,0.07962847,-0.046610136,0.16188617,-0.29498038,-0.078933895,-0.07045654,0.25628912,0.115006655,-0.14793298,0.004174581,-0.10041213,-0.17716905,-0.1801113,-0.004959932,0.17045726,0.06803947,-0.15722708,-0.07535147,-0.04266697,-0.10836195,0.10394299,-0.060763307,0.010298677,-0.11616142,0.12808308,-0.047153257,-0.0926925,-0.028283093,0.039562482,0.03578338,0.031157004,-0.19455004,-0.015691718,0.1130124,0.18243395,-0.26187918,-0.18267395,-0.22261998,0.023723243,0.11189871,0.10126565,0.10870198,0.08525834,0.08830797,0.08604338,0.22885159,0.22093868,-0.39516854,-0.116015196,0.027559463,-0.002630386,0.019933648,0.14875494,-0.061677806,0.011825158,0.02733811,0.11948472,0.04339416,0.0093266405,0.03809912,0.044622723,-0.013868837,0.025884526,-0.37344852,0.07136387,-0.105166554,0.062906295,-0.19681796,0.005262067,-0.07692608,-0.20820978,-0.13764134,-0.03247188,-0.030368129,0.1002093,0.016294245,-0.04322387,0.03975353,-0.27557155,0.24336934,0.07303942,-0.06519281,-0.015728565,-0.007448109,0.033414703,-0.046058703,0.045714356,0.15432091,-0.123592265,0.05341084,-0.09148198,-0.16731922,0.03054122,0.07561909,0.059076685,-0.09825217,0.062734246,-0.1919882,-0.10534184,-0.037121,-0.07464391,0.03847069,0.057469558,-0.1586115,-0.03167749,0.06390746,-0.037319276,-0.07514336,0.070808806,-0.0327759,-0.12565112,0.08080548,0.14316648,-0.16286927,-0.047843438,-0.23397009,-0.058951918,0.013500484,-0.13898493,0.09314892,-0.15611647,0.062151827,-0.12222207,-0.035938583,-0.025508527
NNT-AS1,-0.08475824,-0.041201238,-0.20508982,-0.1809518,0.005207626,0.017904792,0.0069042733,0.062999636,0.07475053,-0.30576465,-0.015027074,0.16581596,0.12914409,0.24323767,-0.06454238,-0.046914794,-0.013052912,-0.086707234,0.07669636,0.004962638,-0.115231305,-0.005069992,0.057960324,0.034145966,-0.059996642,0.056047548,0.090139516,0.055394083,-0.07011873,0.023548184,0.1542292,-0.048494767,0.015367131,0.07820266,-0.15705794,0.32487002,-0.01864707,0.1452827,-0.08890609,-0.05040585,-0.1797501,0.06430102,0.054185998,0.08298654,-0.016731767,0.3224549,0.07587471,0.15957862,-0.1357091,0.040999457,0.10301988,-0.11196102,-0.19353122,0.11168557,-0.118815765,-0.009086162,0.38240755,-0.097451665,0.045472134,-0.058066383,0.1254006,-0.3043345,-0.1657968,-0.12347289,0.1512764,0.048295617,-0.13347025,-0.039578617,0.032789722,-0.20930159,-0.1322474,0.018658848,0.022806516,0.08727081,-0.067895696,0.08911286,-0.031715993,0.087157086,-0.19721869,0.0024096202,0.03872548,-0.03872471,-0.10676876,0.11653851,0.07337445,0.043074273,0.1441461,-0.028726531,0.05866519,-0.0027078807,-0.010073564,-0.15567419,-0.083071984,-0.0076916246,0.07720418,-0.021946019,0.061028134,0.0029514956,0.037592754,-0.014294231,-0.003261271,-0.037053246,0.23242019,0.050675884,-0.044174157,0.05206503,0.204115,0.103226766,0.12337138,-0.0048039155,0.027813157,-0.030946264,0.15669873,-0.2310943,0.053825144,0.10460225,-0.19135265,-0.02329268,0.11706716,0.104398176,-0.35545507,0.1785414,0.21935219,-0.0198876,-0.03759108,0.33740318,-0.030774878,-0.5657008
LINC-ROR,0.12069285,-0.06852081,-0.077889904,-0.020390127,0.042771827,0.099764176,0.09451527,0.028039142,0.07716672,-0.12798588,0.030334435,0.03046791,0.10246922,0.12908587,-0.24120134,0.051897217,0.12642929,-0.05515764,-0.015928945,0.12366389,0.08107507,0.09637337,0.021075979,-0.040196486,-0.044273786,-0.05049628,0.14969154,0.10743224,-0.09409801,0.025191398,-0.022464573,-0.20709674,0.10109928,-0.04946161,-0.11744063,-0.060593177,-0.078818284,-0.10103215,-0.11918565,-0.15373829,-0.059063066,-0.0531793,0.082253076,-0.112561785,-0.048631016,0.0984625,0.14748032,0.0201616,0.06457944,0.023559935,-0.053326473,0.06884377,-0.07583716,-0.10339795,0.06842278,0.010925963,0.022619188,-0.03219692,0.022701591,0.05660876,-0.06874188,0.115010604,-0.15406448,0.0197176,-0.13846596,-0.042646736,0.21353374,-0.085559465,-0.12129292,-0.07957167,-0.20688069,0.045535415,-0.008507385,0.14355662,-0.20696771,-0.09074071,0.025807066,-0.15475991,0.07558647,0.06722978,-0.089201316,0.03725373,-0.1876723,0.04336685,0.1375933,-0.11362704,0.06859941,-0.081261754,0.3757356,-0.0123180775,-0.017867735,-0.15615979,0.043917526,0.13070925,-0.027753865,-0.03830367,-0.06193566,-0.007998416,-0.0018883942,0.07717428,-0.037759244,0.04888707,-0.14212668,-0.032238927,-0.00036280358,0.1495645,-0.0038704271,0.022621779,0.10627902,0.058662664,0.011267873,0.06667715,0.13661218,0.06812191,-0.00417305,0.1744642,0.05979708,-0.09107124,-0.15755406,0.056408156,0.041065577,0.061430614,-0.03168679,0.029049218,-0.0439878,0.05000249,0.10652359,0.07404514
FENDRR,0.05739865,-0.06213827,0.029915156,-0.05873281,-0.07884525,-0.04938853,-0.11153795,0.1059532,-0.081399255,0.0093398485,0.0035182852,-0.021751804,-0.17464106,0.035390414,-0.041072402,0.039456856,0.103861205,-0.076951005,-0.039635688,0.031918697,0.09202046,0.13741782,-0.098133355,0.14028409,-0.002533363,-0.08430516,0.0015731924,-0.018161206,0.08652991,0.055924512,0.0016689092,-0.08540521,-0.13046138,0.044959605,-0.017284822,-0.1526404,0.07833698,0.019452166,-0.032166086,-0.047788054,-0.10984125,-0.079985626,-0.04149535,-0.10675866,-0.09113358,0.08445345,0.06601937,0.080393195,-0.06604682,-0.033168476,-0.09360999,-0.22886568,-0.17080146,0.11403695,0.010567556,0.018610148,-0.074976705,0.05449777,-0.056762565,0.16432756,-0.16459896,0.047648028,-0.061779372,-0.014865407,-0.07055656,-0.09133067,0.022446107,-0.12238604,-0.14185344,-0.019663684,-0.040414855,2.1217209e-05,-0.085381284,-0.05688408,0.010341074,-0.10771705,0.06551558,-0.1475687,-0.054470826,-0.01912817,-0.040968735,0.035055302,0.009662853,0.086110875,0.13715161,0.08289591,-0.062013384,-0.18566138,0.20970905,-0.13916449,-0.1500328,0.10765963,0.057524335,0.057150636,-0.055124756,-0.24196965,-0.19359072,-0.03633571,0.17189267,-0.06374296,0.03100504,0.031955976,-0.062171098,-0.09262508,-0.0020495648,0.003989435,-0.04025819,-0.27082998,0.044731926,0.113596,-0.026506519,-0.017873095,0.009909627,0.04863174,0.22410975,0.035549026,-0.08531737,-0.03178158,0.0630766,-0.014722941,0.05762086,0.0652774,0.06962747,-0.049398165,0.026513947,0.08627999,0.07186022,-0.11636108
TUSC7,-0.028946819,0.24228448,-0.2173666,-0.057146948,-0.10803568,-0.09844024,-0.076420866,-0.050073203,-0.04286708,-0.05672037,-0.10840988,0.22978753,0.085449085,-0.09671211,-0.061924748,-0.06273275,-0.02533297,-0.08062486,0.19889452,0.17671537,-0.0034532247,0.08614174,-0.026491554,-0.005529279,0.14148387,-0.09806405,0.16008003,-0.18853532,0.12734996,-0.18015553,-0.12371498,-0.16665226,-0.039389648,0.038775403,0.1347012,0.23754774,0.044840373,0.078934394,-0.10197217,-0.026750242,-0.26496264,-0.013684612,0.042521555,0.064694814,-0.19939353,-0.05130102,-0.15574545,-0.03353894,-0.019934742,-0.30676535,-0.009952616,0.06367747,-0.11395107,-0.019928914,0.27179164,0.01584947,0.003408533,-0.21807843,-0.037670203,0.14477745,-0.12100564,-0.04494546,-0.12146981,-0.07638066,-0.102443166,-0.013140606,-0.20092717,0.057407346,-0.11657847,-0.15719646,0.047311857,0.20963581,-0.07982106,0.014082927,0.07559381,0.030846475,0.025972156,0.042078193,-0.123270765,0.042826917,-0.11586507,-0.16460478,-0.100814156,-0.014073677,-0.1076962,-0.045245033,0.059907984,-0.11770768,0.06894257,0.017584652,0.021065742,-0.11418384,0.061051205,-0.1491126,0.017763421,0.094019726,0.005039966,0.04994396,0.003382272,-0.007886316,0.038992766,0.025112187,-0.031050846,0.038787317,0.074300185,-0.09905451,-0.03001122,0.11506168,0.049831696,0.08246382,-0.066336565,0.12221476,-0.015537922,-0.037149772,0.09827631,-0.09603768,-0.021842394,0.077290654,0.1561118,0.2077758,0.10673718,0.03282966,-0.042353023,0.0038658143,0.03344385,-0.047240574,-0.1382064,0.030999377
PCAT1,0.021257956,-0.018678876,0.1268728,0.010509443,-0.018109286,0.049822703,-0.026748689,-0.04573528,0.20267968,0.065223716,-0.12615868,0.033106625,0.013420683,-0.060126755,-0.05092849,0.05287279,0.06673198,0.03745647,-0.06852822,0.108301744,0.078649335,-0.009230564,-0.05986338,0.13883248,0.06721694,-0.067899056,0.15964125,-0.03111001,0.1329941,0.03086967,0.051568877,-0.059228636,0.09988969,-0.08933302,0.0072697294,0.08742379,0.050494373,0.18438222,0.040592648,0.14959995,0.022869578,0.010520278,-0.06122674,-0.06863241,0.08020238,-0.14431162,0.052487534,-0.10176604,0.2621206,0.02799192,-0.048249282,-0.011141072,-0.10902752,0.1161603,0.13860646,-0.050017737,0.093686014,-0.14661397,0.037571453,-0.017743466,-0.054938506,-0.14696632,-0.13609208,-0.06878038,-0.057002965,0.070661426,0.0892854,0.09426396,0.09716264,0.06397948,0.05129938,0.2013528,0.10907136,-0.1089833,-0.07466897,0.0160647,0.04374112,-0.029195119,0.023581248,0.00893795,-0.0025470646,0.101038806,-0.21163763,-0.03118991,-0.07303921,-0.22381786,-0.03467133,0.044855155,0.08413169,-0.1020653,-0.022460867,-0.086607724,-0.051182188,0.09425951,-0.046036977,0.101981424,0.03034383,-0.015404981,-0.0661682,0.06729556,-0.06569169,-0.037947115,0.107620254,-0.11743283,-0.009667651,0.031964883,-0.04709262,-0.06616983,-0.056410395,0.12773024,0.09925027,-0.059210755,-0.15607437,0.06525641,-0.07255317,0.08506191,-0.046591483,-0.28686205,-0.051259384,-0.025198948,-0.11046656,0.16303842,-0.11884808,-0.012139115,0.018257434,0.12769938,-0.014769678,-0.19317207
SNHG3,-0.052157495,-0.11300929,0.13146184,-0.07185832,0.15707184,0.016326243,-0.0121739665,0.42271325,0.098078996,-0.016362958,-0.17436847,0.12775765,-0.050151583,-0.16850217,-0.04853665,-0.025364919,-0.14573953,-0.10149597,-0.2025545,0.15698342,0.052096486,0.020111477,-0.11237217,-0.05899486,0.012583151,0.1877528,-0.030637482,-0.11644757,0.14751755,0.038376823,-0.020533055,-0.11498172,0.26744476,-0.029892819,-0.010308283,0.012346338,-0.14956076,-0.13250439,0.074493125,-0.18451786,-0.08427089,-0.20413767,0.017425237,-0.046532206,-0.18807529,-0.13755405,-0.18946762,-0.0922544,-0.017927732,-0.02656003,0.008902963,-0.114732094,-0.13527788,0.15908444,-0.020656835,-0.0650704,0.16099836,0.12459056,-0.11918545,-0.14063035,-0.02093526,-0.09645703,-0.101773866,0.09094189,0.017680518,0.006496463,-0.15907209,-0.21289796,0.056696646,0.11162042,0.028735273,0.07018555,-0.077396646,-0.22486062,0.09409485,-0.04572449,0.18073028,-0.099583894,0.32845882,-0.061089445,-0.11572054,-0.08499568,0.050640456,-0.07407662,-0.056260534,-0.12672485,-0.004695731,-0.000104900755,-0.053805593,0.027252657,0.117413014,0.01718568,-0.05322383,0.09827931,-0.07909986,-0.011045336,0.036795273,0.087903865,-0.06105264,0.083246455,0.02576256,-0.12641552,-0.019301118,0.028552609,0.04157325,0.2876834,-0.0560195,0.036145933,-0.1318365,-0.07301401,0.071745634,-0.15129493,0.05571261,0.06320441,-0.10041263,-0.10779798,0.1508823,-0.10656357,0.18246777,-0.26380378,-0.032761756,-0.0013480867,-0.1034884,-0.035237905,0.09111584,0.072626136,-0.113621086,-0.13288315
MIR155HG,-0.20240146,0.07845306,0.027927816,-0.025118617,-0.18557757,-0.0105554955,0.06476552,-0.04360922,-0.0007616887,-0.16622144,0.21603455,0.061434176,0.010742749,-0.023546966,0.031789053,0.022650355,-0.24381419,-0.083975375,0.032723866,-0.10888897,-0.15484835,0.027189367,0.106524244,-0.21842217,0.013723713,0.025857363,-0.09253447,-0.22566453,0.10086724,0.0508188,-0.05585399,-0.041138534,0.16819856,0.10695791,-0.03716602,-0.1880435,-0.26464295,-0.109108865,-0.16594599,-0.011015373,0.11860256,0.06637504,0.06849308,-0.030740246,0.013884175,0.14160943,0.14695656,0.20941542,-0.02591701,-0.039471775,0.14574037,-0.09641659,-0.12702405,0.0058565754,0.23529428,0.04205209,-0.051098462,-0.014716582,0.10289473,-0.0018556751,0.12650381,0.08695969,-0.072029896,0.115993515,-0.02633142,-0.051163312,0.12487964,0.012241373,0.025321899,0.17976783,-0.0932243,-0.04803239,0.19810042,0.035437487,0.086764805,-0.22446665,0.02989815,-0.0104743065,0.13142571,-0.18236512,0.13718797,0.042038936,0.124426566,0.0036923091,0.025439681,0.035147876,-0.032260362,0.19065133,-0.07975436,0.03548461,-0.089268036,-0.11564276,0.10921801,0.11676786,0.117349155,0.08734738,-0.013182776,0.01766178,-0.053997815,-0.08492563,-0.042595897,-0.02947292,0.10683518,-0.047345754,-0.15520133,-0.097036324,-0.09723511,0.062469356,-0.11838707,-0.0052979933,0.05674006,0.021659886,-0.080960244,-0.08988879,0.033697914,0.010785121,0.020701434,-0.0059626466,-0.025475958,0.2155343,0.057014316,-0.019013446,0.12037818,-0.008915116,-0.04014227,0.046539843,0.12016131,0.10058977
HCP5,0.12197796,-0.20562388,-0.07667825,0.054819673,-0.043054882,-0.14441831,0.05832138,-0.19257668,-0.14497794,0.24869183,0.018153885,0.14572535,-0.2665316,0.02782984,-0.23986131,0.19766667,-0.0690234,-0.16989262,0.054895982,0.19026567,0.3474171,0.1294876,-0.12804376,-0.04844635,-0.033353083,0.252516,0.055548124,0.19493824,-0.0064271437,-0.120621294,0.36103016,0.22060032,0.2523639,-0.097134806,-0.12354107,-0.017682327,-0.09526039,-0.1271656,0.34297422,0.09687961,0.1680394,-0.1377753,0.004697165,-0.04659437,-0.056256343,0.12227829,-0.07609675,0.22910278,0.28426355,0.18330115,-0.07953328,0.0075984616,0.12384844,-0.020203006,0.17431016,0.24778746,-0.22559802,0.041064613,-0.072117455,-0.14311711,-0.035910245,-0.15362671,0.031647645,-0.06829853,0.12358852,-0.10682614,0.014132431,0.21042423,-0.05900213,0.26356754,-0.06293609,0.16876604,0.06009985,-0.23533222,-0.0059956694,0.08079389,-0.025790896,-0.044923306,-0.016635904,0.25926337,-0.24711378,0.027571587,-0.0125039155,-0.0570539,-0.024307199,-0.02812114,0.27302825,-0.0038130989,-0.05676892,0.1281647,0.04340566,0.06692655,-0.10457273,-0.004822373,-0.049239315,0.10291784,0.15996167,0.32302678,-0.22270378,-0.09324198,0.15226044,0.75530016,-0.0769299,-0.11902004,-0.0050798403,0.0881174,0.05744261,-0.20040539,0.25054434,0.11890331,0.03833609,0.099086955,0.043636944,-0.0026344762,-0.11203732,-0.041844513,0.24836893,0.4618914,-0.21059212,-0.053133328,-0.09690738,-0.21195483,0.3679568,0.12442149,0.21554035,-0.032788426,-0.17144981,-0.18044677
CCDC26,0.04381647,0.12830268,0.016787136,-0.022540566,0.014444249,0.09453197,0.001987244,-1.3956684e-05,0.09118564,-0.08917121,0.006950169,0.07414638,0.07248404,0.050978046,0.02753588,0.074096955,-0.06006637,-0.024555244,0.03677403,0.03184975,-0.08969887,-0.042962443,0.015885575,0.06575848,-0.0020879307,0.13828926,0.16603187,0.072636254,-0.04030204,-0.067628145,-0.032455366,-0.017830696,-0.0196105,-0.026259715,0.12990275,0.039273817,-0.13365602,-0.06544442,-0.0009179509,-0.057117302,0.061597716,0.047009002,0.04405088,-0.032780427,-0.10000533,0.020203907,0.088936746,0.20750505,-0.07079374,0.080701694,-0.025283895,0.021542927,0.02213036,-0.0026353355,-0.041812904,0.011810331,0.13164693,-0.075099505,-0.16466004,-0.05213335,-0.111981034,-0.02801981,0.049619444,0.05253015,-0.08602244,0.024792122,-0.043765668,-0.078574196,0.14165968,0.27674836,-0.022355145,0.070291385,0.09535417,-0.22711585,0.09170906,-0.04183171,0.00428494,0.010663128,-0.09039538,0.07640725,-0.085983604,0.03768498,-0.06675326,-0.015001979,-0.0026105372,-0.13468255,-0.032474976,0.038680397,0.15278777,0.14698294,-0.0044005695,0.05272825,-0.08735332,-0.00045435876,0.114129126,0.062285822,-0.13490245,-0.030195758,-0.17968158,-0.052490763,0.024284914,-0.1238054,-0.008140061,-0.0049287593,0.025881939,0.054347694,-0.032398283,0.06430505,-0.10268975,-0.14244017,0.058413696,0.09035992,0.1985111,-0.11630075,-0.0072298488,-0.028042488,0.053950697,0.07891205,-0.051741358,0.0757219,-0.06120529,-0.073900394,0.03104611,-0.014165611,0.033962682,0.027418548,0.037172724,0.059423964
ZFAS1,0.031766452,0.04482245,-0.090417914,0.13777955,0.1027911,0.042502042,0.10044361,0.15679203,0.07550254,-0.016026864,0.006183336,0.01427096,-0.2966363,0.29049784,0.047487877,0.036899384,-0.13743082,-0.097328834,-0.14090882,0.070215605,0.15337567,0.03246278,0.083036624,0.045530036,-0.007557324,0.075388394,-0.024746777,-0.071327284,0.080248475,-0.08484131,-0.07047417,0.09285338,-0.058232777,0.007981013,0.057064213,0.10751782,0.031590596,-0.0032450329,0.18859366,-0.10554007,-0.07945313,-0.18256924,-0.052668206,-0.029483965,0.01953207,-0.053013384,-0.013447276,0.04657653,0.13922095,-0.13204245,-0.050223187,0.123126626,-0.27630833,-0.00057207246,-0.016994266,0.017361853,0.13799351,0.08348139,8.9573674e-05,0.28123447,0.11763586,0.08357958,-0.0037593471,-0.049625117,0.09114344,-0.064427085,0.09467564,-0.0053380425,-0.11034724,0.165521,0.0059184963,0.13121715,-0.049653783,-0.016108045,-0.2174851,0.045437485,-0.10967534,0.015195974,-0.039405793,0.10820405,-0.03291505,-0.169484,-0.06992706,0.047501765,0.0012486276,-0.0382466,-0.0840266,0.021680102,-0.13570125,-0.039834235,0.0182538,0.15407956,-0.07438507,0.09729154,0.04086309,-0.09968942,-0.00377132,-0.016231803,0.04373083,-0.18477997,0.007961279,-0.100736335,-0.0418366,0.03838006,-0.081928,-0.012502274,0.020233234,-0.12819621,0.0069452166,-0.17974809,-0.3419605,0.023903111,0.101658456,0.06941173,0.22358346,-0.04150533,-0.01503092,0.048208393,-0.12794833,-0.100445986,-0.072384715,-0.16148406,0.13566686,0.06561614,0.109333105,0.19928557,0.033618834,-0.19918194
DLEU2,-0.18207352,0.17424306,0.046595756,0.061945803,0.0030969242,-0.06164459,0.11268087,0.05058653,-0.1183012,0.015782379,-0.17524181,0.0026770001,-0.20720889,-0.08848913,-0.09083808,0.13314232,-0.03373123,-0.037871223,-0.08994804,0.040126607,-0.10525376,-0.07607802,-0.1897366,-0.11749422,-0.109407134,0.06274482,0.15184143,0.0040609306,0.028615562,-0.015227993,0.08076967,-0.16708027,-0.17732395,-0.09785781,0.06373862,-0.12923005,-0.23681925,-0.06658046,-0.03448378,-0.14078563,-0.12275581,-0.17076722,0.047680635,0.0977769,-0.28777325,-0.014569982,-0.117517106,-0.216387,-0.01939263,-0.010455663,-0.008088379,-0.08285521,0.11166827,-0.09638823,-0.20823207,0.012853293,-0.12878378,-0.09985862,0.05023743,-0.02846157,0.17550407,-0.05971757,0.046073534,0.105744995,-0.04851042,-0.16012974,-0.03385523,-0.058101725,-0.05666804,0.0041271513,-0.022652201,0.13510585,-0.016409902,-0.1892818,-0.16138598,0.11419306,0.00029970543,0.026204843,0.043635502,-0.040146142,-0.044190895,-0.03381337,-0.049800467,-0.08406852,0.003049219,-0.015188083,-0.086270936,-0.07111285,0.028953575,0.1398202,0.037569217,0.023764491,-0.04626039,0.18904474,-0.02332875,0.25304404,0.0323002,0.07681462,0.1812356,0.28998613,-0.11682813,0.22291748,-0.2429878,-0.118927024,0.071838506,-0.13644476,0.07581649,0.11087225,0.15851952,0.27814972,-0.1224216,0.07127801,-0.07886849,0.00019771769,-0.007678759,0.048648074,0.12673815,0.075602,0.018758265,-0.2817894,0.0029288367,0.108261526,0.28269792,0.014431308,0.117176026,-0.048275717,-0.021087548,0.04878103
FLVCR1-DT,0.073087394,0.17784427,0.01789405,-0.084784076,-0.16909498,0.15248583,-0.016901,0.030704092,-0.006614263,-0.11819028,0.1415514,-0.0544724,-0.25904018,-0.121400304,-0.103056125,0.12118959,-0.10497551,-0.03764782,-0.27414948,-0.05264508,0.05557355,-0.076047756,-0.0044910167,-0.047899734,-0.014910132,-0.037794538,-0.013687188,-0.058089793,-0.15382306,0.20634736,-0.11452115,-0.04089347,0.30125996,-0.032697793,0.12056176,-0.071745306,0.14955226,-0.0012971786,0.215065,0.07057855,0.023973363,0.032742072,-0.026892217,-0.1267674,-0.13557282,-0.039563738,-0.060025696,-0.09241982,-0.19925995,-0.11917052,0.13255753,0.3835732,0.016743215,0.065293685,0.04620278,-0.12597734,0.051963124,0.09160427,0.1481645,-0.014442942,-0.009782088,-0.030856146,0.124126814,-0.06445113,0.045967884,0.05541537,-0.146796,0.008071866,0.10537487,0.10412903,-0.12034466,-0.036075152,0.09110114,0.11401151,0.1019015,-0.056997746,0.029066494,0.060860895,0.09912888,-0.034594916,0.13844165,0.09014214,0.1321759,-0.0105734365,-0.08830221,0.10943543,-0.016583934,-0.19012953,-0.05990306,-0.4772034,-0.031850796,0.134595,-0.06450156,0.03554037,0.0023018792,-0.17278235,0.093269885,0.19146846,0.06313579,-0.11622823,0.047001943,-0.18455827,0.02418342,0.05214499,0.07034672,0.18032396,0.02702848,0.053615555,-0.033887316,0.21441329,-0.212593,0.0615055,0.078900166,0.046324,-0.16865507,0.0511163,0.2376224,0.0888242,0.02070782,-0.6628634,0.27143714,-0.12636189,0.15972574,0.014237309,-0.19071254,0.15902738,0.05926969,-0.045570567
LINC00963,0.002780278,0.13901632,-0.13039893,0.14360666,0.09523444,-0.0164409,0.005309585,0.13374881,-0.0032346654,0.15489888,-0.036672816,0.107357755,-0.11180183,-0.0067574363,-0.13872784,0.0697251,-0.18383789,0.118415594,-0.018395524,0.019594356,0.09765927,-0.17710544,-0.08510684,-0.054189228,-0.02976988,0.095693514,-0.14911824,-0.09710455,-0.06996407,-0.026954228,0.15276517,0.09112131,0.07781204,-0.065582335,0.17815104,0.06566851,0.124460585,-0.040502165,0.36425382,-0.103370205,0.019350382,0.019807613,0.16043903,-0.066082925,0.019157397,-0.003296966,0.03875333,-0.002834867,-0.003913121,0.05912634,0.002377602,0.11474268,0.058137327,0.0058982135,-0.04841988,-0.14698066,0.094610214,-0.099275745,0.35765606,-0.058499876,0.05769699,0.027588973,0.039229207,0.039159313,-0.07867824,-0.016755737,-0.11478225,-0.0487682,-0.09303572,0.05489488,-0.11954911,0.2019873,0.11589905,-0.05800561,0.04207028,0.11635918,0.040778603,-0.024480913,0.013609989,0.12213431,-0.05621182,-0.029862253,-0.06796256,-0.15781909,0.13000864,-0.16738784,-0.13182938,-0.05227537,-0.15052904,-0.047965873,0.0024399527,0.06486456,0.07728615,0.06374227,0.1701982,-0.027510202,0.06534089,-0.06830338,0.11252377,0.12497945,-0.011454869,0.1184009,-0.21958409,-0.09552175,0.11753056,0.016673386,0.27223977,-0.0065565435,-0.0413076,-0.07622498,-0.17105961,0.043662123,0.07531185,0.00530996,0.1981471,0.018530946,-0.037276134,-0.08144816,-0.17217475,0.002112912,0.15594447,0.12027983,-0.06365359,-0.14248413,-0.10258662,0.0011630998,-0.15758142,0.43483308
